round,84386,45477,7096,116093,46199,111599,74870,54805,21583,61568,36697,37080,71961,3780,74301,81887,78067,20113,28181,2222,7218,30079,120114,22550,36073,89681,36312,30036,120192,18436,30221,71357,34827,2124,43312,101997,19025,67578,144,17004,16187,14285,35159,12972,25686,93563,98233,103856,68513,24922
0,-0.034903757,0.0024830336,-0.04292933,0.031850602,0.03373924,0.0010719617,0.02029976,0.020063026,0.0141279455,-0.008197229,-0.02201694,-0.017802821,0.021330051,-0.0284747,-0.009401678,-0.006558489,-0.03268545,-0.034090374,-0.004255408,0.024847567,0.03077627,-0.024537977,0.023458209,0.0034604692,0.008755766,-0.010824497,-0.027781771,-0.019639,-0.08209505,-0.030960258,-0.027857874,0.026029337,0.030538183,0.034867994,-0.022792645,0.009676233,-0.020853061,-0.021705065,0.013529815,-0.0016092074,0.010578696,0.0021135912,0.008828696,-0.036636543,0.015318057,-0.007232149,-0.0026830542,0.031849906,0.0010554258,-0.02099286
1,-0.034795977,0.0031580739,-0.0432443,0.031821996,0.033843704,0.0010444595,0.020444851,0.020120516,0.014102821,-0.0077620894,-0.022024512,-0.01779887,0.021816157,-0.027643168,-0.009223939,-0.0065633403,-0.0327273,-0.034091055,-0.0042338846,0.026001852,0.030571468,-0.024534944,0.023092274,0.0034664278,0.008749031,-0.010824281,-0.027731208,-0.019644238,-0.081922516,-0.030970775,-0.02785354,0.026063079,0.030544793,0.03486816,-0.02278976,0.009631351,-0.02077571,-0.021708427,0.016659833,-0.0018753461,0.010684911,0.0020363578,0.008862261,-0.03661672,0.01532079,-0.00695277,-0.0023648068,0.031889725,0.0009365208,-0.02093906
2,-0.034541648,0.0041195103,-0.04348189,0.031828877,0.034319814,0.0010205492,0.020568717,0.02013169,0.014097616,-0.0071253944,-0.022040244,-0.017801529,0.023343537,-0.02638122,-0.008994285,-0.0063507278,-0.032786228,-0.034091055,-0.0040694023,0.028137416,0.03047272,-0.024525218,0.022844896,0.003472507,0.008749653,-0.010824281,-0.02759284,-0.01964899,-0.081744805,-0.030830856,-0.02776796,0.0260708,0.030542193,0.03500412,-0.022802252,0.009642217,-0.021071294,-0.021778539,0.02214739,-0.0021052854,0.010921844,0.001962185,0.008907941,-0.036614016,0.015305808,-0.00653613,-0.0025404268,0.031926546,0.00081249746,-0.020964826
3,-0.034148656,0.005627497,-0.04339638,0.03184083,0.033936024,0.0010393539,0.02082797,0.019940726,0.014186085,-0.0059002116,-0.02204903,-0.01780317,0.025040492,-0.02404104,-0.0087014865,-0.0063019395,-0.032846093,-0.034091055,-0.0039485153,0.030061703,0.030493144,-0.024645176,0.022699136,0.0034727508,0.0087524615,-0.010824281,-0.02747316,-0.019653462,-0.08209472,-0.030793011,-0.027815433,0.026079971,0.030548424,0.035349123,-0.022815272,0.009605914,-0.021965072,-0.021936115,0.030779893,-0.0023332832,0.011131858,0.0018722126,0.00926104,-0.03651133,0.015305973,-0.005840754,-0.0018470235,0.031958282,0.0006176825,-0.021034133
4,-0.033641115,0.0056993524,-0.043246932,0.03186035,0.033934172,0.0009947858,0.021224942,0.019850815,0.014123188,-0.0033683435,-0.022037294,-0.01780628,0.025393998,-0.022089256,-0.008314941,-0.0067228414,-0.032857593,-0.034091055,-0.0035497374,0.031162955,0.030854207,-0.024586976,0.022755085,0.003484882,0.00874187,-0.010824281,-0.027494658,-0.01966547,-0.08217256,-0.030692628,-0.027747422,0.026133088,0.030549379,0.03560684,-0.022809062,0.009442645,-0.022515632,-0.022073366,0.036801223,-0.0023307856,0.011320094,0.0018536081,0.009221466,-0.036344912,0.015522696,-0.005371402,-0.0028657152,0.031894498,0.000609037,-0.021348463
5,-0.033143505,0.0068188407,-0.043369666,0.031896345,0.033596534,0.0010189267,0.02191195,0.019717593,0.013792656,-0.0019408994,-0.02204256,-0.017812053,0.025440915,-0.020218952,-0.008143466,-0.006971792,-0.0328669,-0.034091055,-0.0038993675,0.031609714,0.031176101,-0.02459899,0.022785762,0.0035283274,0.008870133,-0.010826123,-0.027189635,-0.019662648,-0.0816154,-0.030383138,-0.02753077,0.026192887,0.030540165,0.036050834,-0.022823581,0.009043209,-0.02240696,-0.02236733,0.040902615,-0.0024526087,0.010965955,0.0018502919,0.008935299,-0.03605877,0.015432065,-0.005173187,-0.0028267647,0.031856857,0.00072839344,-0.021658553
6,-0.03282064,0.007270637,-0.043466985,0.031911716,0.033857055,0.001026478,0.022415888,0.019790094,0.013771288,-0.0013367872,-0.022053037,-0.017820928,0.026302591,-0.0181414,-0.008332517,-0.0069180448,-0.03287566,-0.034091055,-0.004238813,0.030145265,0.0315128,-0.024513766,0.022843212,0.0035599396,0.0085080825,-0.010823725,-0.02694579,-0.019664254,-0.08207489,-0.03019082,-0.027442329,0.026248213,0.030541934,0.037049104,-0.022838088,0.008854911,-0.022277165,-0.022785269,0.042367637,-0.0025914235,0.011345837,0.0018355439,0.008494517,-0.035612736,0.015628338,-0.0050794883,-0.0032825246,0.0317684,0.0007128622,-0.02163004
7,-0.03238994,0.0074721994,-0.04429838,0.0317834,0.033158403,0.0010717338,0.022728385,0.019876275,0.013084343,-0.0009250643,-0.022071242,-0.017822182,0.026402961,-0.017700132,-0.007914208,-0.0070363907,-0.032886308,-0.034091055,-0.0037020454,0.030598722,0.031595353,-0.024426319,0.023020219,0.0035549593,0.0078215,-0.01081286,-0.026492758,-0.019672329,-0.08156866,-0.030139077,-0.02748473,0.026288558,0.030540258,0.03709906,-0.022840444,0.00863796,-0.022237722,-0.023169897,0.04049569,-0.0021291215,0.011565736,0.0018067994,0.008218218,-0.03571392,0.01551461,-0.0055273212,-0.0028222783,0.031762816,0.00051573745,-0.021936268
8,-0.03160819,0.007688481,-0.044272665,0.031554453,0.033337153,0.00126156,0.023208166,0.01992268,0.013266357,0.00024892352,-0.022049397,-0.017819654,0.026849497,-0.016186576,-0.007771708,-0.006278349,-0.032890793,-0.034091055,-0.0036656745,0.030826304,0.031938653,-0.024352219,0.022855077,0.0035802177,0.007264609,-0.010782838,-0.0262123,-0.019681629,-0.081528105,-0.029727742,-0.027270216,0.026324283,0.03053389,0.037484538,-0.022862319,0.008735072,-0.022576977,-0.023362318,0.042761173,-0.0020404726,0.011843308,0.0018207502,0.0077856006,-0.035654735,0.015570396,-0.005611911,-0.0027363105,0.03172966,0.0007465122,-0.021972198
9,-0.0313241,0.0071758553,-0.044589147,0.03151336,0.033364873,0.00150434,0.023181528,0.019995581,0.013029545,0.0005387519,-0.022008292,-0.017797904,0.027391264,-0.016806886,-0.007726586,-0.0058198823,-0.0328864,-0.03409127,-0.0048735086,0.028678525,0.03226165,-0.024374805,0.022582302,0.0036513687,0.0071735606,-0.010712942,-0.02581028,-0.019680597,-0.08181718,-0.029373832,-0.027304659,0.026365347,0.030533168,0.03794638,-0.022888726,0.008825967,-0.022687731,-0.023572348,0.04260892,-0.001635933,0.012347499,0.001829467,0.007900203,-0.03581593,0.015283386,-0.005472243,-0.0022956394,0.03166669,0.00073804404,-0.022077968
10,-0.031215196,0.0067443065,-0.044549793,0.031270806,0.03266418,0.0018456723,0.023506999,0.02015964,0.012945806,0.0007453852,-0.021951605,-0.017786104,0.027740829,-0.016027177,-0.007251288,-0.005113382,-0.032883584,-0.03408578,-0.0050213095,0.028826576,0.032400325,-0.02442975,0.02253486,0.0037307427,0.0062728035,-0.0104477275,-0.025619507,-0.019697843,-0.08130592,-0.02861691,-0.027515715,0.026468692,0.030528551,0.03928569,-0.022868887,0.009332557,-0.022828238,-0.023848265,0.044506315,-0.0013843793,0.012978143,0.0018360172,0.007634259,-0.035689957,0.015495619,-0.0062399525,-0.0021180434,0.031604074,0.0008163869,-0.022238128
11,-0.03095685,0.0065136254,-0.04509715,0.0310752,0.03241805,0.001792698,0.023714919,0.020398386,0.013182342,0.00079054356,-0.022021078,-0.017844435,0.028372709,-0.015475735,-0.007033907,-0.0047269724,-0.032884642,-0.034086537,-0.0055391486,0.028528655,0.032537166,-0.024341285,0.022373015,0.0037579406,0.0064173597,-0.010470245,-0.02503265,-0.01970751,-0.08248156,-0.028234052,-0.027447157,0.026474632,0.030534048,0.038770646,-0.022855625,0.009558866,-0.023084536,-0.024114592,0.0420702,-0.0015925859,0.012681268,0.0018424874,0.007780793,-0.035839386,0.014570649,-0.0057741026,-0.0017491011,0.031625282,0.00071368815,-0.02237147
12,-0.030622879,0.006149137,-0.045456022,0.031101365,0.03260278,0.002286955,0.024012465,0.020646632,0.012600081,0.0011570241,-0.02198185,-0.017851595,0.028595747,-0.016235664,-0.007033396,-0.004401182,-0.032880817,-0.034090202,-0.004848527,0.029291071,0.032549445,-0.02422819,0.022461902,0.0038490384,0.0056936536,-0.010364301,-0.024753459,-0.019717976,-0.08199988,-0.027622465,-0.027560955,0.026533823,0.030517275,0.03941665,-0.022764768,0.010406502,-0.023119966,-0.024386153,0.044629127,-0.0017335287,0.01285376,0.0018258204,0.0077419262,-0.035999224,0.015113881,-0.0059168693,-0.001838777,0.031646032,0.0011371397,-0.022580605
13,-0.030226544,0.0057901116,-0.04528472,0.03076295,0.032701306,0.002607231,0.024222717,0.020960478,0.013430443,0.0009330318,-0.021972407,-0.017756697,0.029169573,-0.01603411,-0.0069434224,-0.0035257065,-0.032866064,-0.034079388,-0.0058150324,0.025758341,0.032376222,-0.024246572,0.02257292,0.0039508725,0.006130661,-0.010260092,-0.024093688,-0.019732889,-0.08209145,-0.026928373,-0.027854646,0.02662149,0.030516833,0.04006867,-0.022740712,0.010684896,-0.02327323,-0.02461255,0.04551461,-0.0016620847,0.014008151,0.0018294542,0.00767389,-0.036760766,0.015482163,-0.0057136207,-0.0019528188,0.031527523,0.001495768,-0.022893157
14,-0.030306036,0.006458974,-0.045100812,0.03096667,0.03235338,0.00276218,0.024584197,0.021458589,0.013364496,0.0016219687,-0.021972567,-0.0177534,0.029135248,-0.0146774445,-0.006737452,-0.0028426396,-0.032865763,-0.034079682,-0.0060691657,0.024321489,0.03223138,-0.024197249,0.022429813,0.004145755,0.005579862,-0.0103983125,-0.02420268,-0.019728215,-0.08251551,-0.026986929,-0.027787087,0.02678462,0.030509548,0.040196583,-0.022689313,0.011615643,-0.02320378,-0.024510032,0.044455815,-0.0013278429,0.013746815,0.0018076571,0.0075860694,-0.037204243,0.015139832,-0.005421412,-0.0016945361,0.031482056,0.0014832439,-0.023010463
15,-0.030128857,0.0050124004,-0.046085123,0.031044219,0.03246854,0.0025708773,0.024830787,0.021574676,0.013836481,0.00088870095,-0.021877129,-0.017681768,0.02930323,-0.014699819,-0.0061155427,-0.0026120527,-0.03285554,-0.034049958,-0.006289503,0.023664095,0.031904023,-0.024232276,0.022552097,0.00432528,0.00394446,-0.010711303,-0.024123242,-0.019740649,-0.083082356,-0.02667563,-0.027845219,0.026812978,0.030493356,0.040012777,-0.022807395,0.010848918,-0.023397638,-0.025026428,0.043121155,-0.0016319989,0.014137648,0.0018116684,0.0077218944,-0.038015626,0.014692757,-0.005405303,-0.0016667385,0.031419937,0.001929428,-0.023105478
16,-0.029598078,0.0051897545,-0.046666782,0.030692814,0.032589044,0.0022050256,0.024889374,0.022205113,0.01316734,0.0014044112,-0.02183237,-0.017676197,0.028790113,-0.014898442,-0.0058759027,-0.0014425069,-0.032864526,-0.034061976,-0.006928275,0.025758618,0.03165324,-0.024188163,0.02315573,0.0045591663,0.0023779008,-0.010808284,-0.02467522,-0.019732412,-0.08338846,-0.025728231,-0.027792577,0.027086059,0.03047815,0.040808685,-0.022780107,0.0116427895,-0.023525132,-0.02521489,0.045632605,-0.0013807386,0.014763111,0.0018414878,0.008024739,-0.03864991,0.014601225,-0.005421126,-0.0014204846,0.031508613,0.0024802585,-0.023540355
17,-0.029480636,0.0062975073,-0.047228105,0.030953348,0.03264396,0.001906737,0.024889678,0.022500541,0.013123758,0.0018274155,-0.0218525,-0.017776657,0.028589468,-0.015420342,-0.005604412,-0.00064661144,-0.032863386,-0.034043618,-0.0064915945,0.022953236,0.031605057,-0.024073357,0.023339305,0.0047764974,0.0017769127,-0.010916984,-0.024992792,-0.019748323,-0.08447386,-0.02540147,-0.02785974,0.027107986,0.030460699,0.041128814,-0.022838324,0.012112735,-0.023329409,-0.025423363,0.045257214,-0.0011437142,0.015517563,0.001821711,0.008211999,-0.039536234,0.01477729,-0.0052478337,-0.0016009184,0.031383224,0.0025732033,-0.023833437
18,-0.030184694,0.0069355895,-0.04803816,0.030642722,0.032394588,0.0017098631,0.024874786,0.022721365,0.012854443,0.0017346896,-0.021669395,-0.017792873,0.028074723,-0.014276102,-0.005119962,-0.000748835,-0.032883186,-0.034004144,-0.0061388104,0.023383241,0.03178808,-0.024039075,0.02372675,0.0050674537,0.0019405786,-0.011426309,-0.023879047,-0.01978707,-0.08480669,-0.024855461,-0.028060377,0.027005102,0.030452153,0.040854715,-0.022798343,0.01197698,-0.02308064,-0.025644358,0.044662632,-0.0011608576,0.015894912,0.0017880242,0.008296674,-0.04049769,0.015129962,-0.005274172,-0.0014946158,0.03138833,0.0031353477,-0.023947157
19,-0.02896801,0.0080561675,-0.0482223,0.031374056,0.032162383,0.001971388,0.025030186,0.023611113,0.012014692,0.0024992377,-0.021745602,-0.017797261,0.027870182,-0.013044838,-0.0039763115,0.00028056512,-0.032866232,-0.03397391,-0.006419857,0.023567278,0.031125173,-0.02406093,0.024098784,0.0052229455,0.0016401219,-0.011088677,-0.024108276,-0.019815478,-0.08480889,-0.024602257,-0.027961692,0.026944598,0.030455295,0.042114206,-0.022812577,0.011668494,-0.023220247,-0.026061408,0.045934815,-0.0011310094,0.016538398,0.0017786218,0.00860673,-0.040940836,0.014637963,-0.004749748,-0.00049628085,0.03137196,0.0035020614,-0.024163434
20,-0.028351776,0.008979907,-0.048770603,0.031397104,0.03188207,0.002149957,0.025182117,0.024116276,0.0120403385,0.0023110437,-0.021582862,-0.01783469,0.028559487,-0.012633683,-0.0041714436,0.0009677698,-0.032875463,-0.03397501,-0.007923331,0.024338901,0.031007087,-0.024082089,0.02390271,0.005283078,0.0013544644,-0.010761343,-0.025052093,-0.019810291,-0.08447187,-0.024380732,-0.02815049,0.026872218,0.030422496,0.041412584,-0.022760242,0.01065839,-0.023153786,-0.026378287,0.04595801,-0.00080971554,0.017993756,0.0017622884,0.008320224,-0.041886058,0.014683668,-0.0041339076,-0.0006634034,0.031204425,0.0038803848,-0.024279464
21,-0.02828816,0.009448515,-0.049190972,0.031517185,0.031579383,0.0016070439,0.024945538,0.024555763,0.0108841155,0.0023413566,-0.021762758,-0.017889336,0.028470688,-0.01204643,-0.0032572905,0.00086907495,-0.032886647,-0.033942558,-0.007795194,0.02656911,0.030836744,-0.024006572,0.023497563,0.005442934,0.0006778325,-0.010517243,-0.024485763,-0.019803293,-0.08484867,-0.024239048,-0.02806374,0.026834112,0.03041147,0.041854933,-0.022641113,0.01002422,-0.023331208,-0.026365846,0.045405522,-0.0011452017,0.01789535,0.0017153185,0.008605777,-0.041615177,0.015383175,-0.004240682,-0.0012542929,0.03104154,0.0044053085,-0.024613839
22,-0.02840395,0.008955905,-0.050405,0.030628711,0.03168995,0.001325814,0.024978308,0.025120381,0.011282825,0.0029596419,-0.021743037,-0.017765777,0.027793936,-0.01304446,-0.0035013384,0.0017695297,-0.032881327,-0.033929516,-0.007772184,0.02716816,0.031353436,-0.024026155,0.0238634,0.005427153,0.0020923382,-0.010689687,-0.024744023,-0.019825924,-0.08501015,-0.024004899,-0.028288875,0.026752893,0.030410403,0.04322665,-0.02255116,0.0101901125,-0.023072809,-0.026802767,0.044629,-0.0007853033,0.01820901,0.0017233843,0.008811025,-0.042228676,0.015189905,-0.0039991755,-0.0005995991,0.030875094,0.005011295,-0.02470579
23,-0.028109975,0.010270849,-0.050627083,0.031368352,0.03172644,0.002324059,0.025466546,0.0258635,0.010472401,0.0025016065,-0.021761628,-0.017821724,0.027041886,-0.013285725,-0.003322364,0.0022421957,-0.032889597,-0.033967067,-0.007650026,0.02856073,0.03153778,-0.024118427,0.0239648,0.0056094765,0.00086666446,-0.010735217,-0.02463029,-0.019837163,-0.08543478,-0.024076307,-0.028253157,0.026767634,0.030383613,0.043080386,-0.02246073,0.00929662,-0.023561016,-0.026602283,0.04596449,-0.0011299681,0.018263021,0.0017379756,0.008717299,-0.04174699,0.015863774,-0.0036784438,0.0005608631,0.0307712,0.0058381287,-0.025087144
24,-0.027957883,0.010766303,-0.05147133,0.03212122,0.03164376,0.0013452792,0.025977865,0.026039435,0.009804183,0.0033774627,-0.021663658,-0.017900722,0.02668937,-0.012615416,-0.0033035325,0.0032488476,-0.032907788,-0.033922106,-0.008193451,0.028937517,0.03154012,-0.024071475,0.024542917,0.0057639726,0.0013184226,-0.010772791,-0.024371903,-0.019865934,-0.085689746,-0.023575453,-0.028186005,0.026865765,0.030387979,0.042676598,-0.02231351,0.00978612,-0.023357391,-0.02666478,0.043335207,-0.0015152539,0.018396866,0.0016983958,0.008680317,-0.042034887,0.014996327,-0.002778757,0.00014460388,0.030589364,0.006526034,-0.025521286
25,-0.027292687,0.011238639,-0.0519033,0.03209295,0.03173185,0.0023004373,0.026219944,0.026529897,0.010713106,0.00429824,-0.021068096,-0.018037159,0.026217248,-0.013001299,-0.002881628,0.0028931978,-0.03286241,-0.03390603,-0.0083196275,0.029995738,0.030456029,-0.024107032,0.02424716,0.005763375,0.0018290601,-0.010981824,-0.024164781,-0.019894633,-0.08535111,-0.024247482,-0.028168725,0.026762847,0.03038427,0.04337453,-0.022638189,0.009165348,-0.023604501,-0.027362004,0.04311152,-0.0011078629,0.018524813,0.001672391,0.008534551,-0.042399716,0.01514185,-0.0019765138,0.0009751376,0.03063023,0.007114058,-0.025520973
26,-0.028420229,0.010816884,-0.05198803,0.032529514,0.03114061,0.0033456548,0.026296573,0.026272245,0.010266895,0.005584829,-0.02137031,-0.018086815,0.026093531,-0.0134124765,-0.0021961038,0.0030103032,-0.03290336,-0.033855326,-0.008187786,0.029949466,0.03099997,-0.024127962,0.024374234,0.005777886,0.0027656737,-0.011189589,-0.023792956,-0.019906748,-0.08566821,-0.023660425,-0.028183326,0.026845947,0.030367637,0.043318808,-0.022406356,0.009085605,-0.023428934,-0.027421005,0.041219886,7.333394e-05,0.018504543,0.0016145057,0.0085864775,-0.04206752,0.015067409,-0.0005298821,2.2859305e-05,0.030562833,0.00782236,-0.025696546
27,-0.029335432,0.011539725,-0.053037312,0.03211177,0.031060167,0.0028384996,0.02667787,0.02604159,0.009064186,0.005644063,-0.021586435,-0.018135998,0.02473265,-0.013800032,-0.0017930577,0.003044892,-0.032922026,-0.033827588,-0.007467409,0.029096078,0.030501701,-0.024106191,0.024990495,0.006221275,0.0016426898,-0.011832238,-0.023793248,-0.019921357,-0.085523926,-0.02388406,-0.028354153,0.026913535,0.030339837,0.04292461,-0.022446211,0.010376829,-0.0234683,-0.02779753,0.04256369,-5.6262987e-05,0.017483367,0.001552951,0.008655477,-0.04267026,0.015017212,-0.00061399984,0.00057227805,0.030388271,0.007936005,-0.025863668
28,-0.028574366,0.011419179,-0.05420942,0.03209674,0.030849729,0.0026437254,0.026876487,0.026270133,0.009135923,0.0056063985,-0.021233981,-0.018241672,0.02409261,-0.013377286,-0.0022637746,0.003489892,-0.03293838,-0.033819184,-0.007705022,0.030679429,0.031290814,-0.024132805,0.025346776,0.0061566494,0.0019057647,-0.012254457,-0.023609797,-0.019938376,-0.08556869,-0.024915185,-0.028271241,0.026902981,0.030322773,0.044145737,-0.02249052,0.009667072,-0.02332643,-0.027785238,0.041695684,-0.00017906091,0.017752485,0.0015428656,0.008548128,-0.043071155,0.015589043,-0.00013646585,-0.00011531409,0.03015341,0.0076944456,-0.02608659
29,-0.02935983,0.01125157,-0.053790618,0.03152476,0.031110147,0.0026374883,0.027050545,0.026511256,0.009011221,0.0056842314,-0.02121938,-0.018146517,0.022538023,-0.012472808,-0.0018924291,0.00292187,-0.032947652,-0.033794772,-0.007437799,0.0319378,0.030908758,-0.024182815,0.025427204,0.0062769228,0.0007023405,-0.012189598,-0.02392649,-0.019919034,-0.086886205,-0.024923133,-0.028271124,0.026881605,0.030356364,0.043168426,-0.022516146,0.008989567,-0.023135953,-0.028041651,0.04051803,0.00013565527,0.018542357,0.0015588166,0.008444462,-0.042804077,0.01581601,-0.0008504227,0.0006435631,0.030055795,0.008230915,-0.026124809
30,-0.029826177,0.01106228,-0.054176528,0.03175816,0.031119643,0.0032938456,0.027219633,0.026982278,0.008741118,0.005397631,-0.021040369,-0.018095694,0.022447558,-0.013068336,-0.001985417,0.0036566998,-0.03295763,-0.033922873,-0.006966128,0.030034836,0.030337982,-0.02430001,0.024879474,0.0065977615,0.0004562189,-0.013036143,-0.024189115,-0.019961247,-0.087196484,-0.024510305,-0.028346773,0.027267138,0.03031519,0.04191918,-0.022323985,0.008698742,-0.022715585,-0.02783754,0.038265288,0.00036995535,0.018769275,0.001627869,0.0088112755,-0.04292275,0.016202623,0.00056845386,0.000531436,0.02985869,0.00919267,-0.026408251
31,-0.029120378,0.011770998,-0.05618812,0.031226285,0.031018648,0.003180597,0.027483435,0.027600154,0.008962417,0.005273309,-0.020544495,-0.01806343,0.022101749,-0.013030285,-0.0018074688,0.004482574,-0.03298841,-0.033942267,-0.0064002825,0.033108372,0.029539708,-0.024248948,0.024660718,0.0061871107,0.0015829278,-0.013050659,-0.022751832,-0.01998759,-0.08754161,-0.025025867,-0.02832774,0.026560254,0.030275157,0.04180926,-0.021977685,0.008343572,-0.022706002,-0.028212182,0.039555967,0.0006686393,0.018124197,0.0016257355,0.009165943,-0.042521827,0.0166989,0.0007085427,-9.997515e-06,0.029754747,0.009376196,-0.027244538
32,-0.030081067,0.01169126,-0.055701986,0.030187175,0.030828299,0.0033379518,0.027503882,0.027233077,0.009079125,0.004291109,-0.020334858,-0.018110264,0.021674367,-0.013258909,-0.00203438,0.0041038254,-0.03298218,-0.034017403,-0.0074208905,0.03584688,0.029787464,-0.024340257,0.02414002,0.0063964278,0.0007711127,-0.013327951,-0.022498328,-0.019995136,-0.086766474,-0.025581885,-0.028305946,0.026901044,0.030294765,0.041953307,-0.022011958,0.007820386,-0.022496527,-0.029004572,0.038473614,0.0010547065,0.018563043,0.0016553901,0.008819304,-0.04184633,0.017242309,0.00082420144,0.00064871786,0.02967791,0.009797021,-0.027227549
33,-0.030558906,0.013368599,-0.056155756,0.030739984,0.030489817,0.0036768694,0.027731182,0.027238347,0.007919841,0.0054967375,-0.020286946,-0.018296087,0.021766929,-0.014434241,-0.0018475362,0.0046252874,-0.03297729,-0.034091145,-0.006777037,0.035736643,0.029797127,-0.024309823,0.024070231,0.006833312,0.0009332265,-0.013623493,-0.022391364,-0.020011455,-0.08769058,-0.026631128,-0.028030576,0.027166232,0.030286882,0.041746534,-0.022039898,0.009512976,-0.023046171,-0.029164862,0.03894969,0.001533559,0.018572206,0.0016210328,0.008997794,-0.041682262,0.017649252,0.0017056572,0.00035326596,0.029600795,0.009855284,-0.0271566
34,-0.03171982,0.013671717,-0.055928625,0.03070047,0.030465547,0.0039705276,0.02797472,0.02725382,0.007653919,0.0053101373,-0.02041542,-0.01840373,0.020992287,-0.013286531,-0.0015279452,0.004357941,-0.03292542,-0.034196027,-0.005879177,0.03628752,0.03021231,-0.024370804,0.024464745,0.006870471,0.00062703027,-0.013085778,-0.021592703,-0.020025993,-0.08781845,-0.027257359,-0.027967649,0.02767285,0.030280707,0.042641494,-0.021917176,0.010025736,-0.022823501,-0.03024025,0.03897594,0.0012021184,0.0193114,0.0015913859,0.0088782925,-0.041687697,0.017474832,0.0023506498,0.0004928826,0.02947352,0.009894436,-0.02794488
35,-0.031171467,0.014405012,-0.057628505,0.029784799,0.030585662,0.0045810086,0.028039325,0.02795849,0.007452661,0.0049453573,-0.019614216,-0.018140882,0.021372166,-0.012010508,-0.002308935,0.0050576497,-0.03300056,-0.034363937,-0.0058795093,0.035729624,0.030089391,-0.024406293,0.024637815,0.0069614956,0.0003438937,-0.0130005665,-0.020780094,-0.020064736,-0.08883657,-0.028347325,-0.027942082,0.02759392,0.030279256,0.04354446,-0.021982381,0.0100549795,-0.022582933,-0.030131876,0.038668,0.0017515682,0.02005227,0.0015359966,0.009421349,-0.042499416,0.017712655,0.0030626021,0.002399559,0.029450683,0.009938827,-0.028387956
36,-0.030779716,0.01544198,-0.05774662,0.029507183,0.031009093,0.005452656,0.028054336,0.028648123,0.0070024505,0.0051041404,-0.018965546,-0.018037513,0.020313866,-0.011110531,-0.0021072847,0.006099916,-0.033017524,-0.034424633,-0.0054698284,0.035674095,0.030072358,-0.02431415,0.024384182,0.007231078,0.00020072609,-0.011810366,-0.020298138,-0.020032085,-0.0892275,-0.027354814,-0.027961385,0.027578576,0.030268734,0.042842668,-0.021803146,0.010202908,-0.021912713,-0.030848658,0.037940603,0.002352705,0.02057999,0.0014927606,0.009629717,-0.042850174,0.016979057,0.0039684814,0.0019007825,0.029441457,0.010919042,-0.028609818
37,-0.030746583,0.015368968,-0.057330646,0.029421598,0.031072581,0.0056246873,0.028361568,0.0282278,0.0069350866,0.0050554965,-0.019071447,-0.018234933,0.019877478,-0.0103966715,-0.0016686756,0.006548751,-0.033037785,-0.034553178,-0.0055660815,0.0347298,0.029133495,-0.024283396,0.024971865,0.0072170845,-0.00046522042,-0.011555672,-0.019698195,-0.020032145,-0.08903316,-0.028376324,-0.028045965,0.027495246,0.030275421,0.042024232,-0.02184606,0.009574734,-0.021621231,-0.03132207,0.03765381,0.0017830812,0.02077008,0.0014121652,0.008951939,-0.042826176,0.016833555,0.0048939073,0.0020740516,0.029338825,0.011042657,-0.028870583
38,-0.03328189,0.014230454,-0.057582,0.02983253,0.030946514,0.0053657363,0.028634809,0.028778605,0.0062223137,0.0049010124,-0.019272884,-0.018743472,0.019557992,-0.0109801395,-0.0019856128,0.0061330465,-0.033018447,-0.034851648,-0.0057807365,0.03541378,0.027930867,-0.024415253,0.025435142,0.0072713336,-0.0011156105,-0.011837143,-0.01906448,-0.020039786,-0.0887161,-0.028916122,-0.028017657,0.027776726,0.030287227,0.04268139,-0.021644933,0.008072367,-0.020937024,-0.031539574,0.040524043,0.0013610271,0.020955343,0.0013884305,0.0088764215,-0.04342606,0.018256316,0.0048888214,0.0031441979,0.02940746,0.011643397,-0.028800951
39,-0.033384483,0.015112471,-0.057429,0.029478144,0.030875124,0.006413468,0.028707232,0.02933871,0.0078761,0.004837866,-0.019282734,-0.018553931,0.018896738,-0.0111655425,-0.0014217397,0.006477693,-0.03309111,-0.034922943,-0.0055549336,0.035876017,0.026971476,-0.024357393,0.025304418,0.0074043493,-0.00031201728,-0.011518755,-0.018267257,-0.020080939,-0.087925985,-0.030634837,-0.028267859,0.027832348,0.030305961,0.042741098,-0.0213668,0.008456593,-0.02092712,-0.031242318,0.0417533,0.0019914317,0.020866139,0.0013664148,0.009442136,-0.043416854,0.018840838,0.005616988,0.0025556025,0.029274497,0.01185105,-0.02893848
40,-0.03492747,0.015310135,-0.058706805,0.029925944,0.031039666,0.0072464296,0.028852997,0.029515635,0.008159257,0.004414429,-0.01886527,-0.018460887,0.018416524,-0.010652052,-0.0009939324,0.0066576554,-0.03308575,-0.034768052,-0.004786342,0.034949668,0.027022555,-0.024225248,0.025773002,0.0076962197,-0.0008220982,-0.010529512,-0.017135592,-0.020110896,-0.08868937,-0.032167688,-0.028115956,0.027964551,0.030306742,0.044744458,-0.021572482,0.007556223,-0.021071184,-0.031505838,0.042854056,0.001733388,0.020343766,0.0013962261,0.009985476,-0.04315588,0.019052075,0.005732771,0.0024074025,0.029265186,0.0119194295,-0.028733335
41,-0.034519155,0.014728224,-0.059443947,0.029461753,0.030688107,0.0077883084,0.029027829,0.02991175,0.007898296,0.005203115,-0.018075928,-0.018765485,0.019051494,-0.0093173655,-0.0014747824,0.0068417415,-0.03299406,-0.03483358,-0.005861692,0.03749692,0.025334347,-0.024360493,0.025836732,0.0078093377,-0.00040473844,-0.0108077135,-0.016461577,-0.020126974,-0.08932866,-0.03413889,-0.028418317,0.027928282,0.030333735,0.04481694,-0.021883817,0.008363568,-0.021032352,-0.03197909,0.043444864,0.0011747489,0.019674426,0.0013917648,0.0100562405,-0.044055045,0.018048882,0.0061030076,0.0035864487,0.029135026,0.012141335,-0.028298609
42,-0.033732444,0.01446065,-0.060743745,0.02842405,0.030892465,0.007082721,0.028797425,0.029911727,0.008875046,0.0045665368,-0.017621629,-0.019078549,0.01816037,-0.009077694,-0.0012714071,0.005892474,-0.032952372,-0.034687065,-0.006088162,0.03709564,0.026049223,-0.02421426,0.025711738,0.0077241883,-0.001365334,-0.010359407,-0.017368428,-0.020140342,-0.088159285,-0.03444014,-0.028431777,0.027566362,0.030332267,0.045460667,-0.021973684,0.008316174,-0.020742713,-0.03224463,0.041321993,0.0009391423,0.018828811,0.0013551279,0.009661463,-0.043193884,0.018242512,0.0062303944,0.0021645918,0.029127404,0.01197009,-0.028661015
43,-0.032738224,0.015370116,-0.060834203,0.027779259,0.030416757,0.008043944,0.028853383,0.02978994,0.009019188,0.005437702,-0.017132271,-0.019017125,0.01756254,-0.00815778,-0.0014284295,0.006493406,-0.03300494,-0.034252163,-0.0062179705,0.038731605,0.02598586,-0.024430882,0.026164334,0.0076381024,-0.0018940169,-0.009968365,-0.01743308,-0.020143155,-0.088783786,-0.034917697,-0.028368305,0.02744253,0.030336805,0.044859283,-0.021855472,0.008430109,-0.020782705,-0.032203797,0.04261734,0.0014755571,0.019090377,0.0013511576,0.009113335,-0.04196174,0.018313408,0.005845966,0.003513441,0.029041402,0.011704579,-0.02890049
44,-0.034390714,0.015668834,-0.060389973,0.028031543,0.030690685,0.008305473,0.029291183,0.029906353,0.008773175,0.006157512,-0.017544005,-0.019495567,0.016946193,-0.008220984,-0.001303137,0.006161023,-0.033001013,-0.034478042,-0.005781141,0.037983015,0.024790496,-0.024534874,0.027173333,0.007889413,-0.0017524797,-0.011233837,-0.015507976,-0.020159967,-0.08922323,-0.034478497,-0.028436251,0.027563136,0.030307928,0.045207758,-0.021641761,0.007810428,-0.021126095,-0.032496985,0.043658715,0.00080172764,0.017900573,0.0013342643,0.009049559,-0.04151984,0.017403206,0.0055213245,0.0033620943,0.028905012,0.01246869,-0.029934412
45,-0.034313943,0.0158901,-0.060263798,0.029173438,0.030691147,0.008913619,0.029793646,0.030052513,0.008205963,0.0067759557,-0.017308654,-0.019805634,0.017517217,-0.0090319915,-0.0018509815,0.006085357,-0.032949112,-0.034940712,-0.0060190866,0.040841654,0.023848675,-0.02483629,0.027028287,0.008181193,-0.002350723,-0.010533568,-0.015539728,-0.020157106,-0.0887989,-0.036494814,-0.028421683,0.027252521,0.030288512,0.04561638,-0.021446908,0.009689213,-0.021555036,-0.032636594,0.04416072,0.00074358645,0.018044885,0.0013471396,0.008938797,-0.04163046,0.017243255,0.006490693,0.0034744288,0.028889058,0.012113104,-0.030050647
46,-0.03639661,0.015021721,-0.05995981,0.029523157,0.030393168,0.007261582,0.030116823,0.030000199,0.008024191,0.006638907,-0.017056096,-0.019670406,0.017059663,-0.0089027425,-0.0016539162,0.006112062,-0.032977186,-0.03511679,-0.00522451,0.04105431,0.025026437,-0.024851646,0.027929652,0.008242199,-0.0029792364,-0.010464855,-0.015194351,-0.020171095,-0.08905528,-0.036612265,-0.02864516,0.026833847,0.03027844,0.045066684,-0.021456074,0.008863045,-0.021451898,-0.033317726,0.045381695,0.0012186475,0.017573778,0.0013334645,0.009027395,-0.041220445,0.017006122,0.0070686564,0.0033700534,0.029028144,0.012434278,-0.03014512
47,-0.03791014,0.0155737735,-0.06037703,0.028702386,0.030812856,0.0077641294,0.029701818,0.030286193,0.0081105605,0.0060890727,-0.016749905,-0.019686613,0.016365075,-0.009823004,-0.0017444459,0.005971367,-0.032987498,-0.03550252,-0.005402038,0.041826643,0.024579443,-0.024875913,0.027493242,0.008129594,-0.002852079,-0.010991282,-0.013654232,-0.02019547,-0.08874461,-0.037608225,-0.02882671,0.026919508,0.030234829,0.04557336,-0.021495558,0.009051135,-0.021165203,-0.033874415,0.04542148,0.00075675914,0.016867816,0.0012902588,0.009170359,-0.041678973,0.016454898,0.0077312235,0.002667564,0.02910042,0.012119793,-0.030482354
48,-0.03658978,0.016297529,-0.060134497,0.028028578,0.030332858,0.008972149,0.030554306,0.030018594,0.007729615,0.0069304835,-0.016347613,-0.019579342,0.016730793,-0.010278389,-0.0012449637,0.0064567258,-0.03297576,-0.035634458,-0.0054538157,0.041402116,0.025462396,-0.025043372,0.026468305,0.00867922,-0.0018130918,-0.011255542,-0.014373496,-0.020207582,-0.08938997,-0.038679674,-0.028846424,0.02681969,0.030282665,0.045643754,-0.021419857,0.009605205,-0.021365723,-0.033448584,0.046229213,0.0014768539,0.017182121,0.0012412532,0.009551527,-0.040704712,0.016455198,0.008262948,0.0028242334,0.029126985,0.012013167,-0.030370109
49,-0.03639946,0.017516788,-0.059060924,0.028389718,0.03093897,0.0097070625,0.030735336,0.031124886,0.008007988,0.00669524,-0.016599467,-0.019668052,0.016440958,-0.010164199,-0.0012626973,0.0060930573,-0.032986753,-0.03586834,-0.0051755686,0.04123169,0.025156585,-0.025222234,0.026518077,0.0087644495,-0.0025694352,-0.01138333,-0.0140621355,-0.020202816,-0.08904064,-0.039317988,-0.028833758,0.026408136,0.030249529,0.045342356,-0.021915486,0.010004314,-0.021321595,-0.033763878,0.046896957,0.0019309453,0.018762449,0.0012622613,0.009440677,-0.04034389,0.016421812,0.0085853655,0.0030970438,0.02936469,0.011791,-0.030476231
50,-0.03675801,0.017148128,-0.059450243,0.028282637,0.03060465,0.0099949,0.030484352,0.031420775,0.008338172,0.0060402937,-0.01593872,-0.019706475,0.0158061,-0.00951391,-0.00064720435,0.0062007536,-0.03286185,-0.036061313,-0.005556346,0.04007333,0.02499122,-0.025136096,0.026738262,0.008346161,-0.0041431943,-0.011023993,-0.013340376,-0.020184662,-0.088920414,-0.041652776,-0.028736426,0.025972823,0.030242696,0.04650191,-0.021813009,0.009371713,-0.021259096,-0.033876635,0.046589296,0.0018644445,0.01913517,0.0012925179,0.009715547,-0.040038504,0.01738692,0.008175485,0.0036663455,0.029257795,0.012242732,-0.031000094
51,-0.035881296,0.01643805,-0.058721684,0.028153678,0.030689092,0.0096638,0.03093936,0.031775955,0.008894981,0.0060504186,-0.01614422,-0.020051463,0.016270945,-0.009550513,-0.00030619546,0.0047102515,-0.03289219,-0.03650131,-0.0053909873,0.041014366,0.023764806,-0.025296219,0.026913147,0.00842049,-0.0033487873,-0.01156237,-0.012885412,-0.020188896,-0.08853476,-0.042392775,-0.028906982,0.025792334,0.030301377,0.045586128,-0.02221472,0.011467361,-0.021383548,-0.03469103,0.048323892,0.0022167636,0.01904858,0.0013206416,0.009727339,-0.040156767,0.016829569,0.008933625,0.005122686,0.029179681,0.011611098,-0.031314775
52,-0.03484764,0.016537212,-0.058804214,0.027883891,0.031112518,0.008732742,0.030593872,0.032283545,0.009755205,0.0051953276,-0.01620965,-0.019814672,0.015805375,-0.009631218,-0.0003012871,0.004580861,-0.032902308,-0.03660123,-0.005892071,0.043428734,0.024456248,-0.025505982,0.027220676,0.00863739,-0.0034736595,-0.010826116,-0.012959687,-0.020134084,-0.08931691,-0.043729432,-0.028983431,0.026009835,0.030274501,0.046136193,-0.02193027,0.012551054,-0.021129865,-0.03495919,0.049388174,0.0026200928,0.02031281,0.0013302765,0.010258472,-0.040070016,0.016845912,0.008047922,0.0051757465,0.029244741,0.011698309,-0.031247063
53,-0.037525866,0.016174814,-0.060201716,0.0281955,0.030429225,0.0076912716,0.0306068,0.032893836,0.010585837,0.0044766585,-0.015746385,-0.019669142,0.014985261,-0.010036847,-0.00045887695,0.004118991,-0.032947563,-0.036818147,-0.0057369126,0.04429233,0.025213746,-0.025685035,0.026859451,0.009247366,-0.003370475,-0.012002099,-0.013023561,-0.020173056,-0.08962828,-0.043802045,-0.029056324,0.026330605,0.030229766,0.04397527,-0.021429373,0.011532439,-0.02123313,-0.035984404,0.048894577,0.0030116905,0.01988186,0.0012847976,0.010526884,-0.038442932,0.014886377,0.00980888,0.0036066673,0.029481541,0.010384417,-0.031277623
54,-0.039849047,0.017962445,-0.060769644,0.028369283,0.030362567,0.009213064,0.030909866,0.03239364,0.010514535,0.0052226996,-0.015477771,-0.01994837,0.014231399,-0.011071036,-0.0010188839,0.003623335,-0.032968257,-0.036865987,-0.0064898813,0.04468636,0.025929451,-0.025768112,0.026580673,0.009383716,-0.002143117,-0.0119165545,-0.011727158,-0.020181503,-0.08922907,-0.044805888,-0.02886232,0.025927465,0.030266864,0.045543194,-0.021516297,0.012165027,-0.020563051,-0.03586223,0.05321733,0.003028105,0.020885214,0.0013049335,0.010325042,-0.039235342,0.015042523,0.008450942,0.004167514,0.02940388,0.011627751,-0.031560734
55,-0.041548453,0.018255124,-0.05901382,0.02835397,0.030313602,0.008125488,0.031311795,0.033189666,0.009719159,0.005129993,-0.015741989,-0.019322973,0.012944844,-0.009566518,-0.00011878898,0.0032887496,-0.033000685,-0.03699614,-0.0063404003,0.045870196,0.026878804,-0.02579966,0.027194265,0.008831359,-0.001949503,-0.011987718,-0.011225944,-0.020214982,-0.08885488,-0.045810286,-0.028897548,0.025223995,0.030264381,0.04566625,-0.021535644,0.009704938,-0.021088954,-0.03597393,0.053556666,0.0021698475,0.019800786,0.0013126864,0.010410707,-0.03836903,0.014842778,0.010473062,0.0033443128,0.0291714,0.012294002,-0.031850148
56,-0.04248971,0.01847992,-0.058202773,0.028922115,0.030470608,0.009155899,0.03133303,0.03383821,0.011001825,0.0059295227,-0.015624063,-0.019328902,0.0131889675,-0.009468047,-0.0005155734,0.003701995,-0.032987516,-0.037102677,-0.005237727,0.04302725,0.027370531,-0.02617203,0.026214149,0.008846035,-0.0033435293,-0.011015265,-0.011676806,-0.020188767,-0.089280784,-0.047430903,-0.028899506,0.024972154,0.030262396,0.045654844,-0.020982785,0.010047741,-0.02108023,-0.0359358,0.05367303,0.0032467432,0.019369207,0.0013143322,0.010601564,-0.03801873,0.0154755525,0.010197023,0.0034102683,0.02924911,0.012640053,-0.031134646
57,-0.043890554,0.017396417,-0.058841515,0.02865232,0.030017149,0.007795851,0.031381287,0.03393525,0.0101125855,0.0071553253,-0.015672132,-0.019923307,0.013008462,-0.007397157,0.00022985868,0.0037862263,-0.033032022,-0.03724085,-0.0067122816,0.04376254,0.026662309,-0.026361596,0.027265217,0.009191484,-0.0043240935,-0.010699691,-0.011413509,-0.020160092,-0.08931652,-0.04553458,-0.028855002,0.025112176,0.030274522,0.046466798,-0.02161734,0.008890858,-0.021785542,-0.036118057,0.051416587,0.0026891083,0.018852059,0.0013122483,0.010691219,-0.037752327,0.015230004,0.009524783,0.0025662147,0.029306542,0.012288137,-0.03101515
58,-0.044419922,0.016711282,-0.05983337,0.028301578,0.030278517,0.008700433,0.032032147,0.034527764,0.01033733,0.007464349,-0.016602075,-0.019944472,0.012209279,-0.011441102,0.0005391039,0.0034276461,-0.03302407,-0.03754765,-0.0068134484,0.045790523,0.026820984,-0.02639188,0.02669447,0.009419237,-0.004444625,-0.010847462,-0.010796161,-0.020182593,-0.089709476,-0.046688747,-0.028964618,0.02446049,0.030279996,0.046220224,-0.021322172,0.010202577,-0.021454716,-0.03656057,0.055941526,0.0031658174,0.019404689,0.0013841701,0.011064535,-0.038031302,0.015849698,0.010491749,0.0028741453,0.029306121,0.012892309,-0.031101502
59,-0.04530615,0.016192816,-0.059949968,0.027899202,0.029995138,0.009137293,0.03199619,0.035293594,0.010947484,0.0057305703,-0.016643945,-0.02019745,0.011926889,-0.011879867,-0.000120579905,0.004083824,-0.033025958,-0.037705317,-0.006368137,0.04246793,0.026515558,-0.026593167,0.027388658,0.009878898,-0.00414212,-0.01044802,-0.011167547,-0.020184584,-0.090459935,-0.047103595,-0.029188123,0.024814175,0.030274201,0.045650717,-0.021034231,0.0070903986,-0.021530446,-0.036407474,0.05623502,0.0029976652,0.019463638,0.0013998656,0.011058188,-0.038589887,0.015860196,0.009897204,0.003413908,0.028958887,0.013986016,-0.031679437
60,-0.04394979,0.016190095,-0.060529754,0.027742077,0.030168723,0.010423218,0.031620294,0.03610229,0.011646461,0.0064658737,-0.01656242,-0.020248983,0.012397094,-0.00969345,-4.8604677e-05,0.0041712495,-0.032960877,-0.03795179,-0.0057377913,0.044817362,0.02594041,-0.026584893,0.0268518,0.009532819,-0.004121188,-0.010491604,-0.0098477015,-0.020217586,-0.09001303,-0.045635067,-0.02936161,0.024645422,0.030207299,0.046776835,-0.020943813,0.0074384306,-0.02155243,-0.036425967,0.056506537,0.0020612616,0.020208359,0.0013139386,0.011448366,-0.03873554,0.015598718,0.008917391,0.0032780643,0.02895117,0.0136200525,-0.031574033
61,-0.043693747,0.016360864,-0.058818955,0.028318213,0.03070483,0.008235962,0.032175004,0.0360478,0.011659766,0.0058450866,-0.01708069,-0.019887865,0.012057478,-0.00935152,-0.0005303355,0.0050513903,-0.033005156,-0.037856508,-0.005819956,0.04828106,0.027298035,-0.026572047,0.027633745,0.010055239,-0.004347152,-0.010272615,-0.010376254,-0.020160418,-0.089887775,-0.046345502,-0.029043257,0.025039088,0.03022917,0.04620524,-0.021428982,0.009318091,-0.02170739,-0.036633868,0.05305506,0.0018901846,0.019308215,0.0012890585,0.01101135,-0.03713691,0.014848355,0.009215878,0.0029050664,0.028923886,0.013654583,-0.031583972
62,-0.04284601,0.016670873,-0.058665443,0.028228812,0.030883847,0.009117105,0.03183901,0.03616119,0.010675296,0.005874987,-0.016286364,-0.0197735,0.011167904,-0.00866748,-0.0006104949,0.0039890097,-0.03298053,-0.03795008,-0.0061740857,0.04692065,0.027122004,-0.026850425,0.028200427,0.009840909,-0.004472425,-0.010323942,-0.010665277,-0.02013462,-0.08948697,-0.046372984,-0.028945725,0.024661265,0.030275863,0.046456162,-0.02141641,0.009201432,-0.021647051,-0.037036203,0.054874286,0.0018676362,0.020463958,0.0013127711,0.011356891,-0.03778536,0.014379732,0.009857041,0.0036212355,0.028879669,0.014066931,-0.031252857
63,-0.04261768,0.015620697,-0.059444975,0.027754437,0.031031912,0.009523104,0.031896777,0.036503527,0.011087819,0.0052229916,-0.01673096,-0.019870596,0.009728194,-0.008794627,-0.0019283185,0.0037025395,-0.032911763,-0.038365602,-0.0048292475,0.04699581,0.026101215,-0.026945714,0.028671876,0.009520505,-0.005002968,-0.010436018,-0.01101683,-0.020092176,-0.08884946,-0.047925822,-0.028631967,0.025122795,0.030242264,0.046384215,-0.021337721,0.010182463,-0.021644555,-0.037075166,0.053681005,0.0015531396,0.02015873,0.0012466037,0.012010718,-0.037508376,0.015525628,0.008922907,0.0042824005,0.028778309,0.015030044,-0.030998828
64,-0.043097813,0.015880946,-0.058746804,0.027697857,0.03063144,0.009029366,0.03253288,0.03617875,0.011615774,0.0041044634,-0.016860634,-0.019978289,0.00949582,-0.010131743,-0.0025532339,0.002799628,-0.03294129,-0.03848458,-0.0052219713,0.047448657,0.025519513,-0.026608456,0.028730424,0.009580509,-0.0051095523,-0.011003361,-0.010005416,-0.02019678,-0.089424565,-0.04897329,-0.028531922,0.024791617,0.030173866,0.046595655,-0.021056648,0.008285082,-0.021829726,-0.037108045,0.057207875,0.002271364,0.019554522,0.0012752183,0.011599392,-0.03780291,0.014838206,0.009363511,0.0037185913,0.02852428,0.01494903,-0.031723015
65,-0.041537315,0.016000194,-0.05823266,0.027411614,0.030684784,0.009749871,0.03291726,0.036734127,0.011286056,0.005428971,-0.016572375,-0.020075673,0.01002648,-0.008515056,-0.00080112857,0.0032692158,-0.03290925,-0.038570747,-0.005461132,0.045664996,0.02617619,-0.026793236,0.029293157,0.009617491,-0.006003499,-0.010914388,-0.010078677,-0.020201467,-0.08944899,-0.049360055,-0.028564844,0.024214001,0.030204091,0.04732851,-0.021523304,0.008395958,-0.021658173,-0.037400123,0.05765769,0.0029587296,0.019852325,0.0012791973,0.011482241,-0.037192658,0.013931254,0.010365763,0.005458489,0.028508304,0.015538738,-0.03172524
66,-0.04289499,0.016545026,-0.060331017,0.028004032,0.030811232,0.0094828075,0.031308576,0.037201364,0.011462584,0.007356977,-0.017557215,-0.020024104,0.008734359,-0.007276109,0.0007478378,0.0034726777,-0.032902393,-0.03869878,-0.006887403,0.048349064,0.02566348,-0.026986074,0.028640907,0.009640167,-0.006537037,-0.010745911,-0.0077611906,-0.020132922,-0.08831522,-0.048353955,-0.028556824,0.023557121,0.030172681,0.04795801,-0.021385394,0.00757684,-0.02196754,-0.03733626,0.057769075,0.0028348279,0.021037815,0.0012620173,0.011849461,-0.038638823,0.013623344,0.010939401,0.006669943,0.028293166,0.01582285,-0.031860303
67,-0.04369436,0.017779103,-0.05818682,0.030068953,0.030767947,0.008138982,0.031327136,0.037801687,0.012371027,0.007615466,-0.017144153,-0.020131124,0.008906649,-0.009008878,0.0008626829,0.004018686,-0.032913916,-0.03888125,-0.0067825345,0.04791346,0.02672673,-0.027282372,0.028573228,0.009785168,-0.0055320524,-0.010796962,-0.006825953,-0.020232957,-0.088293046,-0.049495198,-0.028696178,0.02400705,0.03014113,0.047851775,-0.02117821,0.00958769,-0.021671493,-0.03749721,0.05879429,0.003443105,0.020559635,0.0012038383,0.01181932,-0.035618223,0.012693967,0.010987459,0.0073853475,0.028051794,0.015923314,-0.032198086
68,-0.043821555,0.017429985,-0.059589997,0.029743457,0.030629609,0.008524098,0.03166502,0.038246974,0.014255267,0.0061646844,-0.015986335,-0.019774636,0.009573322,-0.009478506,0.00024229947,0.004023308,-0.032803006,-0.039166622,-0.007121223,0.048990525,0.024828259,-0.027265001,0.029376127,0.009585819,-0.0046485164,-0.010877489,-0.0058794753,-0.020302055,-0.0889789,-0.049790543,-0.0287263,0.02311435,0.030140929,0.048537713,-0.02136933,0.009020462,-0.021635026,-0.03719735,0.060777225,0.0034605372,0.021554945,0.0012022282,0.011786313,-0.03489302,0.012867643,0.0119529255,0.0065512573,0.028255893,0.016597254,-0.032465957
69,-0.04315356,0.01800784,-0.059188828,0.029527258,0.031232994,0.0068099247,0.03164188,0.03806006,0.0133696515,0.0061371652,-0.01604704,-0.020018473,0.009003313,-0.010272657,-0.00014197742,0.003495185,-0.032822017,-0.03924169,-0.007490088,0.04921479,0.026455939,-0.027528545,0.029316008,0.010168503,-0.006100632,-0.011332834,-0.0064757112,-0.020244803,-0.088882595,-0.050435863,-0.029038057,0.02288219,0.030191936,0.047982365,-0.021288302,0.009456437,-0.02109913,-0.037028085,0.057552956,0.0028601058,0.02067174,0.0012264457,0.01145695,-0.035828076,0.012379526,0.011191202,0.0067929183,0.028161006,0.016589165,-0.03201682
70,-0.04331934,0.018741474,-0.05911434,0.029671222,0.0320132,0.008782838,0.032485455,0.038720332,0.013081241,0.0063902494,-0.016070744,-0.020132424,0.008173677,-0.011733395,-0.0009977791,0.002341148,-0.032879427,-0.03963943,-0.0072544958,0.048834268,0.024997935,-0.027296297,0.029348465,0.010263159,-0.005775961,-0.011118156,-0.0047122794,-0.02032128,-0.08955976,-0.05431717,-0.029217731,0.022661353,0.030137077,0.04835821,-0.021767518,0.0064479224,-0.021290999,-0.037515644,0.06306603,0.0025101202,0.021397997,0.0012188251,0.012011172,-0.03620321,0.012287538,0.012032942,0.006016945,0.028026123,0.016820254,-0.031989906
71,-0.04374181,0.017136727,-0.057851385,0.029109344,0.03232179,0.0082586855,0.032456428,0.03862288,0.012769371,0.006533974,-0.016042273,-0.019882847,0.0072783274,-0.01066354,-0.0012696262,0.0022689297,-0.032836422,-0.03951676,-0.0069284057,0.047663502,0.024563447,-0.027204448,0.029271366,0.00985068,-0.006996056,-0.01075872,-0.0043437425,-0.020403568,-0.09003958,-0.05365933,-0.029081957,0.021453988,0.03018928,0.04860559,-0.02121456,0.0075003775,-0.021994166,-0.036943555,0.06339082,0.0027464628,0.021490844,0.0011984088,0.011684051,-0.03414326,0.011957728,0.012588042,0.004494572,0.02797046,0.017082203,-0.03315091
72,-0.044232983,0.017742766,-0.059020467,0.028358176,0.031534273,0.00918385,0.032297023,0.038590066,0.013582703,0.006371189,-0.015598334,-0.01982783,0.0060999217,-0.010009274,-0.0002869323,0.0019647756,-0.03280555,-0.039746754,-0.007448963,0.04699724,0.023821814,-0.027329933,0.028866168,0.00995882,-0.0070103924,-0.010514808,-0.003785335,-0.020398747,-0.09122508,-0.052106068,-0.029089445,0.021337893,0.030248592,0.048029292,-0.021029651,0.003980333,-0.021157922,-0.036906596,0.06238734,0.0029052342,0.02178178,0.0012243338,0.012068589,-0.035210896,0.012528373,0.013499552,0.00564858,0.027904931,0.017860478,-0.033311665
73,-0.043668963,0.018038532,-0.059995964,0.027988452,0.03158406,0.009823042,0.03160838,0.03907797,0.013143811,0.00649633,-0.01561661,-0.019878875,0.00571032,-0.009982504,-0.00087780645,0.002304788,-0.032870136,-0.03950765,-0.007456798,0.048950806,0.025851749,-0.027309908,0.029598638,0.009994482,-0.006765034,-0.010804308,-0.0043755723,-0.02035569,-0.089409135,-0.050392754,-0.028848251,0.022187151,0.030240085,0.047208928,-0.021033831,0.0067460444,-0.021623138,-0.036720544,0.062408343,0.0027053454,0.023007166,0.0012711835,0.011446589,-0.03350629,0.012667447,0.01319306,0.003792136,0.027712572,0.017168999,-0.033259273
74,-0.04791741,0.0195072,-0.060213216,0.030191094,0.03108787,0.008840235,0.032057036,0.03816206,0.013136318,0.0065985587,-0.014164226,-0.019939307,0.0048012063,-0.011910248,-0.0006260836,0.0027086164,-0.032777004,-0.039458886,-0.0080706775,0.04798847,0.025816487,-0.027247086,0.02791289,0.009992888,-0.008031167,-0.011266187,-0.006800199,-0.020408595,-0.089780636,-0.05288834,-0.029134575,0.022426087,0.03027351,0.047961794,-0.021313498,0.007761702,-0.02194583,-0.03690062,0.06207148,0.0027514102,0.022492278,0.0013130315,0.012446522,-0.03422317,0.012065712,0.012924986,0.0032154266,0.02774496,0.01659914,-0.03260968
75,-0.04548711,0.019931402,-0.061436653,0.030173814,0.031564567,0.007427358,0.033010922,0.03836221,0.012686256,0.006716672,-0.0149632655,-0.019597357,0.0043190117,-0.01317122,0.00033078686,0.0030770472,-0.032803867,-0.039753836,-0.00848468,0.049618576,0.025943652,-0.027376356,0.028144771,0.01096524,-0.006864356,-0.0112554375,-0.0057818955,-0.02041401,-0.089726016,-0.05363872,-0.029069707,0.02117287,0.030249592,0.048284855,-0.021504879,0.0073012905,-0.021850063,-0.03654678,0.065535456,0.0031794203,0.022426657,0.0012951907,0.012848552,-0.03417349,0.011182298,0.011911867,0.0032848653,0.027757093,0.017592264,-0.032479897
76,-0.045897868,0.01880717,-0.063000664,0.030567817,0.031848773,0.0067455424,0.033519015,0.038947273,0.013558574,0.007376186,-0.013608029,-0.019434767,0.0028003068,-0.0139099285,-0.00032697502,0.0019789054,-0.032993663,-0.03974272,-0.008653628,0.049512383,0.028053913,-0.027457858,0.028293733,0.011253508,-0.006347915,-0.011250494,-0.006748194,-0.020410534,-0.08979379,-0.053378217,-0.02921724,0.020959528,0.030267294,0.047680482,-0.021664564,0.00679495,-0.022084627,-0.036733527,0.06360407,0.0037529743,0.022493467,0.0012966747,0.013807237,-0.034872077,0.010518394,0.011394448,0.0032093243,0.027806234,0.018056292,-0.032600157
77,-0.04651951,0.019257115,-0.06157659,0.03044409,0.032130867,0.0053380793,0.0333944,0.039242294,0.013779914,0.0070636924,-0.013182834,-0.019447988,0.002687463,-0.011667449,-0.00043218856,0.0017168473,-0.033016853,-0.040007807,-0.008738531,0.05113157,0.02740226,-0.027670363,0.02922837,0.011181869,-0.0057317764,-0.011434194,-0.006785274,-0.020452663,-0.0900028,-0.05293794,-0.028809937,0.021812517,0.030200776,0.048492134,-0.022004515,0.009564123,-0.022427939,-0.036881857,0.064660184,0.0032306067,0.023522064,0.0012758983,0.013959257,-0.033721425,0.010989296,0.011313141,0.0033046652,0.027816823,0.017263906,-0.032209523
78,-0.04697374,0.01876796,-0.061986078,0.031758226,0.031387325,0.0053545795,0.033458173,0.039236296,0.014076499,0.0074388823,-0.012395224,-0.019852374,0.003830756,-0.013830051,0.00020084935,0.0018527136,-0.03307408,-0.04035416,-0.008852394,0.050083593,0.02650905,-0.027603053,0.028718235,0.011013105,-0.0064417645,-0.011323754,-0.006243733,-0.020478172,-0.090280175,-0.054701168,-0.02911175,0.021567475,0.030061098,0.047733016,-0.021789879,0.0071668513,-0.02173442,-0.03709507,0.065756954,0.0036412422,0.022709364,0.0013493464,0.014934027,-0.034577347,0.011327839,0.011442624,0.004385792,0.02767443,0.017536039,-0.032524385
79,-0.0472819,0.018976388,-0.061799753,0.031493727,0.031608634,0.0053444644,0.033070743,0.03920105,0.01486608,0.0083614765,-0.013227307,-0.020384893,0.0035547223,-0.015888492,-0.00013149719,0.0017786915,-0.033016816,-0.040724732,-0.008079786,0.051746607,0.027423564,-0.02756286,0.02883073,0.011006112,-0.0066439947,-0.010399949,-0.0065599736,-0.020445196,-0.089541815,-0.054460928,-0.029293705,0.020733342,0.03018159,0.04782912,-0.021496342,0.006088457,-0.021867396,-0.037341412,0.066949256,0.0038535637,0.023598516,0.0012411134,0.015100992,-0.033703715,0.010915148,0.01207957,0.0040408587,0.027542347,0.016819626,-0.032503225
80,-0.0488858,0.018924404,-0.061477393,0.032061238,0.031077445,0.0062292,0.033367466,0.039538592,0.014348918,0.008308999,-0.01476448,-0.020676415,0.003419246,-0.0130892,0.0007972681,0.001984768,-0.033053875,-0.040713873,-0.009109289,0.050154615,0.026256531,-0.027659131,0.02853005,0.01034301,-0.006613382,-0.009798729,-0.00585314,-0.02054986,-0.0900883,-0.054004256,-0.029144913,0.02004913,0.030125275,0.04930157,-0.021017097,0.006291155,-0.022605686,-0.03743965,0.06621399,0.004258804,0.02455376,0.001202039,0.015490221,-0.033388954,0.011589343,0.012130937,0.0034493222,0.02765858,0.0167768,-0.032158952
81,-0.04760081,0.018089596,-0.06037334,0.03362781,0.030509287,0.005011105,0.0332368,0.039668735,0.015807325,0.008145527,-0.014893222,-0.020979548,0.0045068897,-0.01362267,0.0016849781,0.0020084279,-0.033073325,-0.041168742,-0.009839496,0.050658595,0.02539574,-0.02760502,0.029138843,0.010361622,-0.007135359,-0.009381715,-0.004283695,-0.020583939,-0.09134737,-0.055270646,-0.029064868,0.020608086,0.030023428,0.048382252,-0.02134523,0.0052716923,-0.022265553,-0.037809677,0.06728111,0.004004129,0.024233934,0.001207459,0.0154574895,-0.03277181,0.011556841,0.01395983,0.0038155122,0.027749179,0.016534336,-0.03227492
82,-0.049654815,0.019673651,-0.06114111,0.03263287,0.030741312,0.005726617,0.03400243,0.040308647,0.016064595,0.0069102943,-0.015052708,-0.021254148,0.004732685,-0.013510536,0.0016300399,0.002469473,-0.03300079,-0.041359663,-0.0085346885,0.0525058,0.026781812,-0.028050508,0.02860333,0.009986011,-0.006731319,-0.009093074,-0.0052460423,-0.020544695,-0.091504805,-0.056611218,-0.029017812,0.0198517,0.029881492,0.048037726,-0.021368006,0.007852661,-0.022372888,-0.037406586,0.066047035,0.0037401486,0.02611923,0.001332688,0.015018821,-0.031524304,0.010643929,0.01406701,0.0036350095,0.027275423,0.016182624,-0.03242573
83,-0.05140132,0.01977536,-0.060820553,0.033938885,0.03066109,0.007322012,0.034921415,0.039642163,0.01671476,0.0071296208,-0.015605585,-0.020950433,0.0024122118,-0.0136936605,0.0013308933,0.0028231842,-0.033078812,-0.0418004,-0.0084409425,0.05149319,0.026852205,-0.027980266,0.028561894,0.010262527,-0.008416887,-0.009723723,-0.0032360915,-0.020554587,-0.09056725,-0.057291646,-0.029286956,0.019656692,0.03006316,0.05043891,-0.02054113,0.008281398,-0.022214688,-0.03721938,0.065042205,0.0030110297,0.024987144,0.0014104568,0.015282841,-0.031689048,0.011067813,0.013989143,0.004479707,0.026767265,0.01601208,-0.03228458
84,-0.04998208,0.020636892,-0.060038466,0.03302022,0.030620456,0.006998025,0.03481199,0.03956879,0.016785154,0.0062499875,-0.014973052,-0.021146845,0.0019806605,-0.014955141,0.00017286965,0.0018835494,-0.033001848,-0.042141955,-0.0075355065,0.053823583,0.025706558,-0.028064767,0.02945795,0.010319603,-0.008751755,-0.010350626,-0.0028166834,-0.020478243,-0.0902833,-0.05675847,-0.029345138,0.01957871,0.029963825,0.049055673,-0.020623215,0.00796279,-0.02185888,-0.037610553,0.06511101,0.003962001,0.025960796,0.001395422,0.01552839,-0.030301897,0.009109285,0.0152179785,0.00366208,0.026595742,0.015802668,-0.032661326
85,-0.05162416,0.022193726,-0.05946517,0.03230405,0.030721018,0.008632993,0.033923414,0.04050321,0.015490161,0.0069659776,-0.016521735,-0.020840626,0.0030823036,-0.0156644,-0.00029575714,-0.00015926322,-0.032925736,-0.042531103,-0.0084178215,0.050446644,0.024987852,-0.027948108,0.02774551,0.010188447,-0.009849565,-0.010606774,-0.003453644,-0.020515166,-0.08904918,-0.055884622,-0.029979173,0.018965565,0.02999685,0.049899735,-0.020211853,0.0069761313,-0.02185342,-0.036922667,0.06425964,0.0028916588,0.02660966,0.0014686757,0.015786208,-0.028970446,0.009178026,0.014639497,0.0047416515,0.026777055,0.015629247,-0.03289197
86,-0.04974934,0.02203336,-0.060532097,0.03284034,0.031051569,0.008003312,0.033661433,0.04043298,0.015658965,0.0066435086,-0.015089832,-0.020396356,0.0024650118,-0.017241077,-0.00019620903,-0.00042514218,-0.032864537,-0.042733334,-0.008425848,0.050636634,0.026378516,-0.027941795,0.028513607,0.009604866,-0.0124097075,-0.009238606,-0.0061345105,-0.020709064,-0.088297784,-0.057076566,-0.03027657,0.019050227,0.030030962,0.04976617,-0.020194627,0.005664138,-0.021799644,-0.037663255,0.06435554,0.0033758115,0.026599636,0.0014491569,0.016007265,-0.030573037,0.008315065,0.016154526,0.0040113335,0.026960805,0.01670905,-0.03190333
87,-0.051167123,0.023154046,-0.060254704,0.03386128,0.031203104,0.0075019524,0.03437942,0.040954303,0.016147297,0.0055821347,-0.015721144,-0.020587776,0.0027451161,-0.015355677,0.00050891243,0.00039621125,-0.03286063,-0.042719807,-0.0091282185,0.049532373,0.025902044,-0.028025325,0.027931498,0.009599561,-0.011676147,-0.009621015,-0.0050783493,-0.020692606,-0.08775119,-0.0569555,-0.030631132,0.01914478,0.029988103,0.048386823,-0.020557635,0.0057213977,-0.022276623,-0.03760513,0.06523948,0.003094304,0.027514307,0.0013984003,0.016028147,-0.03240621,0.007964699,0.015459568,0.0052576205,0.026627844,0.016848061,-0.032108016
88,-0.05307595,0.022378583,-0.059573453,0.0349768,0.031619485,0.0068455916,0.034415826,0.041285347,0.016238092,0.004756728,-0.016783994,-0.020569265,0.0029418592,-0.017198706,0.000647785,0.000292701,-0.032863356,-0.041857325,-0.009111048,0.049603973,0.028463557,-0.02817519,0.02839818,0.009009644,-0.011247368,-0.009641905,-0.0033383775,-0.02064671,-0.08754273,-0.05724564,-0.030406564,0.018523533,0.030066619,0.04755708,-0.020750195,0.0058911927,-0.022302818,-0.037567466,0.065610655,0.0033822255,0.027405418,0.0014238703,0.016330494,-0.03164284,0.008345068,0.018501483,0.005366953,0.026277283,0.017644184,-0.031683214
89,-0.05193193,0.023099914,-0.059628293,0.034477778,0.0317949,0.0065943147,0.03490159,0.041764636,0.016183121,0.0052729794,-0.017692834,-0.020872861,0.0009557173,-0.017875643,-0.00039064384,-5.2296527e-05,-0.03290181,-0.042280357,-0.008460574,0.050519936,0.027209962,-0.028283944,0.028504768,0.009154441,-0.010433903,-0.010007601,-0.002544693,-0.020640338,-0.087467134,-0.053618457,-0.030675836,0.018755343,0.030126762,0.04734768,-0.020037865,0.00504856,-0.022100823,-0.037329696,0.06674425,0.0036895094,0.027378086,0.0013950765,0.016626766,-0.03196269,0.008412569,0.01766479,0.0053578736,0.026601393,0.017607216,-0.03303682
90,-0.052398026,0.023050126,-0.061161842,0.0345007,0.031889204,0.0064074527,0.034798257,0.041626528,0.01700582,0.0057733282,-0.01649168,-0.020704957,0.0016314739,-0.020332702,0.00012495206,-0.000188601,-0.032819964,-0.0425368,-0.0100884335,0.05128804,0.02655837,-0.028589187,0.02947222,0.009120613,-0.010442426,-0.010661817,-0.0043794657,-0.02070741,-0.087793626,-0.05390922,-0.030618057,0.0181053,0.030078776,0.04674623,-0.020742368,0.0062036794,-0.021507625,-0.03702933,0.06267522,0.0037996655,0.028519442,0.0013516861,0.016575184,-0.032559916,0.006928043,0.018873679,0.007502867,0.026575767,0.016981896,-0.032959417
91,-0.052913513,0.024526564,-0.06045899,0.034785617,0.03268895,0.007009189,0.034564767,0.041359156,0.016371965,0.006393609,-0.017031688,-0.021149471,0.002033984,-0.020625252,0.0011303865,-0.00039804616,-0.032825183,-0.042404104,-0.010502113,0.050669152,0.030781515,-0.028508378,0.029633233,0.00920401,-0.009672979,-0.011053646,-0.004357607,-0.020729102,-0.08858473,-0.05463264,-0.030512946,0.019492874,0.0302081,0.047687545,-0.020249601,0.0076351804,-0.021449076,-0.03711857,0.06289527,0.003330913,0.027296826,0.0014142257,0.016701028,-0.03195226,0.00877816,0.017646989,0.0073684086,0.02680916,0.015627973,-0.032641068
92,-0.055656247,0.024943199,-0.060338397,0.03477556,0.03299013,0.006950528,0.03545608,0.041267592,0.016644156,0.005884069,-0.017305698,-0.020994846,0.002664961,-0.019607227,0.0011794071,0.00043381914,-0.032845896,-0.04227048,-0.009656907,0.049455315,0.029902944,-0.028125543,0.029048398,0.009710337,-0.010272024,-0.010748831,-0.0042198636,-0.020686895,-0.089386195,-0.055111665,-0.030234631,0.01890051,0.030214032,0.048849188,-0.020286247,0.009224474,-0.021613287,-0.037544884,0.06229532,0.0028037687,0.026962396,0.0013747232,0.017184429,-0.030403722,0.009198617,0.017704764,0.0073511214,0.026279354,0.014836287,-0.03261333
93,-0.058120854,0.02450286,-0.061352186,0.03502968,0.03291251,0.007229534,0.03639198,0.041464195,0.016577745,0.0049525755,-0.017082332,-0.021027798,0.0028024677,-0.020585448,0.00077505293,-0.00087883504,-0.032550063,-0.043040052,-0.010209122,0.04938072,0.026284022,-0.028852303,0.029294536,0.009777561,-0.010725616,-0.010831976,-0.004017692,-0.020683296,-0.08863419,-0.054518133,-0.030803544,0.01846646,0.030381551,0.04791403,-0.020122657,0.0101319635,-0.02163526,-0.03768758,0.06271713,0.0024860972,0.027966877,0.0013387315,0.017807672,-0.030527094,0.008665521,0.018307714,0.0071569616,0.026060503,0.014869371,-0.03230839
94,-0.058349777,0.023572838,-0.062384203,0.036497816,0.03293932,0.0072503574,0.036159225,0.04139851,0.016652245,0.0050717834,-0.01745213,-0.021094872,0.00087220134,-0.022372263,0.0018572584,-0.0012427219,-0.032910623,-0.043342613,-0.010736009,0.04866281,0.025767185,-0.029239567,0.030710146,0.010066472,-0.010682119,-0.011024726,-0.0035788014,-0.020885143,-0.0890954,-0.057029948,-0.030864976,0.019650543,0.03053265,0.04706544,-0.019923415,0.010065767,-0.021895105,-0.038064737,0.063993,0.002262861,0.025797773,0.0013460013,0.017443627,-0.028325511,0.008138731,0.020229695,0.007555836,0.025780544,0.014986625,-0.032635674
95,-0.05764629,0.023172736,-0.06240731,0.036648083,0.033453554,0.005804195,0.03581993,0.0417495,0.016926209,0.0050566425,-0.017653098,-0.020415708,0.0025445796,-0.022755694,0.003259974,-0.0018012004,-0.032772772,-0.0433492,-0.0119733075,0.04884412,0.025752123,-0.029249707,0.031482495,0.009634453,-0.012169063,-0.010545827,-0.0042565223,-0.02051539,-0.08798093,-0.05750964,-0.03092728,0.019765493,0.030614983,0.046807826,-0.020363979,0.0060224514,-0.021379096,-0.03776144,0.06324828,0.0022514751,0.026406275,0.0012293386,0.016759746,-0.029360041,0.007559857,0.020714037,0.007933412,0.025695581,0.014390842,-0.032286674
96,-0.058037814,0.024610022,-0.06313613,0.037277583,0.03402256,0.007837767,0.03594919,0.041908175,0.017256131,0.0048382413,-0.01789239,-0.01997403,0.0036079464,-0.022044286,0.0030627341,-0.0016734675,-0.03270126,-0.043019168,-0.0120218,0.048171844,0.024528453,-0.029110458,0.031883106,0.009447789,-0.013209011,-0.010173056,-0.0026738923,-0.020366594,-0.086972475,-0.060132485,-0.030672166,0.018289695,0.030606307,0.048887268,-0.020368943,0.0049963086,-0.020790737,-0.037547857,0.06475474,0.0029738946,0.02607267,0.0012316634,0.017067948,-0.02741275,0.008431351,0.019854233,0.006764636,0.0255943,0.014310237,-0.03245277
97,-0.056855787,0.026081609,-0.06278712,0.036923118,0.033355545,0.0077744126,0.03554415,0.04226657,0.016630653,0.0064145643,-0.016830575,-0.019779533,0.003996481,-0.023993313,0.0022900181,-0.002325416,-0.032833625,-0.042390957,-0.012977255,0.049620964,0.024017088,-0.028855618,0.031846877,0.009727327,-0.0137079675,-0.0098973,-0.003833109,-0.020424422,-0.08712427,-0.059107196,-0.03095486,0.017874934,0.030730505,0.047834784,-0.020536095,0.0046331096,-0.020558298,-0.037500914,0.0655595,0.004065158,0.028089207,0.0012814134,0.017356407,-0.02584229,0.0064692684,0.018856673,0.006057603,0.025355749,0.014876224,-0.032386176
98,-0.057701025,0.025307199,-0.064682044,0.037023507,0.03363159,0.008455004,0.036275346,0.04172691,0.01832483,0.0047366805,-0.017587509,-0.019807454,0.003688443,-0.022822486,0.0029188204,-0.00048731387,-0.032514885,-0.042811085,-0.013850566,0.05000629,0.027147338,-0.029047841,0.031785205,0.00945323,-0.013320282,-0.008786673,-0.0037384364,-0.020491017,-0.084904626,-0.05999891,-0.030793894,0.018006077,0.030811988,0.047461938,-0.020680474,0.0034403077,-0.01974681,-0.03834138,0.06453964,0.0038055517,0.026575219,0.0011891591,0.018555995,-0.0268569,0.0068946723,0.01951623,0.0058489214,0.025181351,0.015602477,-0.032831334
99,-0.057679497,0.025485935,-0.063796364,0.0371576,0.03399138,0.008823641,0.03569549,0.04238078,0.017769625,0.0052402667,-0.018462438,-0.02039456,0.004963293,-0.023033604,0.0026177545,-0.0011587617,-0.03285219,-0.042960152,-0.014124203,0.050812963,0.026789613,-0.028940137,0.031310704,0.009815907,-0.013685269,-0.008981624,-0.0022152467,-0.02074275,-0.08495836,-0.06023825,-0.03076476,0.018233454,0.03089755,0.04680119,-0.02087018,0.0041107894,-0.019417528,-0.038764417,0.06480856,0.0036800564,0.02669416,0.0012072719,0.019042263,-0.026572455,0.007922818,0.020513859,0.006409469,0.025145762,0.01642601,-0.032940388
100,-0.055895418,0.024428766,-0.064017735,0.037342433,0.033623442,0.0098909475,0.034922298,0.04280703,0.018222062,0.005948106,-0.020063046,-0.020949282,0.0052415137,-0.021436952,0.0031704525,-0.003255617,-0.03286357,-0.043373853,-0.014418159,0.052302655,0.02353511,-0.029270165,0.030230127,0.010022369,-0.013441755,-0.009140551,-0.0020703108,-0.021008259,-0.08355099,-0.0577895,-0.030889299,0.018232858,0.030847121,0.046388485,-0.020371258,0.005616258,-0.019282695,-0.03858325,0.06493975,0.0036398948,0.026547978,0.0011775568,0.019295411,-0.028531164,0.0071366765,0.019323122,0.0053613223,0.025286144,0.01721845,-0.033479795
101,-0.055462163,0.02496458,-0.06488635,0.03828682,0.033687156,0.009090764,0.035497412,0.043894246,0.018862713,0.004526167,-0.019346198,-0.020290557,0.003749413,-0.024419032,0.0023921316,-0.0040707835,-0.0328046,-0.043116435,-0.014634484,0.053107027,0.025320191,-0.029153991,0.031102307,0.010271012,-0.016042551,-0.008443198,-0.003927863,-0.02096994,-0.08250468,-0.06025792,-0.030727942,0.017530866,0.030929796,0.0471795,-0.020265836,0.005437045,-0.019711277,-0.038797233,0.0658159,0.00322306,0.026526732,0.0010880829,0.019284278,-0.027091403,0.0070674294,0.019005956,0.0055646473,0.0251703,0.015660372,-0.033040278
102,-0.057575073,0.024853328,-0.06486715,0.038046096,0.03430061,0.008302223,0.036499426,0.043058675,0.017576601,0.0052416082,-0.019262645,-0.019765874,0.005174696,-0.02481436,0.0022363232,-0.0037920536,-0.032764096,-0.04261781,-0.014926494,0.050955515,0.022990607,-0.028993603,0.031744115,0.010471537,-0.014674261,-0.0081744045,-0.0043199537,-0.02106722,-0.08673977,-0.06168727,-0.030191684,0.018308524,0.031065445,0.047916096,-0.020156814,0.007558584,-0.019831978,-0.03868572,0.06876241,0.0034708197,0.025565237,0.0010972427,0.01942966,-0.024356293,0.0055102897,0.020522963,0.0053855027,0.025147866,0.015046442,-0.033271965
103,-0.057163898,0.025448669,-0.06619892,0.038006637,0.03459939,0.008075381,0.036030833,0.043027367,0.016398538,0.0048572673,-0.01970323,-0.020252924,0.004529717,-0.023089714,0.0033016787,-0.003519604,-0.032765336,-0.042273447,-0.015307063,0.05228725,0.022604028,-0.028761547,0.031485565,0.010684644,-0.015381076,-0.009072212,-0.0030919947,-0.020953765,-0.08729693,-0.06229736,-0.030340202,0.016759807,0.03139978,0.047597356,-0.020205513,0.004082439,-0.020118782,-0.038712405,0.069316395,0.0033667963,0.025566747,0.0011197727,0.019137446,-0.027778838,0.004188079,0.02208874,0.006071564,0.025047578,0.01440523,-0.033590402
104,-0.056956906,0.02559875,-0.065305576,0.037864488,0.034873568,0.008121191,0.036822986,0.04319516,0.016313072,0.003783305,-0.018973432,-0.020064551,0.0055335024,-0.023858448,0.0028903633,-0.004555211,-0.032639135,-0.042464282,-0.01633986,0.0535132,0.019776266,-0.029081667,0.03187949,0.010902829,-0.014564975,-0.0078108693,-0.0013209808,-0.021171406,-0.086840324,-0.0625644,-0.030043382,0.016350534,0.031191347,0.046499535,-0.020080466,0.0038297316,-0.019730108,-0.03887614,0.06821065,0.003320231,0.023471223,0.0011186311,0.019376487,-0.025893783,0.0050413804,0.02263888,0.006893512,0.024923764,0.013752368,-0.03318189
105,-0.058805253,0.025663367,-0.06555197,0.03816539,0.033763006,0.008138741,0.03616901,0.043974977,0.017286856,0.0033637658,-0.019681381,-0.020257311,0.006919382,-0.0253979,0.0036058617,-0.0043660556,-0.032687437,-0.042488165,-0.016315693,0.052141797,0.01945707,-0.029451106,0.032130286,0.010726347,-0.015132654,-0.007747287,-0.0016656658,-0.021111874,-0.08658698,-0.06550457,-0.03016824,0.016192198,0.031217745,0.045945626,-0.019854452,0.005166185,-0.019011717,-0.038899437,0.0662581,0.0032127292,0.021777194,0.0011081628,0.019319352,-0.024872517,0.006004866,0.023933185,0.0077765016,0.024718462,0.013685457,-0.033053868
106,-0.060771637,0.025689565,-0.06523746,0.039360337,0.034622524,0.00816175,0.037199493,0.042750046,0.016895162,0.0039967964,-0.019993896,-0.020351782,0.0082973,-0.027217366,0.0047529037,-0.003936941,-0.03283597,-0.041849438,-0.015564269,0.051810373,0.02104701,-0.028793996,0.032091036,0.01075376,-0.015337696,-0.007293552,-0.001989877,-0.021072105,-0.086595505,-0.064001516,-0.029822636,0.01588105,0.031222062,0.04619317,-0.019974783,0.0042752954,-0.018886259,-0.038979076,0.06661034,0.0039259302,0.02348398,0.0011530817,0.019556344,-0.024531018,0.006670901,0.024840293,0.0078024333,0.024717622,0.013632684,-0.032980263
107,-0.060780786,0.026786976,-0.064750805,0.039566163,0.034801055,0.007013659,0.03681012,0.043240853,0.0167123,0.004850018,-0.020109167,-0.020980086,0.006716459,-0.029903468,0.0044671763,-0.0043310933,-0.03315288,-0.04159828,-0.015820118,0.05180446,0.021006685,-0.028864285,0.03290107,0.01062508,-0.015322855,-0.008320544,-0.0009447413,-0.021022083,-0.08688352,-0.063763976,-0.030206129,0.016042475,0.031216336,0.046573386,-0.019435357,0.004909258,-0.018460106,-0.039081886,0.06863806,0.004057261,0.022486137,0.0011409635,0.020082673,-0.023913119,0.006947698,0.024043757,0.007929353,0.024079299,0.0134682115,-0.03291055
108,-0.05905644,0.02697924,-0.06625155,0.040876426,0.03450146,0.006747541,0.03693265,0.04325991,0.017927747,0.0027836799,-0.020133842,-0.021158885,0.0047655115,-0.031158749,0.004046474,-0.0040616663,-0.0332726,-0.041642364,-0.01665901,0.052192498,0.021038633,-0.029029386,0.031645417,0.0103211235,-0.015374117,-0.008395113,-0.0021533784,-0.02108497,-0.08816146,-0.06296274,-0.03000481,0.016210588,0.031478636,0.048298806,-0.018999442,0.00035281797,-0.018818693,-0.03867628,0.068354934,0.003880456,0.023420226,0.0011218055,0.019976087,-0.02566363,0.0060379407,0.023732418,0.007467071,0.02355287,0.012294174,-0.033021785
109,-0.06109907,0.027729645,-0.06609187,0.04165744,0.035623822,0.00703322,0.03657143,0.043828793,0.01837411,-0.00085208524,-0.019218212,-0.021303894,0.004549862,-0.02907011,0.0058804257,-0.00467983,-0.03334013,-0.042520046,-0.01649967,0.053995036,0.019034345,-0.02934873,0.03168395,0.010066317,-0.016813949,-0.009429432,-0.0016146854,-0.021262856,-0.08691498,-0.061290003,-0.029955123,0.014857017,0.031663988,0.04777411,-0.019316327,0.0051690144,-0.019530024,-0.038618468,0.06760306,0.0034437454,0.022080798,0.0011293859,0.019842133,-0.02515181,0.0051237484,0.02316393,0.007824698,0.02354472,0.010679824,-0.032753438
110,-0.062136374,0.026765924,-0.06641128,0.041587554,0.036032848,0.007468081,0.03732942,0.04361733,0.019139739,-0.0020187635,-0.021006411,-0.021121189,0.005552141,-0.031192705,0.008160611,-0.003941938,-0.033271693,-0.043175645,-0.016040076,0.05192107,0.01884675,-0.029494721,0.031558596,0.0103971595,-0.016596306,-0.008138655,-0.0017938018,-0.02139059,-0.08671496,-0.060565095,-0.030280737,0.013640391,0.032106776,0.048604347,-0.019445634,0.0023042788,-0.01938108,-0.03893648,0.06731707,0.004190701,0.022218322,0.0011217333,0.020206526,-0.024622634,0.006697211,0.022343474,0.0065416642,0.023224154,0.010835331,-0.03277757
111,-0.0634443,0.026706563,-0.06639251,0.04229684,0.03567276,0.0071346886,0.037370004,0.042835303,0.018664282,-0.0011490555,-0.019305225,-0.0209992,0.006209356,-0.029569581,0.008919565,-0.0044678673,-0.033290587,-0.043264624,-0.017014228,0.054433417,0.018746752,-0.029713701,0.0321767,0.009923349,-0.016932337,-0.0077414047,0.000114519855,-0.02149931,-0.086008,-0.061395917,-0.029878058,0.013056952,0.032121867,0.04891727,-0.018806126,0.0024365177,-0.018963765,-0.039080314,0.06790577,0.0037491356,0.022904988,0.001126128,0.020078525,-0.025031228,0.0064128577,0.02411557,0.00807971,0.023304671,0.010773216,-0.03291042
112,-0.0625887,0.025896633,-0.06555233,0.043027937,0.035619654,0.00499498,0.03706103,0.04311385,0.01851636,0.0006303773,-0.020783298,-0.021050889,0.0049325246,-0.032002393,0.009028177,-0.0054696463,-0.033698987,-0.042954143,-0.017832918,0.0512009,0.019775508,-0.029629756,0.031372353,0.009949733,-0.0179534,-0.007509645,-0.0017812959,-0.021352004,-0.084789515,-0.061164465,-0.029606499,0.014313471,0.03256283,0.04854812,-0.019094385,0.000618191,-0.018316686,-0.039697424,0.07045715,0.0037384667,0.023372917,0.0011102522,0.019843748,-0.02604869,0.0064716223,0.024912786,0.007543441,0.023475733,0.011196517,-0.032720715
113,-0.06374375,0.027794328,-0.06581579,0.043477807,0.03493069,0.003814329,0.037127536,0.042881757,0.018533302,-0.0005446856,-0.020234246,-0.020714816,0.006398632,-0.032513626,0.01054104,-0.0062037343,-0.033814725,-0.042851873,-0.016074535,0.051450226,0.018738871,-0.029853523,0.031543333,0.0094584925,-0.018225111,-0.008522611,-0.0011241544,-0.021325307,-0.08471115,-0.06006125,-0.030003041,0.013212037,0.03205569,0.046098884,-0.018619254,0.0013165178,-0.018180082,-0.03960532,0.07063527,0.004185042,0.022347271,0.0011608414,0.02091633,-0.02523753,0.0058911955,0.02458417,0.007353701,0.023293022,0.01259548,-0.032676667
114,-0.064112,0.027919259,-0.06646393,0.043328375,0.034703996,0.004472408,0.037416745,0.043079376,0.018001227,0.00080939033,-0.019741008,-0.020033082,0.007037361,-0.03295457,0.0117966905,-0.0058182366,-0.034157723,-0.04261605,-0.01630281,0.050958596,0.020831265,-0.02982431,0.031387612,0.009698035,-0.018865632,-0.0075176894,-0.00036931442,-0.021473628,-0.08427129,-0.060731094,-0.03033445,0.013609617,0.03215858,0.047193725,-0.018832618,0.0011060403,-0.017888177,-0.040394466,0.06957041,0.004263132,0.02213599,0.0011699663,0.022188023,-0.02399443,0.0056423615,0.026414521,0.0071172398,0.023295553,0.012830133,-0.032328498
115,-0.0638399,0.02916597,-0.068204746,0.0419275,0.035707247,0.004596822,0.037326,0.042908955,0.018801834,1.3248107e-05,-0.01950867,-0.020724233,0.007979198,-0.03338845,0.011473422,-0.0056960485,-0.033916436,-0.041645918,-0.015997808,0.050299384,0.019352244,-0.03033239,0.03196478,0.0096786395,-0.019017136,-0.0077709295,-0.0013506887,-0.021526113,-0.0825388,-0.058910042,-0.030505657,0.013937393,0.031813342,0.04484512,-0.01922098,-0.0026120022,-0.018188547,-0.040444113,0.071889564,0.004212679,0.021935904,0.0011687858,0.02082073,-0.024756681,0.0063481913,0.025938895,0.0072032213,0.022949759,0.0114493435,-0.032256585
116,-0.06295717,0.029159019,-0.06733934,0.042327274,0.035924517,0.005395301,0.038525824,0.042996768,0.01708131,-0.00027614186,-0.01958771,-0.020666908,0.007607149,-0.032491002,0.013522515,-0.0067424313,-0.03395085,-0.042534117,-0.015600659,0.050460443,0.018889507,-0.030270139,0.032222528,0.009934116,-0.02020225,-0.007232854,-0.003683975,-0.021667007,-0.082471184,-0.06015402,-0.029793702,0.013447715,0.032023467,0.043067858,-0.018815346,-0.0026315576,-0.017706154,-0.04080794,0.07170789,0.0043769833,0.020431459,0.001060762,0.021329202,-0.024975669,0.005013931,0.02594874,0.0080162175,0.022653878,0.0113204345,-0.03209044
117,-0.061467562,0.028511453,-0.067323595,0.042288218,0.037057646,0.0047675716,0.03798125,0.043401428,0.01755791,-0.0011889363,-0.019765679,-0.020557018,0.0056529697,-0.03276771,0.014826388,-0.0055654803,-0.033922844,-0.042525087,-0.016597996,0.050347578,0.01876485,-0.029921083,0.03202585,0.009230217,-0.02194447,-0.00738139,-0.002421943,-0.021831226,-0.08209696,-0.05968623,-0.029706473,0.012584562,0.032192785,0.043979503,-0.01790597,-0.002146249,-0.018135393,-0.04019364,0.07295846,0.0041926703,0.01981517,0.0010785845,0.020937683,-0.022791805,0.0044842474,0.026661897,0.009875101,0.02214519,0.010996061,-0.03170954
118,-0.061045326,0.028234594,-0.06751158,0.042733256,0.03709075,0.006602225,0.038902175,0.043791316,0.018156722,-0.001535583,-0.018575799,-0.020419471,0.0063418103,-0.03295721,0.013322333,-0.0047129407,-0.033951998,-0.043124747,-0.01863163,0.049145646,0.017672148,-0.029812828,0.032420807,0.009793385,-0.023201898,-0.007889487,-0.0014479923,-0.021747727,-0.083493054,-0.0591415,-0.029577399,0.012609877,0.032227363,0.045162763,-0.018061552,-0.0030951016,-0.01711777,-0.040334534,0.06896798,0.0047454624,0.021488512,0.0010783076,0.020775056,-0.022443153,0.0033484523,0.025911132,0.0114845,0.02237475,0.010041287,-0.031593658
119,-0.060274974,0.027759403,-0.06787959,0.042522736,0.03644618,0.0045393165,0.038059063,0.0441439,0.018512972,-0.000105640094,-0.020187557,-0.020800509,0.0076779374,-0.033997413,0.01143442,-0.0062661236,-0.03396728,-0.04359804,-0.018441245,0.053097963,0.019782932,-0.029664377,0.032002203,0.009438185,-0.02174404,-0.007928301,-0.0019214465,-0.02152864,-0.084782474,-0.059066497,-0.029343065,0.013616544,0.03254578,0.04500211,-0.017646872,-0.003578187,-0.017524913,-0.040705778,0.06793964,0.0046179863,0.02234716,0.0010641171,0.020704145,-0.024373172,0.0038966034,0.026029808,0.01108042,0.022506729,0.009441215,-0.032181438
120,-0.059233464,0.027665112,-0.06778476,0.042857252,0.036097143,0.003278836,0.038896006,0.043560408,0.018816689,-0.00083179487,-0.019073224,-0.019516407,0.007986558,-0.036341935,0.0109726675,-0.00530603,-0.03384996,-0.043193117,-0.017740648,0.053347223,0.017780142,-0.030033987,0.031151444,0.008735199,-0.021933395,-0.008096239,-0.0009920949,-0.021728206,-0.08451922,-0.0598953,-0.029563203,0.013307797,0.032835186,0.046152838,-0.016825052,-0.00023321726,-0.017781552,-0.03991408,0.06929904,0.004255586,0.02231364,0.0010616984,0.02080915,-0.024040418,0.0039609,0.02566163,0.0118481405,0.022014923,0.009348474,-0.031908866
121,-0.060786515,0.028279336,-0.068992265,0.043371815,0.03636369,0.003527141,0.038736608,0.043591812,0.018913003,-0.001853199,-0.019861352,-0.019034382,0.006814801,-0.038392693,0.011878492,-0.0062074917,-0.033958852,-0.043656897,-0.017671907,0.053489905,0.017273163,-0.030272067,0.030688204,0.009601621,-0.02218945,-0.008078732,-0.0033878165,-0.021641873,-0.0846339,-0.06088533,-0.030125257,0.012618858,0.032641508,0.045182064,-0.016715085,-6.728555e-05,-0.017924074,-0.039863408,0.06985089,0.0045566373,0.021766711,0.0010577592,0.021505814,-0.023667745,0.0050462782,0.025861762,0.010454192,0.022198327,0.009433106,-0.032162428
122,-0.061797928,0.028651638,-0.069318265,0.042093612,0.03591059,0.0038497932,0.038745712,0.04349965,0.019283371,-0.0022878046,-0.019729532,-0.019426417,0.004551448,-0.037957244,0.012084056,-0.0051254854,-0.033956107,-0.04257232,-0.018832006,0.054772742,0.015682772,-0.029941117,0.030648034,0.01047837,-0.021689616,-0.008003915,-0.003645563,-0.021668121,-0.08480902,-0.060501017,-0.030094784,0.011941535,0.032773826,0.045969002,-0.016774142,-0.00047048443,-0.017731331,-0.039790098,0.073189594,0.004332967,0.021352213,0.0010595629,0.021935545,-0.025645243,0.005194636,0.02509297,0.011865457,0.022031251,0.01014532,-0.03187768
123,-0.06371167,0.027802996,-0.06768788,0.0445669,0.03602696,0.0036292246,0.03925295,0.043986153,0.017170604,-0.004189009,-0.021403281,-0.01924068,0.0033839785,-0.041021988,0.012347691,-0.0061701667,-0.033947468,-0.04253619,-0.018422665,0.053233474,0.015629914,-0.030076426,0.030510478,0.010821853,-0.022716945,-0.0079131825,-0.0065353094,-0.021742698,-0.08497131,-0.059768543,-0.030316379,0.012278877,0.03334188,0.04441254,-0.016223015,-0.0017723355,-0.016852368,-0.04024607,0.06946308,0.004668744,0.022809329,0.0010844312,0.021454906,-0.024075484,0.0042828983,0.024560556,0.011793362,0.021857157,0.01048227,-0.031095892
124,-0.063210905,0.028826326,-0.06979515,0.04453992,0.037606627,0.0041860566,0.03832128,0.044338282,0.0167564,-0.00455968,-0.022296607,-0.019463677,0.0044351355,-0.040013917,0.012512515,-0.006141015,-0.033774044,-0.04297933,-0.017897576,0.053371686,0.0136691835,-0.030300505,0.031636506,0.011090257,-0.022266718,-0.0075777867,-0.0067553325,-0.022167435,-0.085174285,-0.06097123,-0.029752433,0.012184359,0.033102315,0.045704186,-0.017015748,-0.00044786604,-0.016757937,-0.03972828,0.06981663,0.004556316,0.02194783,0.0010850499,0.021793317,-0.023584167,0.0037825047,0.025716837,0.011350082,0.021698147,0.009727197,-0.031760223
125,-0.063006856,0.029271554,-0.07021848,0.043982383,0.037622787,0.005854981,0.038350053,0.043785036,0.016439032,-0.0075429487,-0.022080302,-0.019066136,0.005227532,-0.040110752,0.0109963305,-0.0064995037,-0.033868793,-0.04302591,-0.018520676,0.054484867,0.0143396305,-0.030293858,0.031467084,0.010525835,-0.021371845,-0.008273754,-0.0056889723,-0.022325598,-0.08574386,-0.06224029,-0.029609615,0.010400681,0.033541854,0.045785453,-0.017160915,-0.0026049959,-0.016188692,-0.040719695,0.071872056,0.0037824856,0.02148055,0.0010929235,0.02116784,-0.024514046,0.0034746262,0.02528587,0.0127416495,0.0217454,0.009849274,-0.032097556
126,-0.06272958,0.029453468,-0.071931645,0.043406922,0.038632527,0.0059430352,0.03763318,0.043543167,0.018158078,-0.007230616,-0.021414518,-0.018081147,0.0065349136,-0.04032623,0.012357287,-0.0069136703,-0.033807408,-0.042789537,-0.019013949,0.0525509,0.01551767,-0.030203719,0.031099312,0.010251073,-0.021868441,-0.0076152473,-0.007560061,-0.022454577,-0.08424923,-0.06435974,-0.029426586,0.009409903,0.033600543,0.043941833,-0.017485267,-0.0031745285,-0.016150054,-0.04066237,0.074421,0.0042884066,0.020271473,0.0011431163,0.022135714,-0.027261484,0.005273306,0.025370851,0.0127102025,0.021290027,0.009740846,-0.032024913
127,-0.06301145,0.029542275,-0.07195262,0.043662082,0.038012035,0.006764692,0.03833027,0.043330103,0.01711742,-0.006330226,-0.022119822,-0.017698046,0.007883134,-0.043477997,0.013111038,-0.0076080407,-0.033643708,-0.042815134,-0.019115351,0.0530451,0.015364538,-0.030958965,0.031833306,0.010721065,-0.021162353,-0.00672274,-0.0074441503,-0.022050982,-0.084646955,-0.0642798,-0.029272158,0.01043476,0.03326667,0.043956146,-0.018187787,-0.0012085687,-0.015807673,-0.04101164,0.07377374,0.0048839217,0.021308657,0.0011792029,0.021657694,-0.027249845,0.0043543046,0.023407262,0.01219698,0.021194492,0.0099141495,-0.03242145
128,-0.060680725,0.029599067,-0.07175014,0.04421994,0.037592314,0.0065958407,0.03801375,0.04324981,0.017702067,-0.0064562317,-0.02402562,-0.018180367,0.008557916,-0.041305803,0.012012625,-0.00703686,-0.03393422,-0.043424807,-0.019145869,0.054351777,0.0134069845,-0.030791946,0.0325727,0.010419823,-0.021099186,-0.006613551,-0.0075845476,-0.02238655,-0.08435564,-0.06685291,-0.029328173,0.011243973,0.033760317,0.04307606,-0.017530106,-0.0012411436,-0.015499996,-0.041110624,0.07000655,0.004527627,0.020153947,0.0012246823,0.021222992,-0.026822748,0.0049929842,0.022549108,0.013739215,0.021054171,0.00933919,-0.032526284
129,-0.05968191,0.030240793,-0.07260905,0.044971768,0.037854657,0.0070832632,0.039339326,0.04353152,0.018106792,-0.006378645,-0.024772055,-0.018776925,0.008350201,-0.04316325,0.013645183,-0.0078060515,-0.034046356,-0.042460434,-0.019176532,0.056397237,0.015073054,-0.031200174,0.032284506,0.010813886,-0.02051546,-0.0058683893,-0.006440184,-0.022717062,-0.082993716,-0.065936536,-0.02970332,0.0105928965,0.033530362,0.043462303,-0.016310161,-0.00230271,-0.014835732,-0.041499905,0.0709261,0.004364108,0.019326722,0.001226309,0.021405432,-0.025458325,0.0050000236,0.02258938,0.013530643,0.020863513,0.00832767,-0.033459052
130,-0.060746707,0.030821351,-0.073203005,0.04471881,0.03931133,0.007242053,0.039248325,0.04206307,0.017334532,-0.007200824,-0.022495655,-0.019156698,0.007445601,-0.0406557,0.013692925,-0.0094611775,-0.034272708,-0.04216993,-0.019351864,0.05631615,0.016038455,-0.031446032,0.031842314,0.009621159,-0.020093702,-0.006015773,-0.0055615357,-0.022752017,-0.081333846,-0.0673733,-0.029988274,0.008401071,0.03362335,0.044498026,-0.016131852,-0.0007049947,-0.014129285,-0.040739816,0.06737097,0.004095615,0.019148309,0.0012941762,0.02114151,-0.024903473,0.0041810675,0.023557262,0.01403678,0.020749597,0.0075485935,-0.03280297
131,-0.059214897,0.031971637,-0.07361525,0.04392644,0.039144907,0.005917078,0.039849147,0.04064042,0.017020456,-0.0070242314,-0.021696191,-0.019178458,0.007185624,-0.041610055,0.012277816,-0.00737495,-0.034261446,-0.040643323,-0.019013122,0.054515623,0.01681106,-0.031012032,0.030665942,0.010532986,-0.018550012,-0.0064663496,-0.0067032613,-0.022956457,-0.08024812,-0.065730244,-0.029790241,0.008468382,0.03405673,0.04449298,-0.015513677,-0.0021408892,-0.013463666,-0.04130343,0.07030629,0.004135547,0.018639985,0.0013060261,0.020355167,-0.024514021,0.0053740526,0.02481885,0.013588894,0.020703249,0.0073073274,-0.032873053
132,-0.058069643,0.03345479,-0.07220018,0.044863798,0.039121244,0.00454963,0.039488424,0.04092041,0.016425176,-0.0069402433,-0.02399233,-0.019386848,0.0064231493,-0.040686697,0.013418225,-0.00764842,-0.034431137,-0.04054901,-0.01895983,0.05280877,0.016810343,-0.031111544,0.031393014,0.010304821,-0.018194575,-0.0072244373,-0.0061301393,-0.023499558,-0.080612704,-0.06328996,-0.030030947,0.008933172,0.033646073,0.042694435,-0.014696911,-0.0017128123,-0.0128032155,-0.040884674,0.06935319,0.004173302,0.019934183,0.0012817573,0.020425176,-0.026279787,0.0053048786,0.02861875,0.012534486,0.020457698,0.006917845,-0.03274713
133,-0.059623726,0.034037173,-0.071510695,0.045288175,0.03962897,0.004922157,0.040444735,0.041705303,0.01614467,-0.0100854235,-0.023321774,-0.019118324,0.008358589,-0.040665455,0.013722833,-0.007089155,-0.03446713,-0.04109873,-0.020150218,0.054688226,0.016725618,-0.031347424,0.0313086,0.0100777345,-0.018855952,-0.0065619107,-0.005964458,-0.023762552,-0.08175346,-0.06314672,-0.030429289,0.0077591566,0.033498168,0.042494312,-0.013633968,-0.0014980291,-0.013486662,-0.040937908,0.068884805,0.003902859,0.019170262,0.0013898893,0.021867283,-0.025378313,0.0040114084,0.02910958,0.012710687,0.020383684,0.0061784843,-0.031984337
134,-0.060023084,0.035110693,-0.07296122,0.04641599,0.038866185,0.0065469574,0.040320307,0.041693747,0.016724546,-0.010671688,-0.022616226,-0.018469624,0.006519097,-0.042697426,0.013072299,-0.0071781734,-0.034690786,-0.04215651,-0.020711215,0.0550247,0.01725461,-0.031683788,0.030872855,0.009841043,-0.017836206,-0.007295446,-0.005197211,-0.023725158,-0.080986686,-0.06552769,-0.030585624,0.007896588,0.03319229,0.041502804,-0.014349375,-0.0026032238,-0.013277704,-0.04071318,0.067953706,0.003945782,0.017671932,0.0014284728,0.022262566,-0.022818003,0.0057587447,0.025743347,0.012444324,0.020326404,0.0057111,-0.032057192
135,-0.0634445,0.033953395,-0.07151529,0.046484727,0.038244266,0.006465791,0.041611597,0.042215664,0.01703107,-0.010561607,-0.02156818,-0.017601192,0.009806155,-0.04573565,0.012387289,-0.0073301657,-0.035068825,-0.042240728,-0.020069275,0.05287139,0.01963531,-0.03204467,0.031136079,0.010234881,-0.019189864,-0.007871561,-0.005673982,-0.024017833,-0.08203196,-0.066276334,-0.030514216,0.008214611,0.032586288,0.042226087,-0.014721487,-0.00073678035,-0.013764964,-0.041142546,0.06706084,0.0040792315,0.017812429,0.0014925313,0.022300398,-0.023464443,0.0062349876,0.027314987,0.0118454285,0.020346893,0.0055613415,-0.032011915
136,-0.061921522,0.03475798,-0.07171036,0.045719832,0.03853,0.0041894102,0.041346807,0.04210569,0.017865594,-0.010136139,-0.02279377,-0.017636832,0.01052115,-0.04497029,0.012405331,-0.007250961,-0.03489388,-0.04278334,-0.021065528,0.056386326,0.015955696,-0.032089487,0.031511478,0.01042427,-0.019829229,-0.0077096494,-0.007218562,-0.023638923,-0.081123546,-0.06506926,-0.030521855,0.008368247,0.033028934,0.04231195,-0.015296485,-0.002264942,-0.013273575,-0.041353993,0.06771073,0.0038717543,0.018972991,0.0014926568,0.020549424,-0.021164387,0.003948531,0.026816934,0.012326342,0.020133518,0.0061884183,-0.031958707
137,-0.061661303,0.033738952,-0.073133856,0.046641245,0.03964149,0.0034312634,0.042640887,0.04373929,0.018709186,-0.010467015,-0.022296067,-0.017809916,0.012627335,-0.046214677,0.010456115,-0.0066098254,-0.035000853,-0.04119227,-0.020691205,0.05583127,0.015923295,-0.032709718,0.031824827,0.010986809,-0.021336105,-0.008460608,-0.008090884,-0.02337956,-0.08233893,-0.06481365,-0.030710781,0.00797652,0.03328475,0.042444788,-0.014163622,-0.0050394917,-0.013600206,-0.041735686,0.06894937,0.004170871,0.018024778,0.0015181919,0.021600656,-0.020851355,0.004925663,0.028087769,0.012737668,0.019606156,0.00545643,-0.032000333
138,-0.06210264,0.0349687,-0.07302573,0.046555445,0.04090162,0.0034374956,0.043041326,0.04308185,0.018699244,-0.011159966,-0.02279947,-0.018192507,0.01272664,-0.04355533,0.007790801,-0.0070183743,-0.035705473,-0.041363392,-0.020093448,0.055862486,0.015551298,-0.032547712,0.031957716,0.011880981,-0.021220982,-0.008457722,-0.008580544,-0.023529751,-0.0812349,-0.06530617,-0.030098531,0.009024058,0.033671644,0.04050706,-0.013647152,-0.0050514466,-0.014259774,-0.041666918,0.06882196,0.0035243041,0.018461,0.0015188034,0.02128107,-0.021451237,0.0046354127,0.028133908,0.013417127,0.01981431,0.004695942,-0.032176863
139,-0.06335661,0.035027716,-0.07307769,0.048875555,0.04006648,0.003773857,0.043121368,0.04443454,0.019558815,-0.01225593,-0.02526889,-0.018194111,0.012884427,-0.045600753,0.0077998177,-0.008315453,-0.03574182,-0.041198954,-0.019343441,0.053791486,0.015830802,-0.032350667,0.0320007,0.011824223,-0.02063352,-0.0074804504,-0.008811652,-0.024533827,-0.08229731,-0.06506527,-0.029940037,0.008732852,0.033908464,0.04022101,-0.013711669,-0.004046006,-0.01460992,-0.042003684,0.07128108,0.0037846349,0.017572328,0.0015246563,0.022276439,-0.023904042,0.003622005,0.029250707,0.012806622,0.019605093,0.004642836,-0.031956036
140,-0.06315367,0.032412566,-0.0737993,0.050327297,0.040019747,0.0044227787,0.04248483,0.04395899,0.01977411,-0.011213101,-0.024498207,-0.01796058,0.013257942,-0.046459958,0.010500671,-0.00785134,-0.035850815,-0.040972464,-0.01998263,0.054945398,0.016742297,-0.032099623,0.03180157,0.011683202,-0.020907508,-0.007832982,-0.007133978,-0.024521425,-0.081666194,-0.06457666,-0.030135917,0.008541718,0.033431888,0.039453708,-0.013834697,-0.006624327,-0.014550813,-0.042412125,0.0713857,0.0035894555,0.016270675,0.0014852495,0.02144099,-0.022420544,0.004007916,0.028750177,0.013619509,0.018944347,0.0041266955,-0.031472966
141,-0.06242807,0.033057492,-0.07301874,0.050910734,0.03985221,0.0050800843,0.0418211,0.04363679,0.02066784,-0.010037489,-0.023606736,-0.018583275,0.014116713,-0.04557985,0.010087004,-0.009109568,-0.03607458,-0.041006584,-0.020038007,0.055127684,0.013545656,-0.032277726,0.031422824,0.011971377,-0.020418372,-0.007907202,-0.0054826327,-0.025148945,-0.08143379,-0.064655095,-0.02956703,0.0065646423,0.032978028,0.03963859,-0.013087954,-0.007620148,-0.014348738,-0.042184934,0.07301355,0.0035193197,0.01676985,0.0015118114,0.021425366,-0.02201884,0.003651493,0.03113954,0.013998497,0.019193785,0.003340634,-0.032377508
142,-0.061958127,0.03266301,-0.07371616,0.049513005,0.03958786,0.005484902,0.043492943,0.0437461,0.02021588,-0.011314807,-0.023036372,-0.01825304,0.014208476,-0.04548816,0.010792525,-0.009934661,-0.036013275,-0.04205191,-0.019906772,0.05599515,0.012222189,-0.032261483,0.031293206,0.011224171,-0.019540587,-0.0081918705,-0.006011285,-0.025125442,-0.08125509,-0.06642676,-0.030157264,0.0070913862,0.03352375,0.03997808,-0.013363095,-0.0054179565,-0.013548791,-0.041928113,0.072528794,0.0034917337,0.018323185,0.0014638879,0.022310974,-0.022925943,0.0040775407,0.028874945,0.013884353,0.019529035,0.0030444223,-0.032556903
143,-0.06047498,0.0334147,-0.07405504,0.049648076,0.039396163,0.007013689,0.042673368,0.043916196,0.021795645,-0.012802709,-0.022483535,-0.017929355,0.013703433,-0.046471182,0.01122283,-0.011685768,-0.036019392,-0.04241917,-0.019711226,0.055350333,0.011817193,-0.032697022,0.03129963,0.010227136,-0.0192643,-0.00881666,-0.004809523,-0.025251247,-0.080567844,-0.06629549,-0.029984608,0.007935215,0.034012828,0.03917031,-0.012933254,-0.0060518165,-0.012916867,-0.041896213,0.07211359,0.003295943,0.01675398,0.0014605827,0.0221983,-0.021764483,0.0031751455,0.028855383,0.013629964,0.019914761,0.0034700215,-0.032812636
144,-0.061547354,0.034411464,-0.075071394,0.05035109,0.03847633,0.00625547,0.04189346,0.042743534,0.021744635,-0.011778268,-0.021315923,-0.018272135,0.012257952,-0.04912614,0.009858441,-0.013319669,-0.036250386,-0.042295232,-0.019407416,0.057187892,0.013633701,-0.033134654,0.030255571,0.010138071,-0.02109174,-0.008050488,-0.005458394,-0.025184054,-0.080994174,-0.06677142,-0.030198824,0.008264381,0.034296386,0.03799199,-0.012378366,-0.007184689,-0.0135437455,-0.041713785,0.072698265,0.0030998106,0.016004246,0.0014663534,0.022403173,-0.021472525,0.0032761418,0.030489586,0.01578024,0.019591087,0.0031951948,-0.033164807
145,-0.06166365,0.033270348,-0.07459454,0.050786227,0.039245807,0.0051847138,0.041839454,0.042802606,0.02294017,-0.010367305,-0.02042121,-0.018307686,0.013762849,-0.049499165,0.010942075,-0.011465583,-0.03634924,-0.041720815,-0.020969208,0.055396486,0.01207001,-0.03318157,0.030189391,0.010148194,-0.02039661,-0.008241523,-0.0059713717,-0.024220482,-0.08105194,-0.06883846,-0.030183796,0.00797514,0.033553716,0.037229814,-0.011436645,-0.007920975,-0.012792151,-0.04082363,0.071651295,0.0033082159,0.018333089,0.0015000998,0.021737725,-0.019961216,0.0027228147,0.032619055,0.016089093,0.019568527,0.0030723081,-0.033288963
146,-0.06245765,0.033997864,-0.07502642,0.051624503,0.039622746,0.005294158,0.041304156,0.044039648,0.022675078,-0.010764377,-0.021135654,-0.018413609,0.013430842,-0.050936114,0.011498972,-0.012522777,-0.036624704,-0.041946128,-0.020653874,0.055291876,0.013317083,-0.03291262,0.030850144,0.010706287,-0.019545704,-0.008247787,-0.005783843,-0.024577213,-0.08099457,-0.06898107,-0.030149858,0.007781966,0.033671048,0.037074387,-0.011774335,-0.0063970867,-0.012164195,-0.041536707,0.069370404,0.0030116024,0.018844984,0.0015023199,0.02236696,-0.020691225,0.004116484,0.032604717,0.017258227,0.019727059,0.0027555812,-0.032635976
147,-0.06199302,0.032334235,-0.07576093,0.05151006,0.03971587,0.0052854214,0.040758584,0.043572847,0.020387987,-0.01170188,-0.020761171,-0.018315567,0.01218585,-0.05070602,0.01154582,-0.011448368,-0.036697038,-0.0409343,-0.021855555,0.05645523,0.014568724,-0.033068076,0.031914108,0.010667689,-0.018856242,-0.009100709,-0.0062177023,-0.024769079,-0.08234409,-0.06824592,-0.029736612,0.0057584154,0.034097698,0.03734436,-0.011789797,-0.0059365616,-0.011189777,-0.04182085,0.06805296,0.0036308886,0.018895535,0.0015164644,0.02213599,-0.020153847,0.0022971833,0.031989984,0.016457533,0.019550432,0.0026600729,-0.033167437
148,-0.06185998,0.03315258,-0.07692554,0.050189458,0.03849138,0.0054690745,0.04112046,0.044021457,0.019988112,-0.013668679,-0.023133535,-0.018910399,0.012056347,-0.052318286,0.012687933,-0.010374545,-0.036850207,-0.041749813,-0.020842183,0.058049083,0.012529271,-0.033735443,0.03167779,0.010428778,-0.018966027,-0.008520868,-0.006250493,-0.024753956,-0.08244129,-0.0689025,-0.030206658,0.005603732,0.034105442,0.038067423,-0.011820756,-0.007072776,-0.012016282,-0.04211295,0.07113327,0.003898113,0.01887461,0.0015389943,0.022472672,-0.019627728,0.0038494442,0.030188106,0.01869354,0.01909311,0.0024627757,-0.033562288
149,-0.059871122,0.03313316,-0.0775725,0.050989315,0.038405985,0.005645911,0.040667836,0.043997556,0.0205199,-0.01430847,-0.025023688,-0.018178346,0.012973113,-0.051807977,0.013064634,-0.011181289,-0.036241125,-0.04226182,-0.022185856,0.058342807,0.013396899,-0.033519298,0.032181058,0.011144799,-0.018995646,-0.007813044,-0.005182461,-0.024996143,-0.079782374,-0.068592064,-0.029995227,0.004911861,0.034387343,0.038355704,-0.011416654,-0.0067583565,-0.013332294,-0.042504165,0.070679,0.004218627,0.01868778,0.0015277666,0.022881288,-0.020036325,0.003350846,0.03364783,0.01829154,0.018978246,0.0011387416,-0.03381233
150,-0.060043536,0.033443846,-0.0790775,0.051341943,0.037762716,0.006511414,0.042205982,0.04398198,0.02208162,-0.0153657,-0.023953795,-0.018095158,0.013542994,-0.05196914,0.010769131,-0.0107749235,-0.03707762,-0.043512613,-0.022584492,0.058943737,0.014195303,-0.03393116,0.032298945,0.010950562,-0.019769723,-0.007166039,-0.00624675,-0.025075635,-0.08055395,-0.068314835,-0.030259725,0.0068253027,0.03432932,0.039830387,-0.012805842,-0.008096668,-0.013138918,-0.042453475,0.071372084,0.004463666,0.018200781,0.0016488247,0.02214161,-0.018693315,0.0032263962,0.028734623,0.019779004,0.019046098,0.0005497906,-0.034979984
151,-0.05829927,0.033419855,-0.07933621,0.05265764,0.03774599,0.007140423,0.040752664,0.04397764,0.021635352,-0.014525268,-0.024456011,-0.018357947,0.013396425,-0.049828168,0.011043327,-0.010124975,-0.036899857,-0.042884223,-0.023123207,0.056431647,0.013749957,-0.03340659,0.031148713,0.0105321035,-0.020403165,-0.008141171,-0.0070620514,-0.02509401,-0.080682874,-0.07208666,-0.030120678,0.0059116124,0.0343502,0.040159903,-0.013101123,-0.0065401,-0.012034264,-0.042287897,0.070427254,0.0040810513,0.017514916,0.0017073895,0.022835102,-0.016533723,0.002413905,0.030096859,0.021102991,0.01893233,0.0014534447,-0.033866275
152,-0.05678059,0.033387545,-0.079181224,0.051105265,0.03858335,0.00613352,0.0405894,0.043762535,0.022739217,-0.014995241,-0.024045771,-0.018982962,0.015239089,-0.0517734,0.013654077,-0.011891519,-0.037518933,-0.042462945,-0.023371551,0.05704963,0.017585812,-0.03380535,0.031105049,0.010320993,-0.019896021,-0.0081907995,-0.0037905835,-0.024805209,-0.07978664,-0.070474684,-0.03022502,0.0064732563,0.03505122,0.039807353,-0.0129269,-0.0066504963,-0.011778807,-0.042536475,0.071640365,0.003860687,0.01730388,0.0016730644,0.024171924,-0.017899537,0.0020076444,0.027709179,0.020849954,0.018462759,0.00019232092,-0.033611394
153,-0.056556255,0.03516642,-0.07934739,0.051080972,0.038769,0.0076332474,0.04189021,0.04408735,0.02191832,-0.014556849,-0.023149285,-0.018706346,0.0144722145,-0.05088495,0.01603924,-0.010762096,-0.03760639,-0.04186433,-0.022718424,0.059770614,0.015617652,-0.03358111,0.030565664,0.010496978,-0.020693272,-0.009055243,-0.002815053,-0.024571022,-0.08055151,-0.07080182,-0.030072909,0.0062084263,0.035341155,0.038480416,-0.012265913,-0.0082254615,-0.011502961,-0.042409897,0.071908966,0.00375582,0.017884627,0.0016377203,0.024871927,-0.018610815,0.003670236,0.028953936,0.020862473,0.018527057,0.00026856328,-0.03301064
154,-0.055899594,0.037503395,-0.08171329,0.05160757,0.037293803,0.0053229774,0.042808544,0.043499243,0.02213312,-0.019367255,-0.02565984,-0.019059056,0.01652306,-0.053317275,0.015680697,-0.010376633,-0.037839156,-0.0418236,-0.02393847,0.05923599,0.014500377,-0.034316957,0.03012612,0.01061624,-0.020050365,-0.009387056,-0.0033323423,-0.024077471,-0.08153905,-0.07094776,-0.030995533,0.005537402,0.03579466,0.03985513,-0.011509646,-0.008870481,-0.011416335,-0.041937437,0.07025421,0.0035152994,0.01752126,0.0016358797,0.024711682,-0.018680742,0.004651438,0.02748413,0.020175442,0.018448483,0.0011250894,-0.03320526
155,-0.05556535,0.036176294,-0.082064986,0.05030478,0.038342886,0.005179335,0.043268807,0.043019384,0.022535317,-0.018564899,-0.025341235,-0.018410847,0.016071219,-0.052280102,0.016560001,-0.011746931,-0.038236648,-0.040375937,-0.024665391,0.05699998,0.012260029,-0.034212906,0.030485466,0.010725658,-0.02095646,-0.009472415,-0.00450296,-0.024655469,-0.079110146,-0.06843268,-0.030931788,0.004715533,0.036290683,0.03977274,-0.011361358,-0.0087717995,-0.0106672235,-0.042713802,0.07050428,0.004028565,0.016537942,0.0016404743,0.02336666,-0.018879468,0.005766348,0.027186302,0.017835047,0.018462576,0.0018661886,-0.03333423
156,-0.058941327,0.0349032,-0.08191417,0.05144918,0.038607527,0.004588411,0.04459667,0.043131962,0.02351862,-0.016539924,-0.025848467,-0.01864357,0.01753991,-0.050178982,0.014522994,-0.010578905,-0.03863782,-0.040910568,-0.025005013,0.055028554,0.01172667,-0.03461537,0.030428253,0.010223789,-0.020717632,-0.008727117,-0.0061524403,-0.024485718,-0.07691914,-0.06915882,-0.030927656,0.004762787,0.035721853,0.038264576,-0.010956829,-0.010224248,-0.009968552,-0.042684883,0.07196257,0.0040730294,0.017554075,0.0016366912,0.024142426,-0.017225092,0.004337979,0.029117074,0.018507667,0.018230824,0.0014395209,-0.03307143
157,-0.06035712,0.034405794,-0.08370877,0.050793123,0.039272156,0.0053015985,0.044439778,0.04347372,0.02290465,-0.018366626,-0.02535359,-0.018605135,0.017948365,-0.05211799,0.014830061,-0.012961832,-0.038704917,-0.03940186,-0.023492882,0.058122404,0.013968705,-0.034520444,0.030058619,0.010571362,-0.020376107,-0.00785411,-0.00509391,-0.024938997,-0.07835342,-0.07076639,-0.030856762,0.004366396,0.034667164,0.038307987,-0.010590267,-0.009474279,-0.010002463,-0.04225387,0.07110807,0.004072031,0.018047124,0.0017725767,0.025066966,-0.018636836,0.0051076584,0.028242592,0.018667504,0.01754046,0.0010837959,-0.033066165
158,-0.061192594,0.034803633,-0.08377218,0.049483724,0.039389834,0.004487536,0.044120714,0.04345712,0.02215717,-0.01834547,-0.025623392,-0.01817777,0.019584699,-0.052140765,0.014518262,-0.014145317,-0.03798974,-0.038884092,-0.023482576,0.05614114,0.017576113,-0.034378294,0.030409392,0.011268033,-0.021301214,-0.009527938,-0.0056426018,-0.024231989,-0.0782542,-0.06977074,-0.030194227,0.0054081087,0.03635959,0.037120704,-0.011550663,-0.009237108,-0.01143414,-0.042915948,0.07439848,0.003907081,0.015075438,0.0017547123,0.024764296,-0.01673128,0.00420675,0.026832765,0.019285096,0.017071618,0.0011972355,-0.03399096
159,-0.061374206,0.03612124,-0.082604185,0.049936116,0.038011044,0.004788564,0.04413402,0.044773355,0.02333488,-0.0183906,-0.02365015,-0.018158799,0.01790081,-0.051897146,0.011131062,-0.015024491,-0.038341448,-0.03913732,-0.02287044,0.05785972,0.0142647335,-0.03410468,0.030003076,0.010220772,-0.020704377,-0.009898527,-0.0074635223,-0.024053963,-0.078500636,-0.07195145,-0.0298126,0.0036471193,0.037400164,0.037909888,-0.010559931,-0.0072387964,-0.0117406165,-0.042609677,0.07191843,0.0029502003,0.016036008,0.0017482026,0.02434136,-0.018359378,0.006357679,0.027817002,0.018161003,0.017194238,0.0013284781,-0.03402392
