round,84386,45477,7096,116093,46199,111599,74870,54805,21583,61568,36697,37080,71961,3780,74301,81887,78067,20113,28181,2222,7218,30079,120114,22550,36073,89681,36312,30036,120192,18436,30221,71357,34827,2124,43312,101997,19025,67578,144,17004,16187,14285,35159,12972,25686,93563,98233,103856,68513,24922
0,-0.034903757,0.0024830336,-0.04292933,0.031850602,0.03373924,0.0010719617,0.02029976,0.020063026,0.0141279455,-0.008197229,-0.02201694,-0.017802821,0.021330051,-0.0284747,-0.009401678,-0.006558489,-0.03268545,-0.034090374,-0.004255408,0.024847567,0.03077627,-0.024537977,0.023458209,0.0034604692,0.008755766,-0.010824497,-0.027781771,-0.019639,-0.08209505,-0.030960258,-0.027857874,0.026029337,0.030538183,0.034867994,-0.022792645,0.009676233,-0.020853061,-0.021705065,0.013529815,-0.0016092074,0.010578696,0.0021135912,0.008828696,-0.036636543,0.015318057,-0.007232149,-0.0026830542,0.031849906,0.0010554258,-0.02099286
1,-0.034795977,0.0031580739,-0.0432443,0.031821996,0.033843704,0.0010444595,0.020444851,0.020120516,0.014102821,-0.0077620894,-0.022024512,-0.01779887,0.021816157,-0.027643168,-0.009223939,-0.0065633403,-0.0327273,-0.034091055,-0.0042338846,0.026001852,0.030571468,-0.024534944,0.023092274,0.0034664278,0.008749031,-0.010824281,-0.027731208,-0.019644238,-0.081922516,-0.030970775,-0.02785354,0.026063079,0.030544793,0.03486816,-0.02278976,0.009631351,-0.02077571,-0.021708427,0.016659833,-0.0018753461,0.010684911,0.0020363578,0.008862261,-0.03661672,0.01532079,-0.00695277,-0.0023648068,0.031889725,0.0009365208,-0.02093906
2,-0.034541648,0.0041195103,-0.04348189,0.031828877,0.034319814,0.0010205492,0.020568717,0.02013169,0.014097616,-0.0071253944,-0.022040244,-0.017801529,0.023343537,-0.02638122,-0.008994285,-0.0063507278,-0.032786228,-0.034091055,-0.0040694023,0.028137416,0.03047272,-0.024525218,0.022844896,0.003472507,0.008749653,-0.010824281,-0.02759284,-0.01964899,-0.081744805,-0.030830856,-0.02776796,0.0260708,0.030542193,0.03500412,-0.022802252,0.009642217,-0.021071294,-0.021778539,0.02214739,-0.0021052854,0.010921844,0.001962185,0.008907941,-0.036614016,0.015305808,-0.00653613,-0.0025404268,0.031926546,0.00081249746,-0.020964826
3,-0.034148656,0.005627497,-0.04339638,0.03184083,0.033936024,0.0010393539,0.02082797,0.019940726,0.014186085,-0.0059002116,-0.02204903,-0.01780317,0.025040492,-0.02404104,-0.0087014865,-0.0063019395,-0.032846093,-0.034091055,-0.0039485153,0.030061703,0.030493144,-0.024645176,0.022699136,0.0034727508,0.0087524615,-0.010824281,-0.02747316,-0.019653462,-0.08209472,-0.030793011,-0.027815433,0.026079971,0.030548424,0.035349123,-0.022815272,0.009605914,-0.021965072,-0.021936115,0.030779893,-0.0023332832,0.011131858,0.0018722126,0.00926104,-0.03651133,0.015305973,-0.005840754,-0.0018470235,0.031958282,0.0006176825,-0.021034133
4,-0.033641115,0.0056993524,-0.043246932,0.03186035,0.033934172,0.0009947858,0.021224942,0.019850815,0.014123188,-0.0033683435,-0.022037294,-0.01780628,0.025393998,-0.022089256,-0.008314941,-0.0067228414,-0.032857593,-0.034091055,-0.0035497374,0.031162955,0.030854207,-0.024586976,0.022755085,0.003484882,0.00874187,-0.010824281,-0.027494658,-0.01966547,-0.08217256,-0.030692628,-0.027747422,0.026133088,0.030549379,0.03560684,-0.022809062,0.009442645,-0.022515632,-0.022073366,0.036801223,-0.0023307856,0.011320094,0.0018536081,0.009221466,-0.036344912,0.015522696,-0.005371402,-0.0028657152,0.031894498,0.000609037,-0.021348463
5,-0.033143505,0.0068188407,-0.043369666,0.031896345,0.033596534,0.0010189267,0.02191195,0.019717593,0.013792656,-0.0019408994,-0.02204256,-0.017812053,0.025440915,-0.020218952,-0.008143466,-0.006971792,-0.0328669,-0.034091055,-0.0038993675,0.031609714,0.031176101,-0.02459899,0.022785762,0.0035283274,0.008870133,-0.010826123,-0.027189635,-0.019662648,-0.0816154,-0.030383138,-0.02753077,0.026192887,0.030540165,0.036050834,-0.022823581,0.009043209,-0.02240696,-0.02236733,0.040902615,-0.0024526087,0.010965955,0.0018502919,0.008935299,-0.03605877,0.015432065,-0.005173187,-0.0028267647,0.031856857,0.00072839344,-0.021658553
6,-0.03282064,0.007270637,-0.043466985,0.031911716,0.033857055,0.001026478,0.022415888,0.019790094,0.013771288,-0.0013367872,-0.022053037,-0.017820928,0.026302591,-0.0181414,-0.008332517,-0.0069180448,-0.03287566,-0.034091055,-0.004238813,0.030145265,0.0315128,-0.024513766,0.022843212,0.0035599396,0.0085080825,-0.010823725,-0.02694579,-0.019664254,-0.08207489,-0.03019082,-0.027442329,0.026248213,0.030541934,0.037049104,-0.022838088,0.008854911,-0.022277165,-0.022785269,0.042367637,-0.0025914235,0.011345837,0.0018355439,0.008494517,-0.035612736,0.015628338,-0.0050794883,-0.0032825246,0.0317684,0.0007128622,-0.02163004
7,-0.03238994,0.0074721994,-0.04429838,0.0317834,0.033158403,0.0010717338,0.022728385,0.019876275,0.013084343,-0.0009250643,-0.022071242,-0.017822182,0.026402961,-0.017700132,-0.007914208,-0.0070363907,-0.032886308,-0.034091055,-0.0037020454,0.030598722,0.031595353,-0.024426319,0.023020219,0.0035549593,0.0078215,-0.01081286,-0.026492758,-0.019672329,-0.08156866,-0.030139077,-0.02748473,0.026288558,0.030540258,0.03709906,-0.022840444,0.00863796,-0.022237722,-0.023169897,0.04049569,-0.0021291215,0.011565736,0.0018067994,0.008218218,-0.03571392,0.01551461,-0.0055273212,-0.0028222783,0.031762816,0.00051573745,-0.021936268
8,-0.03160819,0.007688481,-0.044272665,0.031554453,0.033337153,0.00126156,0.023208166,0.01992268,0.013266357,0.00024892352,-0.022049397,-0.017819654,0.026849497,-0.016186576,-0.007771708,-0.006278349,-0.032890793,-0.034091055,-0.0036656745,0.030826304,0.031938653,-0.024352219,0.022855077,0.0035802177,0.007264609,-0.010782838,-0.0262123,-0.019681629,-0.081528105,-0.029727742,-0.027270216,0.026324283,0.03053389,0.037484538,-0.022862319,0.008735072,-0.022576977,-0.023362318,0.042761173,-0.0020404726,0.011843308,0.0018207502,0.0077856006,-0.035654735,0.015570396,-0.005611911,-0.0027363105,0.03172966,0.0007465122,-0.021972198
9,-0.0313241,0.0071758553,-0.044589147,0.03151336,0.033364873,0.00150434,0.023181528,0.019995581,0.013029545,0.0005387519,-0.022008292,-0.017797904,0.027391264,-0.016806886,-0.007726586,-0.0058198823,-0.0328864,-0.03409127,-0.0048735086,0.028678525,0.03226165,-0.024374805,0.022582302,0.0036513687,0.0071735606,-0.010712942,-0.02581028,-0.019680597,-0.08181718,-0.029373832,-0.027304659,0.026365347,0.030533168,0.03794638,-0.022888726,0.008825967,-0.022687731,-0.023572348,0.04260892,-0.001635933,0.012347499,0.001829467,0.007900203,-0.03581593,0.015283386,-0.005472243,-0.0022956394,0.03166669,0.00073804404,-0.022077968
10,-0.031215196,0.0067443065,-0.044549793,0.031270806,0.03266418,0.0018456723,0.023506999,0.02015964,0.012945806,0.0007453852,-0.021951605,-0.017786104,0.027740829,-0.016027177,-0.007251288,-0.005113382,-0.032883584,-0.03408578,-0.0050213095,0.028826576,0.032400325,-0.02442975,0.02253486,0.0037307427,0.0062728035,-0.0104477275,-0.025619507,-0.019697843,-0.08130592,-0.02861691,-0.027515715,0.026468692,0.030528551,0.03928569,-0.022868887,0.009332557,-0.022828238,-0.023848265,0.044506315,-0.0013843793,0.012978143,0.0018360172,0.007634259,-0.035689957,0.015495619,-0.0062399525,-0.0021180434,0.031604074,0.0008163869,-0.022238128
11,-0.03094943,0.00652379,-0.04511649,0.03108404,0.03256007,0.0018122249,0.0237116,0.020387497,0.013111768,0.00081783737,-0.02201611,-0.017844934,0.028376153,-0.015452632,-0.007065791,-0.0047350535,-0.032885384,-0.034086905,-0.005607213,0.028554283,0.032536093,-0.024331095,0.022495283,0.0037565087,0.0064265854,-0.010455404,-0.02501839,-0.019707758,-0.082497716,-0.02823681,-0.027435254,0.026474882,0.030533882,0.038800593,-0.02286682,0.009568791,-0.023095436,-0.024102794,0.042059988,-0.0015877782,0.012564846,0.0018427444,0.0077703902,-0.035832696,0.014454863,-0.0057681147,-0.0018542889,0.031613804,0.00071235775,-0.02238083
12,-0.03063003,0.0062126266,-0.045463745,0.031182796,0.032860145,0.0022546952,0.02402949,0.020641984,0.012634546,0.0011201748,-0.021984693,-0.017847493,0.028656945,-0.016251408,-0.0071158144,-0.004431555,-0.03288159,-0.034090124,-0.004935281,0.029211294,0.03259037,-0.024248814,0.022698887,0.003857658,0.0054682624,-0.010348869,-0.024791086,-0.019718437,-0.0819155,-0.027657652,-0.027646942,0.026524214,0.030517606,0.039528597,-0.022816587,0.010461889,-0.023166561,-0.024376988,0.044653796,-0.0016384039,0.01278344,0.0018238048,0.007751257,-0.036094137,0.014749358,-0.0060079647,-0.0019976702,0.03164261,0.0011646161,-0.022569641
13,-0.030223496,0.0058576176,-0.04530474,0.030851033,0.03290209,0.0025521994,0.02420398,0.020969996,0.0134108635,0.0009289933,-0.021984607,-0.017766478,0.029308468,-0.015997373,-0.006981222,-0.0035069394,-0.03286829,-0.03408064,-0.005813399,0.025613958,0.032449525,-0.024231194,0.02273559,0.0039505656,0.0057807006,-0.010264613,-0.024172088,-0.019733155,-0.0819595,-0.026887204,-0.027894197,0.026601497,0.03051736,0.04028149,-0.02279375,0.010726284,-0.023322586,-0.024597168,0.045458615,-0.0016871175,0.0137343975,0.0018265055,0.007737246,-0.036794744,0.015165607,-0.0056306017,-0.0022270954,0.031529147,0.0014756485,-0.022858988
14,-0.030334579,0.006391639,-0.045203812,0.031062106,0.03251018,0.002651059,0.024592225,0.021456271,0.013483675,0.0015297253,-0.021973897,-0.017776066,0.029398086,-0.014540948,-0.00684575,-0.0027606324,-0.032868735,-0.034079455,-0.006097572,0.023915386,0.0322392,-0.024181232,0.02261271,0.0041347863,0.0056178924,-0.010568115,-0.02421902,-0.019730577,-0.082314044,-0.027047738,-0.027884638,0.026744869,0.030509843,0.04032196,-0.02278203,0.011583923,-0.023272397,-0.024481643,0.04426335,-0.0013434154,0.013585673,0.0018065692,0.007592289,-0.03718638,0.014723448,-0.005335492,-0.0019267491,0.031486277,0.0014620662,-0.022928443
15,-0.030160042,0.0048129465,-0.04628068,0.031320494,0.032701403,0.002386617,0.024945103,0.021527631,0.014065974,0.0007962532,-0.02192041,-0.017739696,0.029888857,-0.014790018,-0.006088559,-0.0025296183,-0.03286006,-0.034041494,-0.006194581,0.023225494,0.031861205,-0.024169933,0.02266571,0.0043138154,0.003858912,-0.010987285,-0.0241121,-0.01974103,-0.08299068,-0.02680174,-0.027898239,0.026836362,0.0304908,0.04015937,-0.022886967,0.010611746,-0.023388952,-0.025077589,0.043018546,-0.0016310953,0.014099689,0.0018103943,0.007846364,-0.038003955,0.014593782,-0.005413653,-0.0020307275,0.031424467,0.0018194194,-0.02294971
16,-0.02965422,0.0052007567,-0.046505604,0.031387452,0.03264487,0.0022769754,0.024906628,0.022201486,0.013573487,0.0016592967,-0.021842007,-0.0178371,0.029294211,-0.014318887,-0.005572446,-0.0014657977,-0.032863677,-0.03401181,-0.0070676384,0.02617394,0.03176865,-0.02411072,0.02333574,0.004480947,0.0025578574,-0.0111290915,-0.024529284,-0.019732129,-0.08322006,-0.02592133,-0.027869869,0.027122034,0.030480985,0.040792778,-0.022900023,0.011603936,-0.023564633,-0.02532805,0.04603061,-0.0015567585,0.01482406,0.0018259457,0.008122715,-0.038498305,0.014571975,-0.0056468723,-0.0018985448,0.03151652,0.0023899616,-0.023484292
17,-0.029707773,0.0062922332,-0.047235712,0.03160776,0.032478403,0.0018343637,0.024905993,0.022556778,0.014003735,0.0020247356,-0.02209543,-0.018030398,0.029264264,-0.014103789,-0.004986642,-0.00073241786,-0.03284776,-0.03395606,-0.006746743,0.023717077,0.031870432,-0.024012262,0.023739135,0.0047042267,0.0020810724,-0.011059245,-0.024890734,-0.019750135,-0.08403634,-0.025696494,-0.02800389,0.027108802,0.030467005,0.041206185,-0.022870759,0.0119360145,-0.023531303,-0.025599945,0.045782372,-0.0013688832,0.015500909,0.0018182837,0.008266712,-0.039575756,0.014659189,-0.005635556,-0.0017879796,0.031408165,0.0024904725,-0.023790974
18,-0.030371932,0.0071527073,-0.048091464,0.031402536,0.032168787,0.0015710655,0.024868293,0.022884764,0.0134446295,0.0019810586,-0.022086216,-0.018039543,0.02881755,-0.012977131,-0.004240414,-0.001045087,-0.03287463,-0.033895906,-0.006432837,0.02441483,0.03203956,-0.02403993,0.024022296,0.005013086,0.0018074948,-0.011378458,-0.024206506,-0.019785836,-0.08432056,-0.024808075,-0.028273249,0.02698619,0.030464027,0.041254446,-0.022805376,0.011889008,-0.02341612,-0.025856081,0.04562649,-0.001125415,0.016103959,0.0017903014,0.0085458085,-0.0404068,0.015198001,-0.006000459,-0.0017146843,0.03139565,0.0028040318,-0.02394607
19,-0.029131755,0.008499295,-0.048438054,0.03206724,0.03189112,0.0017414604,0.024964623,0.02386011,0.012876268,0.002932218,-0.022251036,-0.01810591,0.028603926,-0.011504848,-0.003080354,6.622134e-05,-0.032861415,-0.033845887,-0.007089816,0.024897952,0.031136919,-0.024049249,0.024318688,0.0050766324,0.0019598245,-0.011062035,-0.024194233,-0.019794,-0.0843686,-0.024621332,-0.028274547,0.026859205,0.030467061,0.042817406,-0.022883065,0.011558993,-0.023404079,-0.026236271,0.046576276,-0.0010311783,0.016311258,0.0017831272,0.008867852,-0.040781353,0.014654867,-0.0054510366,-0.00023714204,0.031378582,0.003075287,-0.024265278
20,-0.028607043,0.009514779,-0.048848886,0.032208413,0.031670567,0.0018875367,0.025121808,0.024353607,0.012700665,0.002918646,-0.022336075,-0.018182179,0.029070275,-0.011068711,-0.003231363,0.00053262373,0.0,-0.033824217,-0.008352216,0.025395097,0.0,-0.023983039,0.02381359,0.0050847293,0.001447067,-0.010777369,-0.025351,-0.019783596,-0.08413584,-0.02426878,-0.028373618,0.02681947,0.030454824,0.042324122,-0.022838695,0.010476744,-0.023362085,-0.026513493,0.046648283,-0.00077175396,0.018002342,0.0017726091,0.0,-0.04173241,0.015016273,-0.005177615,-0.0005840964,0.031242302,0.0035206734,-0.024425207
21,-0.028679796,0.00992538,-0.04944798,0.032488726,0.031482775,0.0015173991,0.024880115,0.024615986,0.011398819,0.002600227,-0.022462022,-0.018285569,0.029106194,-0.009808748,-0.0023711307,0.0003996745,0.0,-0.033773847,-0.008014377,0.02799654,0.0,-0.023982242,0.023553804,0.005216006,0.0011163262,-0.010506134,-0.025259433,-0.019788828,-0.0844028,-0.024137678,-0.028009996,0.026810594,0.030442072,0.042780932,-0.022654086,0.009926026,-0.023454217,-0.026601695,0.04525798,-0.001207593,0.017832488,0.001730548,0.0,-0.04165307,0.015120014,-0.005442804,-0.0006193504,0.031059578,0.004317098,-0.024685666
22,-0.02881187,0.009256445,-0.05043247,0.031852134,0.031789623,0.0014369797,0.02492798,0.025315847,0.011352117,0.0029548078,-0.022187402,-0.018189486,0.02836276,-0.010424298,-0.0023451154,0.0015870045,0.0,-0.03381598,-0.008401366,0.028791795,0.0,-0.024021903,0.02414271,0.0052851127,0.002136426,-0.010808075,-0.02538398,-0.019804886,-0.08467149,-0.023731008,-0.02814599,0.026752498,0.030440412,0.04363018,-0.022650044,0.010344539,-0.023265177,-0.026849136,0.04430146,-0.00061581715,0.018020744,0.0017301526,0.0,-0.041968744,0.015251164,-0.0051133987,-0.00085251936,0.030862398,0.004982808,-0.02484252
23,-0.0285626,0.010148868,-0.050877962,0.032578412,0.03169031,0.0024950746,0.025262848,0.02590598,0.010998694,0.0025856732,-0.022158135,-0.018154979,0.027870966,-0.010834348,-0.0019478397,0.0019746618,0.0,-0.03388284,-0.00786325,0.030254865,0.0,-0.024076473,0.024474243,0.005441281,0.001839821,-0.010754475,-0.025086224,-0.01980685,-0.08538074,-0.02380053,-0.027905997,0.026699085,0.030413384,0.04400572,-0.022598831,0.009384403,-0.023587264,-0.02668918,0.04510577,-0.0010229441,0.018565502,0.0017186075,0.0,-0.041764848,0.015982898,-0.0048381286,0.00039781278,0.03080573,0.0057317456,-0.025203891
24,-0.028682502,0.010760491,-0.051836226,0.033780675,0.031682108,0.0016382947,0.025511958,0.026235487,0.010765457,0.0031989866,-0.021759596,-0.01806495,0.027969886,-0.010264333,-0.0016769582,0.0026615842,0.0,-0.033866383,-0.008543674,0.030565988,0.0,-0.024068128,0.025269803,0.0056225783,0.0023455825,-0.010949633,-0.0246697,-0.019819707,-0.08568552,-0.023266437,-0.027966633,0.02696685,0.03041306,0.04318108,-0.022454865,0.009888509,-0.023565857,-0.02676838,0.042461947,-0.0016154347,0.018688548,0.001679677,0.0,-0.041970722,0.0158909,-0.0039371117,-0.00025310667,0.030702915,0.0063493056,-0.025544139
25,-0.02823276,0.011267327,-0.052374914,0.0337485,0.031787105,0.002637342,0.025689023,0.026852883,0.011498566,0.003964493,-0.021346208,-0.018226486,0.027523644,-0.010104557,-0.0014068065,0.0025180567,3.4532888e-05,-0.033863813,-0.008714694,0.031832702,-0.0008578815,-0.024120353,0.025217898,0.005533826,0.002761403,-0.011190765,-0.024380818,-0.019831035,-0.08542837,-0.023876963,-0.027786298,0.026911736,0.030397514,0.04405734,-0.022664221,0.0,-0.023626192,-0.027337397,0.041669637,-0.0011255057,0.018882124,0.0016487242,-0.00021085808,-0.042279873,0.015841555,-0.0032969438,0.00048519298,0.030778866,0.0069901235,-0.02552832
26,-0.028531807,0.01088265,-0.052619837,0.034631696,0.031795956,0.003949237,0.02567824,0.026548894,0.011140812,0.0052164225,-0.02142858,-0.018260732,0.027122024,-0.009968746,-0.0004179359,0.002768374,-2.2599106e-06,-0.033862725,-0.008220168,0.032767754,-0.00053909584,-0.024193926,0.025209304,0.005695323,0.0037779543,-0.011381047,-0.023906516,-0.019857137,-0.085516065,-0.023389434,-0.02766031,0.027037563,0.030377122,0.044027742,-0.022386242,0.0,-0.023511736,-0.027575146,0.041387603,-4.693056e-05,0.01858659,0.001591959,-0.00026068746,-0.042248264,0.015828121,-0.0021083723,-0.0005923023,0.030776508,0.0076253703,-0.02576421
27,-0.029450975,0.011795,-0.053366147,0.034596227,0.03176784,0.00354739,0.025933042,0.026422333,0.009970244,0.0054721646,-0.021526884,-0.01835718,0.026397575,-0.010242576,-0.00017325136,0.0027009104,-7.550855e-06,-0.033917617,-0.00742062,0.03206288,-0.0007601711,-0.02411471,0.025827726,0.0061283945,0.0030416267,-0.011868118,-0.024025755,-0.01986358,-0.08547897,-0.023563527,-0.027597262,0.0271394,0.030372107,0.043500356,-0.022373838,0.0,-0.023712141,-0.027902875,0.042994596,-0.00036211833,0.01799825,0.0015662378,-0.00017870532,-0.04268405,0.015841538,-0.0021607724,5.9600075e-05,0.030622365,0.007683347,-0.025901679
28,-0.028946327,0.011738913,-0.05430442,0.034549654,0.03186479,0.0032423579,0.026039178,0.026897807,0.010125604,0.0054379767,-0.021194909,-0.018436857,0.025164139,-0.009585447,-0.00024069712,0.0029733717,2.2267137e-05,-0.03393376,-0.0076519735,0.032907046,-4.0139843e-05,-0.024070298,0.026298584,0.0059859925,0.0033660915,-0.012565883,-0.023946995,-0.019872786,-0.08559592,-0.024932437,-0.027410256,0.027189033,0.030358186,0.045139898,-0.022532627,0.0,-0.023590345,-0.028026726,0.04239105,-0.00071656855,0.018143544,0.0015293463,-0.0005749505,-0.04304809,0.016401285,-0.001505447,-0.0007037922,0.030426653,0.007305996,-0.026144642
29,-0.029938195,0.011660547,-0.054344814,0.034499735,0.032175478,0.0031591668,0.026137616,0.027208338,0.010337336,0.0054573203,-0.020758212,-0.018219149,0.024203818,-0.009501119,-2.0302177e-05,0.0024459888,-1.4181342e-05,-0.033958778,-0.00742553,0.034652658,-0.0001576541,-0.024226774,0.026720367,0.0061836243,0.0022681758,-0.012347022,-0.02388317,-0.019865239,-0.087445706,-0.024904815,-0.027502572,0.027333219,0.030376025,0.04436156,-0.022473522,0.0,-0.023230074,-0.02812523,0.04161118,-0.0007308483,0.019175336,0.0015333844,-0.00035814435,-0.042282917,0.016874414,-0.002138072,7.363582e-05,0.030249037,0.007930333,-0.026097441
30,-0.030368995,0.011655507,-0.054771863,0.034717694,0.03189681,0.0039004916,0.02606012,0.027460169,0.00977391,0.0052809147,-0.020661468,-0.018315835,0.023984179,-0.009887869,-3.720309e-05,0.0033275834,1.1588259e-05,-0.03404709,-0.006716625,0.03357056,-0.00091383234,-0.024229247,0.02609324,0.006468045,0.0017625191,-0.013427646,-0.024232091,-0.019880466,-0.08788541,-0.024591688,-0.027213072,0.027694123,0.030339222,0.043507308,-0.02241596,-0.0003925361,-0.023037316,-0.027777918,0.03926268,-0.00011238785,0.019309316,0.0015293323,-0.000103699036,-0.04223039,0.017349673,-0.0007392994,9.218363e-05,0.030153032,0.008728703,-0.026561163
31,-0.029663116,0.012207556,-0.056937188,0.03430967,0.03190735,0.0044299574,0.026109967,0.027546547,0.009023393,0.0054153274,-0.020447982,-0.018353788,0.024081128,-0.009231009,-0.00014204277,0.0040771277,1.4523446e-06,-0.034134164,-0.006334106,0.03653957,-0.001887853,-0.024279777,0.026325025,0.006177425,0.0025358445,-0.013660012,-0.022786783,-0.019888919,-0.08830599,-0.024906892,-0.027085472,0.02708742,0.030333545,0.04401055,-0.022278385,-7.427941e-05,-0.023054373,-0.028078128,0.040727675,-0.00010774457,0.01973905,0.0015655531,0.0002107392,-0.04158833,0.01789304,-0.00024108103,-0.0008288517,0.03006221,0.008834118,-0.027370267
32,-0.030955452,0.012411827,-0.056669835,0.033414457,0.031969488,0.004447591,0.026035763,0.027046293,0.009705722,0.0046350616,-0.020186758,-0.018279586,0.023621611,-0.009542538,3.5698584e-05,0.0037439321,2.5552818e-05,-0.03429558,-0.0072786966,0.038379654,-0.0018789088,-0.024212878,0.026059857,0.006359206,0.0021605268,-0.013629141,-0.022065237,-0.019896474,-0.087472305,-0.025671605,-0.02703506,0.027414318,0.030338721,0.044106927,-0.022382267,-0.0011154155,-0.022738138,-0.02865133,0.039026465,-0.00022040535,0.019694358,0.0015381643,-0.0001438396,-0.041013304,0.018760413,0.00012704392,-7.723621e-05,0.03004048,0.009229763,-0.027560003
33,-0.031518955,0.013991259,-0.057136316,0.034173444,0.031621113,0.0049282094,0.026109695,0.027319942,0.008463337,0.0053341947,-0.019641474,-0.0183262,0.024104036,-0.01019524,0.0006236387,0.0041818307,-2.0157024e-05,-0.034408703,-0.0065244217,0.03854916,-0.001183832,-0.024114924,0.026653782,0.0068633137,0.0024576464,-0.014103666,-0.021947991,-0.01992587,-0.08868265,-0.026927397,-0.026800837,0.027630009,0.03036731,0.044010736,-0.022453452,0.00040062674,-0.02320265,-0.028769383,0.039666466,1.1725395e-05,0.020463351,0.0015318712,-0.000100918616,-0.04057742,0.019187056,0.00095590693,1.8788851e-06,0.03000538,0.009335086,-0.027558673
34,-0.033125304,0.014642717,-0.057065383,0.034065485,0.03155097,0.005388637,0.026237266,0.027210413,0.008298272,0.0054247337,-0.019874021,-0.01825835,0.023152838,-0.009283489,0.001063793,0.0037599825,3.559693e-05,-0.03460696,-0.0058856243,0.03932135,-0.00085035677,-0.02408861,0.026813554,0.0069545414,0.002569857,-0.013723886,-0.021076154,-0.019949611,-0.08861322,-0.027906597,-0.02690848,0.028134104,0.030350931,0.044763524,-0.022274073,0.0004659294,-0.023134165,-0.029848631,0.039433338,-0.00045260516,0.020981465,0.0015024906,-0.000120585115,-0.039947778,0.019131081,0.0011309155,0.000329362,0.029881442,0.009749087,-0.028112985
35,-0.03335004,0.015303663,-0.05849074,0.03321246,0.03163756,0.0063051726,0.026148116,0.027595486,0.008386368,0.0050353915,-0.019098531,-0.018199816,0.023821315,-0.007633483,0.00048272617,0.004773171,-7.593593e-06,-0.034790833,-0.005911272,0.03886832,-0.0011351154,-0.024213763,0.027079955,0.007004395,0.0026644329,-0.013910707,-0.020097781,-0.019983709,-0.089453295,-0.029067159,-0.026795212,0.028029453,0.030341007,0.044982173,-0.02229617,0.00029362857,-0.023049423,-0.029586902,0.0,-0.00011698848,0.021570174,0.0014877694,0.0004590946,-0.040502533,0.019573903,0.0014549897,0.0027658201,0.029850483,0.009717549,-0.028406661
36,-0.033290092,0.015890975,-0.05871004,0.033142395,0.03203407,0.007351059,0.026174836,0.028421914,0.007742245,0.0055741966,-0.018709311,-0.018039867,0.023024889,-0.0064831274,0.0007669309,0.0059776916,-3.7066056e-06,-0.03487408,-0.0055563133,0.039615102,-0.00037546022,-0.024174538,0.026302408,0.00718002,0.0025762348,-0.013508109,-0.019432476,-0.020006672,-0.08944138,-0.027622182,-0.02626659,0.028174631,0.030334767,0.044760577,-0.022064675,0.00026477265,-0.023064036,-0.03005143,0.0,0.00020464414,0.021947443,0.0014672627,0.0006994927,-0.04053737,0.018888984,0.0023192836,0.001797604,0.029843984,0.010520509,-0.028644148
37,-0.03325999,0.01567581,-0.058248077,0.03280606,0.03181793,0.007843024,0.0263854,0.02776663,0.00720641,0.0058240592,-0.018674418,-0.018183367,0.022292782,-0.005673807,0.0010166614,0.0064204186,-3.8235696e-05,-0.034954857,-0.0055670445,0.03839734,-0.0016898726,-0.02418567,0.026363693,0.006996057,0.001977768,-0.01316963,-0.018642053,-0.020005578,-0.08938743,-0.028792186,-0.026306108,0.028271167,0.030358355,0.044761196,-0.022191662,-0.0002868069,-0.022793107,-0.030562982,0.0,4.1303916e-05,0.022242447,0.0014285988,0.00030211543,-0.040052574,0.019260187,0.0033957337,0.0019314163,0.029731909,0.010363309,-0.028822929
38,-0.03577427,0.014607771,-0.05865566,0.033229478,0.031782653,0.007110144,0.026623273,0.028361946,0.0062493323,0.0057280404,-0.018587705,-0.018330997,0.021744676,-0.0066451095,0.0013220261,0.0060750428,-1.180793e-05,-0.03532042,-0.0053943656,0.039304845,-0.0021565703,-0.024362901,0.026720822,0.007115665,0.0011323635,-0.01354862,-0.018483475,-0.020024471,-0.08926338,-0.029819777,-0.026480218,0.028596427,0.030369252,0.045796216,-0.022171637,-0.0023447678,-0.022111088,-0.030563487,0.0,-0.0007605491,0.022378976,0.00142305,0.00024287173,-0.040675644,0.019940343,0.0035143504,0.0032292553,0.02980841,0.01123338,-0.028672937
39,-0.035674293,0.015519626,-0.0581522,0.033376,0.03183502,0.008236659,0.02668633,0.028932234,0.008453032,0.0059353667,-0.018361412,-0.01822935,0.021263888,-0.0067519885,0.0019776132,0.00636211,-1.5730937e-05,-0.035261083,-0.004961338,0.039846748,-0.0032882052,-0.024363264,0.026552957,0.007193555,0.001701074,-0.013460215,-0.017326571,-0.020044291,-0.089053094,-0.031866856,-0.02666039,0.028698387,0.030408628,0.04626541,-0.022177922,-0.0016683608,-0.021609098,-0.03015227,0.0,-0.0005659733,0.022287719,0.0013908444,0.0007647081,-0.04051236,0.020452745,0.0042074407,0.0030431256,0.029646788,0.011553463,-0.028930943
40,-0.036948573,0.016020857,-0.05930783,0.034467533,0.032112956,0.00923292,0.02671288,0.029245157,0.008213526,0.005293234,-0.017864004,-0.0182528,0.020847002,-0.0058742263,0.0024014777,0.006466447,-4.3256572e-05,-0.035019305,0.0,0.039400943,-0.0030493229,0.0,0.027006146,0.007483674,0.0008681959,-0.012857218,-0.016081622,-0.020072315,-0.09016963,-0.033451438,-0.026596561,0.029055428,0.030404883,0.047792498,-0.02224204,-0.0027066576,-0.021728981,-0.030326407,0.0010303888,-0.0009838174,0.021956585,0.0014263224,0.0012040314,-0.04013642,0.020586353,0.004473011,0.0032389418,0.02961119,0.011600637,-0.02869021
41,-0.036537006,0.015691288,-0.060041495,0.03375693,0.031966098,0.009934961,0.026562061,0.029581465,0.008542062,0.0061352076,-0.017282229,-0.018107554,0.021463599,-0.004267392,0.0018773768,0.006597801,5.5319913e-05,-0.035002746,0.0,0.04133493,-0.0040324857,0.0,0.027310971,0.0074287523,0.0012148761,-0.013111897,-0.014513046,-0.020083616,-0.09055747,-0.035645224,-0.026717493,0.02904325,0.030417718,0.047968052,-0.022459477,-0.0016608038,-0.021962276,-0.030715981,0.0021619885,-0.0012929377,0.021101933,0.0014750492,0.0011460048,-0.041010037,0.019469224,0.00471826,0.003910607,0.029526714,0.011931877,-0.028484326
42,-0.03587889,0.015064072,-0.060962085,0.032556094,0.031930055,0.00960212,0.026406355,0.029736988,0.009202601,0.0060268077,-0.016724199,-0.018262181,0.0205633,-0.0043610823,0.0018432641,0.005690027,8.173866e-05,-0.03494887,0.0,0.041053236,-0.0032080186,0.0,0.02752123,0.00721097,0.0008566453,-0.012885532,-0.014505851,-0.020093355,-0.08894646,-0.035532117,-0.026730077,0.028679905,0.030420806,0.04871493,-0.022375118,-0.001495557,-0.021562792,-0.031249344,0.00035837904,-0.0014546206,0.019892858,0.0014593297,0.0007476098,-0.040838428,0.0195168,0.0054266937,0.0023346795,0.029418396,0.011703031,-0.028739665
43,-0.034880396,0.016056418,-0.061087936,0.032173503,0.031281658,0.010535441,0.026532067,0.029475167,0.009644053,0.0071962383,-0.016169889,-0.018241879,0.020251418,-0.004359753,0.0021039334,0.0062398007,-2.769169e-05,-0.03489334,0.0,0.04262264,-0.0027008576,0.0,0.028110644,0.0072205253,0.0001536927,-0.012567684,-0.014327455,-0.020073617,-0.089391105,-0.036236286,-0.026482068,0.028742034,0.030409472,0.04893659,-0.022358377,-0.001449888,-0.021175424,-0.031273812,0.0011015652,-0.0016058957,0.019946113,0.0014224648,0.00011731325,-0.03984602,0.01905192,0.004896865,0.0033632156,0.029332263,0.011551468,-0.028449502
44,-0.036220476,0.01619675,-0.06105125,0.031892173,0.03144612,0.010913534,0.026843682,0.029659243,0.009576056,0.008198372,-0.016932702,-0.018376127,0.019521935,-0.0041549304,0.002330974,0.0060165045,-7.524075e-06,-0.035137407,0.0,0.04206098,-0.0042886576,0.0,0.029675454,0.0076796347,0.00032309617,-0.013767183,-0.0123272,-0.020093208,-0.089787856,-0.036458597,-0.026548844,0.029176699,0.03039752,0.049387306,-0.022195771,-0.0029352708,-0.021421937,-0.031383134,0.003027913,-0.0021762322,0.019031217,0.001388748,0.00022511632,-0.039530694,0.01821385,0.0047457977,0.0034420362,0.029219111,0.012171853,-0.029126242
45,-0.035817377,0.01691717,-0.06097391,0.03343379,0.031206008,0.011780066,0.027274722,0.029671272,0.008432817,0.0088861585,-0.016330624,-0.018323647,0.020040374,-0.005877449,0.0015058668,0.0057286387,3.8599825e-05,-0.03543052,-0.000108524044,0.044787657,-0.004703355,-0.00023639017,0.029774245,0.008059573,9.112683e-05,-0.013360119,-0.012191878,-0.020104371,-0.08916251,-0.03840421,-0.02670274,0.028961696,0.030381601,0.049836393,-0.022162082,-0.0008983936,-0.021412844,-0.031118587,0.0031354672,-0.003018416,0.019645676,0.001439805,0.0,-0.03896349,0.017879033,0.005941778,0.0032822974,0.029230729,0.011583449,-0.02926239
46,-0.037988838,0.016515125,-0.060792208,0.034303986,0.03084541,0.010723151,0.027677238,0.02928455,0.009171996,0.0093440795,-0.015968818,-0.01821707,0.019800635,-0.004684644,0.0019313032,0.006033767,1.5663478e-05,-0.035441153,0.00022892246,0.045910425,-0.004283822,-0.0004130971,0.030463722,0.008146746,-0.0004846537,-0.013458623,-0.011699204,-0.020105015,-0.08964471,-0.03823874,-0.026704552,0.028567567,0.03038118,0.04991329,-0.022484964,-0.0011480751,-0.021183651,-0.03184437,0.00478413,-0.002871695,0.019283729,0.0013761418,0.0,-0.038953155,0.017992327,0.006129755,0.0029795566,0.029357247,0.011927467,-0.029419594
47,-0.039006896,0.016627837,-0.061686907,0.032832578,0.03106378,0.0111467205,0.027556876,0.029664483,0.009665872,0.008700454,-0.015501875,-0.018242612,0.019443033,-0.006279642,0.0015541881,0.005922059,0.00010138584,-0.0355815,0.00056831376,0.047398083,-0.0047676084,-0.0004265881,0.03041696,0.007877843,-0.00033488398,-0.014102332,-0.009647747,-0.020100579,-0.088742234,-0.039312355,-0.026760926,0.028708009,0.030360762,0.050270647,-0.022477202,-0.000602401,-0.020943994,-0.032273676,0.0053856145,-0.003437187,0.01877637,0.0013515546,0.0,-0.039274246,0.018038908,0.0068391794,0.0020500203,0.029331615,0.011830542,-0.029876934
48,-0.037797295,0.017735789,-0.06162784,0.031759847,0.030768588,0.012734611,0.027954323,0.029485093,0.009152752,0.009118048,-0.014818308,-0.01822669,0.01972739,-0.005804228,0.0018183991,0.0060643326,0.00018131988,-0.03574438,0.00026092195,0.046985425,-0.0036018472,-0.00050520804,0.029164571,0.008625971,0.00060143956,-0.014527466,-0.009861261,-0.020065207,-0.089561224,-0.040011704,-0.026783448,0.028740881,0.030386148,0.0506182,-0.022392696,7.502327e-06,-0.021267965,-0.031990163,0.0061204103,-0.003340731,0.019169893,0.0013415035,0.0,-0.038295086,0.018267112,0.0071756914,0.0021575475,0.029390339,0.012196545,-0.029719733
49,-0.03699038,0.019653443,-0.061629537,0.032007363,0.03120219,0.013281121,0.02768889,0.03070283,0.009260465,0.009366848,-0.014187066,-0.018326383,0.019127129,-0.0060739936,0.0017223365,0.006133357,0.00017650465,-0.03589352,0.0009195603,0.047183484,-0.004811339,-0.00042674903,0.030164208,0.008722683,0.00012660293,-0.014548101,-0.009095184,-0.020066425,-0.089538656,-0.041166123,-0.026789414,0.02818429,0.030369643,0.05064952,-0.022648463,0.00040300953,-0.02100406,-0.031600885,0.0065989937,-0.0033964827,0.02068594,0.0013827924,0.0,-0.038178798,0.018758671,0.0077127987,0.0025564185,0.029568732,0.012451196,-0.029818218
50,-0.037694983,0.01877157,-0.06237743,0.032116443,0.031108137,0.013985142,0.027356265,0.03133686,0.009501952,0.009148907,-0.013591723,-0.018415878,0.018588556,-0.005458465,0.0021731404,0.0066532823,0.00019255064,-0.0359192,4.4198416e-05,0.045783326,-0.004305167,-0.00040716343,0.030355496,0.008411372,-0.0014609445,-0.014669586,-0.008427947,-0.020054962,-0.09002553,-0.043596935,-0.026714487,0.028070122,0.030377757,0.051948126,0.0,-0.0006122188,-0.02085161,-0.031557843,0.0052359616,-0.0031507867,0.021279793,0.0015046826,0.00022796815,0.0,0.018738119,0.0075510466,0.0039004614,0.029518355,0.012834356,-0.030359434
51,-0.03651864,0.017914174,-0.062655464,0.03134342,0.031227915,0.014511141,0.027688487,0.031548463,0.010745032,0.009491725,-0.012876191,-0.018771948,0.017929435,-0.004755685,0.0017276462,0.005370221,0.00019600042,-0.03620498,-2.4191278e-05,0.047779355,-0.0047541745,-0.00034750986,0.030108973,0.008484783,-0.00087581266,-0.015155891,-0.007219853,-0.020075731,-0.08917917,-0.045238364,-0.02677501,0.027865183,0.030439684,0.051785633,0.0,0.0006746649,-0.021420158,-0.03195028,0.0066355113,-0.002761568,0.020649796,0.0013266734,0.00013597011,0.0,0.018057352,0.008158543,0.0051129214,0.029489376,0.01254795,-0.030956347
52,-0.035217687,0.01793702,-0.062355787,0.030704783,0.031386655,0.013812054,0.027338738,0.032355495,0.010726662,0.008912681,-0.012841747,-0.01849415,0.017189149,-0.0046124225,0.001835301,0.005299671,0.00020369558,-0.036182784,-0.00041422233,0.050546363,-0.0047368286,-0.00046310798,0.029922264,0.008613127,-0.0007550932,-0.014812147,-0.00652931,-0.020050265,-0.090926856,-0.046701085,-0.026753567,0.028382327,0.030413212,0.053114127,0.0,0.0014549844,-0.02156448,-0.031974055,0.0075666155,-0.0028099727,0.021531839,0.0013544462,0.00080101634,0.0,0.01840698,0.007757006,0.0054033054,0.029515538,0.0130358,-0.03087048
53,-0.03657519,0.018326407,-0.06340087,0.031040208,0.0314238,0.013005341,0.027028074,0.032688167,0.011843407,0.008971266,-0.012367059,-0.01824108,0.017173687,-0.004296749,0.0020111518,0.0048156213,0.00019849165,-0.036427952,-0.0006215198,0.051066317,-0.003907603,-0.0004090826,0.02953861,0.009131053,-0.0009510097,-0.015704421,-0.006570295,-0.02007908,-0.09185392,-0.046872526,-0.026445063,0.028706128,0.030373506,0.052041203,0.0,0.00042113828,-0.021140942,-0.03298804,0.0074519487,-0.002610411,0.02112784,0.0012912587,0.0010183855,0.0,0.017266875,0.0088515,0.004140733,0.029663105,0.011859051,-0.031024458
54,-0.038648155,0.020015746,-0.064295046,0.031974073,0.031096129,0.014155984,0.027247839,0.032499928,0.0113388,0.009491121,-0.012337912,-0.018826615,0.016364112,-0.0051984075,0.0017524471,0.004111384,0.00023318414,-0.036431625,-0.0010747043,0.05078762,-0.0028635785,-0.00031336636,0.028517915,0.009539975,0.0003685602,-0.0157919,-0.004126167,-0.02007477,-0.092073485,-0.048074536,-0.026267553,0.028282098,0.030391613,0.053105883,0.0,0.0007999328,-0.020912508,-0.032707885,0.011205023,-0.0033151992,0.022161577,0.0012349688,0.0013084158,0.0,0.017440166,0.0075854454,0.0045521655,0.02955511,0.013058811,-0.03142137
55,-0.040271044,0.02048308,-0.063063465,0.032154866,0.03146748,0.013265929,0.02761265,0.03307593,0.01046626,0.009768557,-0.012616763,-0.018408671,0.015424727,-0.0031705252,0.0027343715,0.0039245198,0.00015247171,-0.036574334,-0.0010871112,0.05273929,-0.0016838924,-0.00028541122,0.029222112,0.009155161,0.0003893274,-0.01593356,-0.0024966348,-0.020081587,-0.092066154,-0.04941135,-0.026232362,0.027691346,0.030410869,0.053211354,0.00014246808,-0.0016912151,-0.021075156,-0.03300679,0.011945103,-0.0045665842,0.021305658,0.0011208195,0.0014676275,0.0010540397,0.017331533,0.009596164,0.004137134,0.029441684,0.0138054285,-0.03169255
56,-0.04100819,0.021272577,-0.0627906,0.03228159,0.031835012,0.015359448,0.027164599,0.033956148,0.010594049,0.010546153,-0.012061806,-0.01835383,0.015975442,-0.003649794,0.002526143,0.0041651567,0.00023326025,-0.036625266,-0.00046333054,0.05024273,-0.0015198004,-0.0003347227,0.028322596,0.009283138,-0.0010874596,-0.015401555,-0.0018784053,-0.020047918,-0.092317,-0.051049322,-0.026320532,0.027423205,0.03043254,0.05367822,0.0005929815,-0.0028755942,-0.02109196,-0.033603854,0.0109961415,-0.0039881566,0.020245224,0.0012244467,0.001314546,0.002247376,0.017467532,0.010305276,0.0049820254,0.02963168,0.013890851,-0.031145912
57,-0.0419989,0.02014905,-0.06303421,0.031794082,0.03189826,0.014226964,0.027172647,0.03394448,0.010088941,0.011169644,-0.011831036,-0.018885512,0.016300501,-0.0013510026,0.0031202491,0.0048274365,0.000252253,-0.036683135,-0.0013906675,0.050945908,-0.0021002407,-0.00044344002,0.029739313,0.009784458,-0.0020031051,-0.014904882,-0.0012986275,-0.02008151,-0.09250048,-0.04897798,-0.026488818,0.027750766,0.030402916,0.05391335,0.00035432866,-0.0035088672,-0.021351676,-0.03340734,0.008663693,-0.004632415,0.019740637,0.0011177174,0.00147536,0.0014917135,0.017814051,0.010265813,0.0032854627,0.029512608,0.013079004,-0.031019598
58,-0.041674487,0.019960383,-0.0641385,0.031606786,0.031556685,0.014410479,0.027824512,0.03459193,0.010453037,0.011900028,-0.011787638,-0.018678749,0.015479315,-0.0041439384,0.003269887,0.0040478082,0.00023090481,-0.03689746,-0.00140835,0.052014872,-0.0019595318,-0.00029455102,0.0297459,0.0098628085,-0.0023272163,-0.014474125,-0.00095311634,-0.020136418,-0.09295405,-0.05015871,-0.02662665,0.02740835,0.030430641,0.05400908,0.00077299005,-0.0013002964,-0.021533994,-0.033345215,0.012648915,-0.0043035788,0.020864537,0.0013206056,0.0019584165,7.4274416e-05,0.01817097,0.0111947125,0.0037473855,0.029523116,0.013699576,-0.031381607
59,-0.04337991,0.019434426,-0.065025054,0.03134802,0.031475063,0.015548209,0.0276857,0.035032436,0.01094673,0.011216639,-0.011250743,-0.018628186,0.014852743,-0.0052212626,0.0027325624,0.004665879,0.0002711034,-0.037163366,-0.001272132,0.048626177,-0.0029499147,-0.00024427316,0.03002322,0.010222794,-0.0018731855,-0.0147318635,-0.0015552685,-0.020107396,-0.092910685,-0.051197134,-0.026580347,0.027598199,0.030462332,0.05395996,0.0010078476,-0.004676948,-0.02156064,-0.032735944,0.013540188,-0.00407862,0.020638838,0.0013121559,0.0018107472,1.2229721e-05,0.019193765,0.010406626,0.004042254,0.02921693,0.014389955,-0.03225351
60,-0.041655768,0.019424994,-0.06646823,0.03119749,0.03141984,0.01711124,0.027236106,0.035373695,0.011308812,0.0111684315,-0.010964464,-0.019017946,0.014599817,-0.0028817418,0.0028433548,0.005155134,0.00044066837,-0.037291847,-0.00022663221,0.052004766,-0.003236054,-0.00015839815,0.02989694,0.0097457245,-0.0021150948,-0.0149727,0.00049564306,-0.020102281,-0.09195799,-0.0500971,-0.026670465,0.027353695,0.0,0.055583037,0.0010889051,-0.0046327356,-0.021631762,-0.03260813,0.013162345,-0.0036907392,0.02218974,0.0012785508,0.0022652978,0.0,0.019226115,0.010242267,0.004005286,0.029074807,0.01463185,-0.032094266
61,-0.04091124,0.019084115,-0.065301985,0.032425955,0.03173238,0.015725195,0.027740747,0.03544,0.011857949,0.010986733,-0.010415499,-0.018611416,0.0146627845,-0.002810823,0.0026595455,0.0057606935,0.00044129882,-0.037485607,-0.00023822108,0.055139996,-0.0010221708,-3.3862256e-05,0.03018877,0.010384872,-0.0024399012,-0.0146787595,0.0009437072,-0.02005647,-0.091957115,-0.050241597,-0.02667059,0.027564712,0.0,0.055141512,0.00067044026,-0.0028776133,-0.021697521,-0.032522246,0.009413811,-0.0040081097,0.021025201,0.0012095658,0.0017224392,0.0,0.01783736,0.011295945,0.003997114,0.028998189,0.014632717,-0.03217631
62,-0.04053042,0.020146817,-0.0653197,0.0322998,0.032112055,0.016294623,0.027338933,0.03532503,0.010314507,0.011392607,-0.008958648,-0.01814039,0.0142251365,-0.002021508,0.002937561,0.0052104336,0.000410587,-0.03777053,-0.0004068078,0.05495246,-0.0012356783,-4.311953e-05,0.029499955,0.010838769,-0.0022929413,-0.014745687,0.0013895435,-0.02006462,-0.09189609,-0.050491434,-0.026695358,0.027721278,0.0,0.05568926,0.0008932165,-0.0033722331,-0.021616193,-0.032441173,0.011143103,-0.004565135,0.02292491,0.0014198534,0.0019008068,0.0,0.01685582,0.011266107,0.004458737,0.029065697,0.014461662,-0.032198954
63,-0.04093115,0.019471347,-0.06678677,0.032274105,0.03181459,0.016936125,0.027026465,0.03545916,0.011349218,0.011411911,-0.009583877,-0.018116264,0.012765513,-0.0031645806,0.0014782574,0.0047039427,0.00050894916,-0.038059205,2.5176007e-05,0.053281642,-0.0017294247,-1.8785857e-05,0.03030681,0.010573698,-0.0027919367,-0.015567682,0.00032366815,-0.020086346,-0.091562964,-0.052218325,-0.026741533,0.02796193,0.0,0.05583701,0.0009383155,-0.0023684255,-0.021458361,-0.032368127,0.009085931,-0.0041320426,0.022400832,0.001331391,0.002458466,0.0,0.01789416,0.010576706,0.0050886027,0.029003719,0.014923801,-0.032100365
64,-0.04123161,0.01986538,-0.067014344,0.03220397,0.03165415,0.017180122,0.027389253,0.035312034,0.011306542,0.010671519,-0.0099325385,-0.018265806,0.013088211,-0.0046396246,0.0014791285,0.0036731155,0.0005874243,-0.03787325,-0.0006798075,0.05472773,-0.0015688406,-7.2585644e-05,0.03030596,0.010463534,-0.0034416895,-0.015489278,0.0013966204,-0.020099105,-0.091817446,-0.053543918,-0.026605763,0.027988888,0.0,0.056393806,0.0007673074,-0.0040351236,-0.021568203,-0.032758255,0.011803176,-0.004074938,0.021813741,0.0013781507,0.0019098704,0.0,0.017342664,0.011352136,0.0045580296,0.028925464,0.015531365,-0.032832198
65,-0.03956344,0.02025556,-0.066370875,0.0,0.03186616,0.017204745,0.027796917,0.035838164,0.011529053,0.012035748,-0.009384649,-0.018331768,0.01425451,-0.0037876368,0.002259944,0.004134935,0.00062840263,-0.03776881,-0.0015934237,0.05272672,0.0,0.0,0.030072382,0.010622555,-0.0040831016,-0.015415876,0.0014292335,-0.020113157,-0.09242646,-0.053864475,-0.026517838,0.027576035,3.6984864e-05,0.057047013,0.00064302125,-0.0036582814,-0.020760389,-0.032655414,0.01202661,-0.0037199995,0.022459032,0.0014549023,0.0016752359,0.0009270601,0.0,0.011517008,0.005884389,0.028872192,0.016272875,-0.033185754
66,-0.040299986,0.020763462,-0.06889312,0.0,0.031607345,0.017940689,0.026639856,0.03638036,0.012048917,0.013493335,-0.010376607,-0.018068437,0.012893186,-0.0015869755,0.0037811021,0.0045945067,0.0006464345,-0.03785354,-0.0014397632,0.057302505,0.0,0.0,0.029045248,0.01088544,-0.0040076263,-0.015692063,0.005573424,-0.020093981,-0.0917528,-0.05300814,-0.026338255,0.027173387,3.4171524e-06,0.05751381,0.0006797841,-0.0041462607,-0.02075626,-0.032587975,0.012329961,-0.0037461303,0.024039086,0.0011327126,0.0019006548,-0.0005437299,0.0,0.012295816,0.007031285,0.028568037,0.015980069,-0.033264913
67,-0.04121425,0.022353122,-0.06788174,0.0,0.031117167,0.01716038,0.026956256,0.03712492,0.012189703,0.0147168785,-0.009096267,-0.017800225,0.012105051,-0.0028054211,0.0037333318,0.004830245,0.0006770471,-0.03771348,-0.00094513776,0.056532368,0.0,0.0,0.029246585,0.011178734,-0.0035642225,-0.015802884,0.0069203414,-0.020088091,-0.091713734,-0.05403553,-0.026456073,0.027581124,8.341485e-06,0.05705836,0.00057483825,-0.0024006886,-0.021389455,-0.03267643,0.013581072,-0.0037230141,0.023946501,0.0009699304,0.002239746,0.0024849009,0.0,0.011924941,0.0074854884,0.02820605,0.015535318,-0.033249427
68,-0.041597493,0.021301337,-0.068627,0.0,0.031075954,0.016802622,0.027389642,0.037537202,0.013465228,0.013985978,-0.009229666,-0.017759893,0.013117795,-0.0034652352,0.0036455786,0.005390713,0.00063974306,-0.037923,-0.0013760268,0.056378845,0.0,0.0,0.030035319,0.011002455,-0.0033125696,-0.015904348,0.007869077,-0.020096863,-0.09158214,-0.053285934,-0.026463004,0.026992893,4.6918856e-05,0.057647232,0.00034771662,-0.0014154706,-0.021091063,-0.031895354,0.014925485,-0.003738975,0.024527006,0.0006481302,0.0025460932,0.0029462378,0.0,0.013123001,0.0070805047,0.028311577,0.016069163,-0.033643134
69,-0.041123144,0.02135623,-0.068748325,0.0,0.031624332,0.015321304,0.02733481,0.037171252,0.0130252745,0.014759147,-0.008878513,-0.018205266,0.012000721,-0.004470218,0.003126937,0.00452552,0.0006963849,-0.037856936,-0.001920111,0.05547948,0.0,0.0,0.029251786,0.011958747,-0.0048739575,-0.016113393,0.00720976,-0.020072566,-0.092512585,-0.05441558,-0.026737824,0.026855268,4.9129274e-05,0.05720154,0.00071145996,-0.0014093709,-0.020475063,-0.03212347,0.011103337,-0.0039490466,0.024150945,0.00069577416,0.0021824485,0.00048814245,0.0,0.01290103,0.0065564886,0.02822493,0.015552919,-0.0334562
70,-0.040916096,0.021538684,-0.06917634,0.0006559488,0.032504525,0.017961662,0.027785838,0.03795122,0.012294043,0.015474109,-0.008068297,0.0,0.010716023,-0.0046732356,0.00190147,0.0034983167,0.00060448796,-0.03816043,-0.0015553624,0.0572327,-0.000902349,-8.088783e-05,0.02905934,0.0122840125,-0.0050750636,-0.016166952,0.008541409,-0.020108245,-0.09350361,-0.05767895,-0.026927384,0.026526937,3.2383636e-05,0.058215227,0.00032662874,0.0,-0.020587448,-0.032965664,0.01611083,-0.004334622,0.024389265,0.0005894918,0.0030828048,-0.00076495286,0.00072763255,0.013704421,0.0064528016,0.028137654,0.015437178,-0.033333186
71,-0.040346365,0.020450508,-0.06838074,0.0005833453,0.032555874,0.01781517,0.028127523,0.038577795,0.012375783,0.015881471,-0.007402369,0.0,0.010650482,-0.0038000518,0.001636494,0.00400615,0.00047386118,-0.03820885,-0.0019433948,0.058356553,-0.002039924,-0.00010688007,0.029120294,0.011733695,-0.0053869616,-0.015888605,0.009064562,-0.020125529,-0.092869796,-0.056936122,-0.026708722,0.025154132,5.7170557e-05,0.05866903,0.0005788399,0.0,-0.021129142,-0.032803293,0.017952241,-0.0042229323,0.024308395,0.00068846415,0.002418952,0.0021637522,0.0015478383,0.014889121,0.0046578823,0.028089145,0.015513913,-0.034362156
72,-0.04174893,0.020684648,-0.070350744,6.225804e-06,0.03250016,0.017563846,0.027725438,0.03898698,0.013217419,0.0152415205,-0.0070048366,0.0,0.011063773,-0.0029541482,0.0027126826,0.0038832568,0.00054849545,-0.038451996,-0.0027366974,0.057449937,-0.002541995,-6.111963e-05,0.028870108,0.011496498,-0.005726033,-0.015731134,0.009289039,-0.020165622,-0.09420346,-0.05550414,-0.026642425,0.025278997,9.7294076e-05,0.058673516,0.00068812276,0.0,-0.020821977,-0.032667775,0.01704821,-0.004233696,0.024786638,0.00050663616,0.002742568,0.0015182374,0.0014898708,0.014980465,0.0068779583,0.028215455,0.015973765,-0.034399867
73,-0.04113598,0.021320358,-0.07106068,7.6285854e-05,0.032631215,0.019122379,0.027446236,0.03912037,0.013079744,0.015665568,-0.0065893643,0.0,0.010796726,-0.0033012272,0.0019788137,0.0035415776,0.00024160842,-0.03835182,-0.0034077715,0.06031225,-0.00071243115,-8.790601e-06,0.029404527,0.0112525765,-0.0056826496,-0.016213834,0.008164987,-0.020135667,-0.09237586,-0.053716093,-0.026517257,0.025894176,9.486633e-05,0.059160966,0.0007480509,0.0,-0.02111026,-0.032418516,0.016168991,-0.0041330205,0.026576143,0.0005078401,0.0026485042,0.0033369544,0.0010555267,0.015398076,0.0046954136,0.028064856,0.015807277,-0.03487337
74,-0.045119315,0.022392673,-0.070708975,0.0014006505,0.032380342,0.019448565,0.027864948,0.038516358,0.012514974,0.01650229,-0.005049701,0.0,0.010200193,-0.004442896,0.00220896,0.0044743726,0.00022513239,-0.03849971,-0.004056596,0.05929632,0.0005526869,-9.637245e-05,0.027674332,0.011846715,-0.006832254,-0.0165827,0.00593306,-0.020190977,-0.09234424,-0.05727683,-0.026856191,0.026023682,7.395078e-05,0.060402136,0.0008117326,0.0,-0.021685023,-0.03200049,0.015060824,-0.0043752585,0.026326058,0.0006080507,0.0029438806,0.0021855077,0.0006730199,0.01416561,0.004909079,0.028105237,0.015640778,-0.03387973
75,-0.04269433,0.023389839,-0.07199847,0.00170207,0.0,0.01887019,0.028658697,0.03843035,0.012842615,0.016596027,-0.0053957766,0.00018605018,0.010198418,-0.0048260046,0.0019465203,0.004348685,0.0,-0.03863219,-0.004321303,0.06246017,-0.0003446121,-7.695642e-05,0.027716476,0.012413793,-0.0061156284,-0.016403897,0.007310994,-0.02018847,-0.09173873,-0.05763066,-0.026726415,0.024722133,-1.3827496e-05,0.059686862,0.0009462303,-0.00046175637,-0.02172119,-0.031549174,0.019410882,-0.004174003,0.025754694,0.000790427,0.0034847981,0.0026478209,0.0014827084,0.012891786,0.0042413264,0.027956858,0.016955653,-0.034315865
76,-0.041534256,0.021680221,-0.072753444,0.0021335685,0.0,0.019059794,0.028809045,0.039104965,0.012950815,0.015792945,-0.0053787343,-0.0005275286,0.008071888,-0.0053316,0.0016101382,0.0025415428,0.0,-0.038609497,-0.0038926578,0.06316686,0.0013394303,2.310986e-06,0.028092872,0.012812327,-0.0057445923,-0.016367521,0.006923472,-0.020197228,-0.09193218,-0.057182126,-0.02681645,0.025118446,-4.5219727e-05,0.05875524,0.0008258474,-0.0007008544,-0.0217553,-0.031168368,0.01705489,-0.00448039,0.024161195,0.00074746786,0.003914287,0.0011955389,0.0020873628,0.011981709,0.0044305525,0.027868379,0.017483851,-0.03433648
77,-0.042026646,0.022648735,-0.07276799,0.0016731948,0.0,0.017555472,0.02879721,0.03949971,0.013461065,0.01530166,-0.0049863197,-0.00047456298,0.0075301235,-0.0031113483,0.0027926615,0.003270349,0.0,-0.038698036,-0.0045984243,0.06435198,0.00055987143,-0.0001840741,0.027879693,0.013149167,-0.006431823,-0.01625049,0.0070956834,-0.020196233,-0.09213562,-0.056540746,-0.026804212,0.025848277,-9.948152e-05,0.058938693,0.00087352656,0.0027679857,-0.021870937,-0.031167403,0.01782604,-0.0047098575,0.026298892,0.0007487442,0.0037157086,0.0033295988,0.0020326653,0.011451158,0.004962674,0.028088197,0.017427828,-0.03409378
78,-0.04329142,0.02107196,-0.07261845,0.0026160749,0.0,0.017835217,0.029016975,0.03922141,0.013451327,0.016048927,-0.004443774,-0.001268612,0.00919242,-0.0049818354,0.0030368485,0.0032338968,0.0,-0.039078705,-0.0049849986,0.06280232,-0.00032305124,-0.00014148469,0.028307162,0.013207169,-0.0066451016,-0.01562418,0.0073075863,-0.020191163,-0.09209694,-0.058298044,-0.026711669,0.026134267,-0.00022053665,0.057340186,0.0010541661,-0.000989272,-0.0214736,-0.03108472,0.018110944,-0.0042642253,0.025749654,0.00085328706,0.004259068,0.0014852118,0.0029771694,0.011378561,0.0055460418,0.027981177,0.017132357,-0.03408555
79,-0.044339,0.020649837,-0.07278989,0.0023936452,0.0,0.017658398,0.02837989,0.039868847,0.01413226,0.016474731,-0.004731835,-0.0014595534,0.007833306,-0.0063175475,0.0025296917,0.0038109696,0.0,-0.03913711,-0.004871707,0.064391986,0.0003975905,-9.6149844e-05,0.027797183,0.0129150925,-0.005862046,-0.015201218,0.0067445273,-0.020216111,-0.0917608,-0.057957683,-0.026648365,0.025050314,-2.3231976e-05,0.05895057,0.0009030011,-0.0024266166,-0.021841925,-0.03153877,0.019795306,-0.004151246,0.026174158,0.00094432745,0.004341527,0.00182004,0.0028334958,0.012312015,0.0054631126,0.027665375,0.016600378,-0.03427058
80,-0.047463797,0.021549221,-0.072826535,0.0023846882,3.715168e-05,0.01888104,0.028751466,0.040766235,0.013303587,0.016169028,-0.0046734265,-0.00087905105,0.007923219,-0.0042714095,0.002741875,0.0043970295,-3.0859446e-05,-0.03932108,-0.0047806064,0.065261826,-0.00045453545,-0.00015004723,0.028195594,0.012414639,-0.0064017377,-0.014918987,0.008939504,-0.020207655,-0.09219275,-0.05773067,-0.026778743,0.024350956,-6.393253e-05,0.06111475,0.0015068878,-0.002933328,0.0,-0.03160634,0.019987794,-0.003943096,0.027575573,0.0005558772,0.004853878,0.0026434015,0.0036730529,0.012454903,0.004741566,0.027933862,0.016800247,-0.033769324
81,-0.046409912,0.02111494,-0.07262924,0.0037970964,-0.00036591373,0.017952278,0.028452203,0.04036426,0.013952609,0.01733521,-0.0051149013,-0.0011156292,0.009747083,-0.00514616,0.0033415402,0.0049535222,-1.760713e-05,-0.039297186,-0.0051941476,0.064168915,-0.0025832208,-0.00010605787,0.028558731,0.012950587,-0.007515298,-0.014706204,0.010338159,-0.020293161,-0.09275845,-0.059429098,-0.026858425,0.024664221,-6.603053e-05,0.06115799,0.0013933242,-0.0036569226,0.0,-0.03197615,0.019816201,-0.0040790862,0.02794787,0.00050073344,0.00484843,0.002014398,0.0049335305,0.014591178,0.0045593306,0.0279531,0.016704023,-0.034295186
82,-0.047781177,0.022953238,-0.07325189,0.003257436,-0.00095997006,0.018355472,0.028853267,0.04042905,0.014785212,0.017222138,-0.0042845043,-0.0011614565,0.010428386,-0.0043733483,0.003932528,0.0061136517,-4.8202975e-05,-0.039669055,-0.0037592975,0.06502973,-0.000874983,-0.00017523018,0.029339407,0.012981547,-0.007111039,-0.015442973,0.010127719,-0.020303432,-0.09332665,-0.060300507,-0.027013896,0.024423327,-0.00010090237,0.0612581,0.0013321984,-0.0014704602,0.0,-0.030945074,0.01927807,-0.004358657,0.030075502,0.0006159075,0.004121882,0.0033291369,0.0036309669,0.014461398,0.0052529965,0.027475892,0.015828531,-0.034262374
83,-0.04918675,0.02327484,-0.07375914,0.0043844185,-0.000999887,0.020129113,0.029704621,0.0397507,0.01466006,0.016432643,-0.0036892728,-0.00073583174,0.0072836834,-0.0054878863,0.0044018235,0.006725222,-9.412423e-05,-0.04022262,-0.003814139,0.06471519,0.00034307892,-7.454504e-05,0.028861258,0.013892594,-0.008857868,-0.015718374,0.01259195,-0.020364663,-0.093087345,-0.060244605,-0.026803978,0.025213107,3.002362e-05,0.06395921,0.0016520254,-0.0016290596,0.0,-0.03089919,0.017148433,-0.0044740965,0.02854717,0.00064033584,0.004250963,0.0022573168,0.004499459,0.013543226,0.005977833,0.02687374,0.015555708,-0.0341598
84,-0.04768215,0.024737788,-0.07347609,0.004124908,-0.000603616,0.019620735,0.029282952,0.039969794,0.01428673,0.016683638,-0.003720758,-0.00019788597,0.005926276,-0.0070289383,0.0032675767,0.0053269193,-0.00014255266,-0.040136848,-0.0032747816,0.06677482,-0.000541428,4.2754862e-05,0.029547883,0.0137858875,-0.008745923,-0.01658716,0.014399033,-0.020384042,-0.09233926,-0.060177557,-0.026337435,0.024937676,-0.00012227645,0.063675106,0.0015898391,-0.0016930593,0.0,-0.030653775,0.017486988,-0.0035911822,0.029855968,0.000790819,0.004586867,0.0041554472,0.0033649239,0.014664788,0.004840341,0.027101329,0.015562804,-0.034378525
85,-0.05002955,0.026650812,-0.07373758,0.00334965,-0.0006993654,0.021249834,0.028871024,0.040628128,0.013571441,0.017448545,-0.005363621,0.0,0.007489785,-0.007778815,0.0033471766,0.0030547613,-0.00013306335,-0.040804908,-0.0044108033,0.0633104,-0.0002246151,6.131058e-05,0.028691078,0.013522319,-0.010683092,-0.016996562,0.013435302,-0.02058446,-0.09193588,-0.06009606,-0.02656488,0.023964074,-4.6809096e-06,0.06309543,0.0019332832,-0.0034799322,3.4273937e-05,-0.030867934,0.016592713,-0.0036537922,0.030629195,0.0009035588,0.0051138736,0.005252829,0.0037453836,0.013828082,0.0055121817,0.027419891,0.015346979,-0.034659997
86,-0.047554493,0.027396092,-0.07472738,0.004926258,-0.00045153862,0.019815257,0.028170055,0.04037355,0.014586196,0.01753324,-0.004388937,0.0,0.006567387,-0.007744603,0.004349398,0.0027986304,1.81498e-05,-0.040700026,-0.0039238334,0.06325085,0.00022889016,0.00018133598,0.029044474,0.012963479,-0.011982629,-0.016380198,0.010819376,-0.020685133,-0.090696454,-0.060609765,-0.026660599,0.024692107,-1.8545465e-05,0.06243966,0.0019953528,-0.005676456,-0.0001802947,-0.030667778,0.018112622,-0.0031619743,0.030034088,0.00085548486,0.0049048304,0.0044400296,0.0034964217,0.014446543,0.004278238,0.027787128,0.015704677,-0.03411598
87,-0.04754059,0.028606959,-0.07569359,0.0052405577,-0.0002182263,0.020217208,0.02914743,0.040616717,0.01512627,0.017259847,-0.005762674,0.0,0.0069392016,-0.006827146,0.003481479,0.0031727669,4.5668112e-05,-0.040593423,-0.0046680532,0.062771216,-0.00096365117,0.0001889067,0.028525088,0.013124571,-0.011948852,-0.016396118,0.014145043,-0.020758234,-0.08921176,-0.059151985,-0.026412133,0.024992736,-7.888259e-05,0.061531868,0.0017299622,-0.0053344658,-7.470373e-05,-0.031041177,0.018807571,-0.0030551015,0.031816643,0.0011027528,0.005235968,0.0028903997,0.003626212,0.014821984,0.0062450734,0.027268812,0.014846073,-0.03427125
88,-0.04876525,0.028143764,-0.07617049,0.007523855,0.0006690541,0.01953633,0.0289894,0.041342985,0.014830203,0.016468234,-0.0069781607,0.0,0.008147963,-0.009235147,0.0043633096,0.0015144005,3.4402598e-05,-0.04049325,-0.0037370874,0.062299877,0.00018739299,3.102808e-05,0.02901134,0.012510838,-0.011347345,-0.016633926,0.015770927,-0.020761602,-0.08888716,-0.05912684,-0.026573036,0.0244595,-9.981474e-07,0.061417587,0.0013821365,-0.004247715,-0.00018825138,-0.030865295,0.020175302,-0.0031359745,0.031534858,0.0015330983,0.00552641,0.0037246933,0.0036320908,0.01684756,0.0069128782,0.027000844,0.015971795,-0.034034386
89,-0.048961923,0.028790649,-0.07593228,0.0077435407,0.00053736643,0.019138098,0.029282216,0.041464526,0.013961866,0.017113434,-0.006562805,0.0,0.0067596342,-0.00973861,0.003274163,0.002109264,9.261706e-05,-0.04065226,-0.0035734405,0.06383562,0.0003874274,-0.00015065202,0.029179303,0.012500318,-0.010466086,-0.016955808,0.017751934,-0.02079649,-0.088472486,-0.055679932,-0.02624884,0.023803499,-6.5126645e-05,0.06005868,0.0019709973,-0.005263374,-0.00027460765,-0.030153327,0.021298131,-0.002802586,0.032008115,0.00147974,0.0054747574,0.0025471514,0.0035687038,0.016232746,0.0067112674,0.027105007,0.0151661495,-0.035259336
90,-0.05027156,0.029324345,-0.0773202,0.007749131,0.00031167176,0.018971218,0.029489264,0.041562803,0.0141794635,0.018110812,-0.006157739,-0.000118983386,0.0079901125,0.0,0.0040985267,0.0,0.00016036586,-0.041058805,-0.0047475346,0.064259276,0.0,-0.00011227061,0.03015592,0.012595676,-0.009693771,-0.017453173,0.016471928,-0.02087067,0.0,-0.056639016,-0.026369262,0.023417937,-7.8276964e-05,0.059175067,0.0016749903,-0.003290892,0.0,-0.029526755,0.017479597,0.0,0.033152457,0.0014697068,0.0052149855,0.0019744968,0.0024944271,0.017196964,0.008443808,0.027291335,0.01498408,-0.03519984
91,-0.04980015,0.03075458,-0.077414505,0.008392991,0.0014056861,0.019743066,0.028735995,0.041464325,0.014791729,0.019531753,-0.0071623614,-0.00025902002,0.009189513,0.0,0.003993139,0.0,9.308831e-05,-0.041392535,-0.0046948497,0.06493665,0.0,-6.459409e-05,0.029719118,0.012844228,-0.009715479,-0.017698487,0.015419226,-0.020899808,0.0,-0.05688153,-0.026635814,0.024626106,4.7864425e-05,0.061828647,0.0018816454,-0.0016151385,0.0,-0.030082643,0.01825345,0.0,0.032519102,0.0019412733,0.004052056,0.0025545536,0.0041394886,0.01621806,0.008331342,0.027490232,0.014765998,-0.035108782
92,-0.05165731,0.030840352,-0.07815858,0.008327336,0.0012681118,0.020426493,0.029779376,0.041286856,0.014603332,0.018351957,-0.006941458,0.0006083122,0.010622928,0.0,0.0030984362,0.0,0.00024632542,-0.041720368,-0.0037694548,0.06337387,0.0,0.00012508029,0.029131802,0.013111366,-0.009664798,-0.018039605,0.016004376,-0.02103675,0.0,-0.05690156,-0.026502974,0.024013042,0.0001554397,0.06380007,0.00192459,0.00035867927,0.0,-0.030329924,0.017629728,0.0,0.031940013,0.0022534765,0.0043217978,0.0040925513,0.0042564087,0.016890848,0.007772007,0.026863193,0.013671884,-0.035008915
93,-0.054185584,0.029814277,-0.078864396,0.0094052,0.0016293549,0.02101206,0.03022044,0.041431922,0.015148736,0.016899165,-0.006627893,0.0008310359,0.012787625,0.0,0.0035548797,0.0,0.00037509622,-0.041886207,-0.004963402,0.06310989,0.0,0.00016273498,0.029129935,0.0128341755,-0.010097592,-0.017810225,0.01775733,-0.021102076,0.0,-0.056823064,-0.026557963,0.023868728,0.00015482811,0.061682746,0.0017615394,-0.001585366,0.0,-0.029736936,0.01856885,0.0,0.033582978,0.0021618346,0.004722017,0.003555188,0.0041014957,0.016943654,0.008422366,0.026776083,0.014462703,-0.034778133
94,-0.054189973,0.029797707,-0.07962747,0.010216377,0.0016492524,0.021222096,0.030652843,0.04114507,0.015517321,0.017042698,-0.006189674,0.001797088,0.011316413,0.0,0.0037250882,0.0,0.0003588854,-0.0424885,-0.0052163703,0.06117686,0.0,0.0002642402,0.030417329,0.013366815,-0.0113312425,-0.01775445,0.017408738,-0.021312162,0.0,-0.05973647,-0.026423553,0.025211943,0.0003374762,0.060984388,0.0017845945,-0.0011220013,0.0,-0.030296091,0.020750655,0.0,0.032516062,0.0021062728,0.0034688113,0.0044277282,0.004558773,0.018336698,0.009106272,0.026442813,0.014512651,-0.035698026
95,-0.054830894,0.029677141,-0.07923773,0.010112589,0.0020348094,0.020505657,0.030223541,0.04167676,0.015418971,0.017997798,-0.0073484713,0.0020909396,0.0117734065,-0.00031134678,0.0050484906,0.00045970257,0.00033989514,-0.042824417,-0.0066759894,0.062715515,-0.0018923079,0.00032991887,0.030720718,0.013062394,-0.01208112,-0.017519224,0.01753256,-0.02123331,-1.1090771e-05,-0.058707457,-0.026386138,0.025957424,0.00017853003,0.062357873,0.0014139154,0.0,0.001087927,-0.029508505,0.018636739,3.4728408e-05,0.033641186,0.0016438315,0.0025381434,0.0035223262,0.004467963,0.018263312,0.0093615465,0.026388023,0.014392773,-0.035420574
96,-0.05609847,0.030920986,-0.079456106,0.011599059,0.0016452667,0.021570774,0.030306421,0.04172267,0.015425192,0.018020555,-0.007877441,0.002781098,0.013187459,-0.0003608702,0.0048075677,0.0005343297,0.00025175695,-0.04285779,-0.0066070873,0.06191157,-0.0023290059,0.00012880305,0.031118844,0.012724393,-0.013673969,-0.017396914,0.019018829,-0.021138053,-0.00045312507,-0.06165689,-0.026309934,0.02502866,6.8934234e-05,0.06362186,0.0011554752,0.0,0.0016155151,-0.02947631,0.02092183,0.0005170737,0.033160985,0.002030946,0.0027412209,0.005963502,0.0035442228,0.018682046,0.008991638,0.026242543,0.014495556,-0.035844162
97,-0.05568382,0.03161117,-0.07957158,0.011557335,0.0016766454,0.021082003,0.029856276,0.042072028,0.015269696,0.018820366,-0.005504095,0.003121984,0.013576219,-0.0015351232,0.0040933387,-0.0004077674,0.00014956543,-0.043269113,-0.007417913,0.06372519,-0.0038102854,0.00044170284,0.030932311,0.012471755,-0.014887426,-0.017454458,0.018101633,-0.021214517,-0.0010132939,-0.062107492,-0.02604183,0.024039155,-2.0461537e-05,0.063408606,0.000748625,0.0,0.0012196441,-0.028745966,0.025152776,0.0010395427,0.034452245,0.0022638175,0.003631017,0.007608231,0.0030809992,0.018368237,0.008716859,0.025929747,0.015299849,-0.03605041
98,-0.05645468,0.031457573,-0.08065233,0.011092083,0.0018066841,0.021441791,0.03043319,0.04119767,0.017262954,0.017291242,-0.004683725,0.002714446,0.013985915,0.002175832,0.004812126,0.00041978745,-5.140006e-05,-0.04383552,-0.007281325,0.06298012,-0.0017971792,0.00019473987,0.030615533,0.012847324,-0.014282651,-0.017165426,0.01793924,-0.021099608,0.0011196476,-0.061426833,-0.026120374,0.023490012,5.4949312e-05,0.063703656,0.001091816,0.0,0.0011895408,-0.029320952,0.02276124,0.0014697706,0.03399785,0.0021880586,0.0044120955,0.0064591467,0.0031207483,0.019186597,0.009027742,0.025706524,0.016434766,-0.03646523
99,-0.056279,0.032049745,-0.07975426,0.011444958,0.0018720607,0.021965768,0.029730396,0.042169806,0.017300427,0.017661773,-0.0052139806,0.0019949956,0.014324219,0.001701101,0.0034925677,0.00037934392,-0.0003497889,-0.044146877,-0.008217432,0.063962094,-0.0016143757,0.00038821105,0.03083318,0.013222016,-0.013828495,-0.018327566,0.021087501,-0.021117846,0.0007099064,-0.063334405,-0.025946595,0.023854714,0.000109543784,0.06425708,0.0011921674,0.0,0.00086580485,-0.029934013,0.022371268,0.0012067102,0.03409235,0.0019795059,0.0042116577,0.006394295,0.003630802,0.01973299,0.0099698305,0.025571872,0.017008794,-0.03640881
100,-0.053702414,0.030816194,-0.080065936,0.011793189,0.0013658206,0.02325707,0.028879387,0.042442523,0.017701304,0.019075809,-0.006921279,0.0016413869,0.015462273,0.0022927122,0.0034885786,0.0,-0.00043532508,-0.045008235,-0.0081495885,0.06623557,-0.003115028,0.00039744907,0.029958088,0.013454174,-0.013543472,-0.019768922,0.020029321,-0.021235961,0.0015611799,-0.060652483,-0.026031444,0.023079287,0.00016705802,0.062817976,0.0018360605,0.00065804576,0.001338111,-0.030041274,0.021753449,0.001709215,0.034474637,0.0018751691,0.003268343,0.004060915,0.0036260835,0.019736042,0.009907538,0.025588501,0.016869577,-0.03638695
101,-0.054382,0.031090735,-0.08126882,0.012385995,0.0017325901,0.022893365,0.029336294,0.042625368,0.018548125,0.018637933,-0.006102618,0.0025265936,0.014511133,0.00096187554,0.0023107263,0.0,-0.00040684812,-0.044969484,-0.008488312,0.06684901,-0.001948624,0.00054858584,0.029985558,0.013788017,-0.014678181,-0.018564671,0.019279093,-0.02135241,0.00176467,-0.0632916,-0.02655899,0.02194809,0.0001097074,0.064898975,0.0017435531,0.0011783226,0.0015363103,-0.029980801,0.022536103,0.0017151732,0.0348551,0.0016206017,0.0036462098,0.005139391,0.0021962044,0.019290868,0.011871539,0.02510033,0.016418586,-0.035926163
102,-0.055724513,0.03145793,-0.08224242,0.011757486,0.0025415756,0.023095328,0.030344702,0.04252867,0.017144723,0.018987382,-0.0057174945,0.0028236168,0.017012572,0.0015340806,0.0023904038,0.0,-0.00033085098,-0.045037836,-0.0088815,0.06493121,-0.0034516347,0.00070475513,0.030032234,0.013935152,-0.014194297,-0.01813314,0.018912368,-0.02132283,-0.0019708578,-0.06378963,-0.026027737,0.022744806,7.320635e-05,0.06446938,0.0021019408,0.0029268633,0.0018037166,-0.030522741,0.025104715,0.0016761476,0.03354015,0.0017628676,0.0036607818,0.006402309,0.0024568662,0.019997273,0.011384972,0.025261924,0.015108905,-0.03569628
103,-0.055765033,0.031537987,-0.08343118,0.012437763,0.0020050644,0.02218327,0.029867556,0.04174575,0.01632096,0.018075617,-0.006671901,0.0032343667,0.016924117,0.0029736322,0.0033576903,0.0,-0.00022636133,-0.04512283,-0.008887648,0.06530848,-0.0034457897,0.00043503795,0.029938899,0.01348775,-0.014954254,-0.01923369,0.021022273,-0.021444846,-0.0026893679,-0.06475734,-0.026497256,0.022033645,0.00022844995,0.06347301,0.0025790387,-0.0005839875,0.0013716032,-0.030166341,0.025423681,0.0012316809,0.033409968,0.0018238323,0.0037736977,0.003674231,0.00059465517,0.02121393,0.01181982,0.025268424,0.015007354,-0.035976864
104,-0.054315247,0.03147276,-0.082700804,0.012653925,0.0027397708,0.02269539,0.02989839,0.041476317,0.016532747,0.01813839,-0.0054025366,0.0034053768,0.01667806,0.0019043706,0.0028953853,0.0,-0.00023060471,-0.045572355,-0.010378536,0.06490711,-0.007147489,0.00040223484,0.031082412,0.013963216,-0.014859568,-0.019169247,0.022741152,-0.021527749,-0.0019196272,-0.06496453,-0.026586678,0.021285277,0.00011025801,0.062334843,0.0026608014,9.741576e-05,0.0018363134,-0.029858373,0.024722246,0.0015257248,0.032280188,0.002142675,0.0035609577,0.0050526643,0.00060024805,0.02170499,0.012348264,0.025161661,0.013853289,-0.03569533
105,-0.05575004,0.031372458,-0.08306795,0.013110969,0.0017159921,0.023277692,0.029740533,0.041587535,0.017050669,0.01879643,-0.0069897156,0.0039227735,0.017468834,0.00065019785,0.0025110624,0.00026719642,-0.00031923427,-0.04568483,-0.010247691,0.06328936,-0.007418412,0.00043669326,0.03104166,0.014379822,-0.015230654,-0.018845929,0.02420891,-0.021535264,-0.0034272498,-0.06708009,-0.026550695,0.021372568,1.3916368e-05,0.062228896,0.0028709294,0.0,0.0021432098,-0.029701754,0.02527728,0.0009909527,0.0313529,0.002083563,0.0039080614,0.0064890687,0.0017336791,0.021842536,0.013086298,0.025179237,0.014882887,-0.03537754
106,-0.057588823,0.032139864,-0.08307864,0.013516657,0.0021278728,0.023537096,0.030132145,0.041037217,0.016992409,0.01966722,-0.0065218094,0.004473994,0.02024169,0.0004880609,0.0023298,0.0003869166,-0.0003757029,-0.045645315,-0.012140631,0.06461734,-0.0058745495,0.0005243372,0.030826945,0.0140145505,-0.014989356,-0.018917836,0.024410859,-0.021472221,-0.003783244,-0.06598432,-0.026440144,0.02102762,-0.00012076531,0.063483536,0.0031455886,0.0,0.0020988444,-0.02950152,0.023597335,0.0020306853,0.032735653,0.0019643458,0.0042198566,0.005674191,0.0024132917,0.023218632,0.012872486,0.025226012,0.015776,-0.035599098
107,-0.058114104,0.033195518,-0.08355111,0.013761747,0.0022113163,0.022522308,0.02977044,0.041118737,0.016942317,0.019922476,-0.0053739985,0.0032013673,0.018596819,-0.0030064653,0.002336782,-0.0015613217,-0.00060019497,-0.04558776,-0.011986283,0.063584976,-0.007213142,0.00031509218,0.030163258,0.013226506,-0.0141507145,-0.019743232,0.025126254,-0.021663718,-0.0034046203,-0.066198535,-0.026386518,0.021311868,-2.4510155e-06,0.062800184,0.0035892525,0.0,0.0018847544,-0.029038344,0.026468933,0.0027304997,0.03194839,0.0016490765,0.004462313,0.007114288,0.0017077492,0.022528332,0.013109259,0.024923814,0.016348721,-0.035678335
108,-0.058296304,0.03364649,-0.08413156,0.014402037,0.0026780777,0.022302726,0.030310038,0.04081223,0.018461611,0.018293986,-0.006295364,0.002717025,0.015668198,-0.0038429329,0.0016126458,-0.0028972065,-0.00070512935,-0.045976922,-0.012136521,0.06305353,-0.0069460873,0.00022379146,0.029610284,0.013928587,-0.013654279,-0.019414043,0.025058128,-0.021640599,-0.0039885784,-0.06428246,-0.026406562,0.021226322,-1.1732136e-06,0.06430639,0.004115653,0.0,0.0016719749,-0.028314471,0.025433704,0.0029739558,0.033568844,0.0020121627,0.00541421,0.0061387424,0.0015719694,0.023068918,0.011774369,0.024479514,0.015164787,-0.035886906
109,-0.058040354,0.035621602,-0.08410087,0.014963293,0.0030357926,0.022357946,0.030390542,0.041176897,0.019194514,0.014314892,-0.0056510586,0.002830084,0.015918214,-0.0023404215,0.0012004114,-0.0032384768,-0.0006321543,-0.04601526,-0.01239649,0.0659793,-0.009281389,0.0005588465,0.029185373,0.013160807,-0.014815986,-0.0200106,0.027588224,-0.02161983,-0.002635099,-0.06233655,-0.025913302,0.020467639,0.00016738611,0.06454444,0.003678938,0.0,0.0013284878,-0.028541803,0.024252936,0.0027194254,0.033671375,0.002046642,0.006512829,0.0067530638,0.0022643516,0.023487568,0.011826463,0.02444569,0.012941214,-0.03561233
110,-0.058370154,0.034316357,-0.085798696,0.014780911,0.0027044863,0.022511385,0.029650453,0.04164479,0.01936997,0.0142148575,-0.0066369255,0.0037355954,0.0,-0.0032069595,0.0,-0.0026058876,-0.0006763664,-0.046110123,-0.010457721,0.06497344,-0.007836884,6.9139496e-05,0.028950518,0.013266474,-0.016062217,-0.019630942,0.026491834,-0.021607244,-0.0025585736,-0.06059167,-0.025609413,0.020004127,0.00017636307,0.064927936,0.0036602723,-0.0030286438,0.001111188,-0.029308867,0.023707647,0.002580587,0.033938743,0.0022270468,0.006756209,0.005827818,0.0028997855,0.023893088,0.011128308,0.02404217,0.01330238,-0.035898812
111,-0.060409546,0.033762403,-0.08664129,0.016154572,0.0029328587,0.02124495,0.030459583,0.041327085,0.019825937,0.014872334,-0.004772061,0.004303585,0.0,-0.002266293,0.0,-0.002241897,-0.0007585684,-0.046578206,-0.012435919,0.06846926,-0.0071961745,-0.00013040347,0.029487405,0.012789814,-0.015773296,-0.019137178,0.028730465,-0.021647464,-0.0030899523,-0.06166562,-0.025459101,0.01909222,0.00015021223,0.06366563,0.0040323953,-0.004094797,0.0013831843,-0.029384231,0.025064737,0.0021383143,0.035736408,0.0020784424,0.0077357218,0.0066696415,0.0035563167,0.024717428,0.014144033,0.024174536,0.013680208,-0.035823096
112,-0.05943271,0.033324108,-0.08737944,0.015431831,0.0029723414,0.020354565,0.029796438,0.041335035,0.020001426,0.015931003,-0.0059224977,0.0039922427,0.0,-0.003268214,0.0,-0.0018773791,-0.0008919732,-0.04686704,-0.01346761,0.065546624,-0.0068163695,-4.8865273e-05,0.029035522,0.013803038,-0.016440816,-0.018607367,0.027483346,-0.021761578,-0.0041998634,-0.062085733,-0.025128815,0.02160662,8.457881e-06,0.0636511,0.0036704594,-0.0072035743,0.001983121,-0.030366085,0.0272172,0.0021104566,0.036706023,0.0021364503,0.0065843966,0.0055282936,0.003956945,0.02490548,0.012891216,0.023934957,0.0154017,-0.035266604
113,-0.06183414,0.033327337,-0.087732874,0.016260058,0.002633496,0.019962555,0.030097144,0.040787622,0.019177092,0.0152967535,-0.0058203563,0.0037985018,0.0,-0.0033668198,0.0,-0.0020820652,-0.001204075,-0.047079176,-0.012454461,0.06538662,-0.0071002184,-0.00016261206,0.029316965,0.013585873,-0.016404722,-0.019512393,0.030877452,-0.021840326,-0.003869243,-0.060670294,-0.025506975,0.020255875,-0.0003079349,0.06041372,0.003819907,-0.0051187,0.0021385257,-0.030585507,0.028339352,0.0020014923,0.035718866,0.0023405144,0.0074867215,0.0059729773,0.0033391332,0.02623477,0.013234545,0.023868475,0.016622446,-0.035355803
114,-0.062085114,0.03327755,-0.08844325,0.01690868,0.002883137,0.02101674,0.030909833,0.040385988,0.01918759,0.01715031,-0.006022609,0.004125418,0.0,-0.0025297855,0.0,-0.0014441554,-0.0014425913,-0.04711926,-0.011699621,0.065498896,-0.0047367346,0.00011941319,0.029597603,0.013382396,-0.016185872,-0.019810367,0.031238405,-0.022088874,-0.0055327956,-0.061779033,-0.025589472,0.01973316,-0.0004508366,0.06114337,0.003853807,-0.0064561935,0.002055496,-0.031638976,0.026592894,0.0021800601,0.035375174,0.002384847,0.008684897,0.0067518316,0.00459942,0.026882276,0.012772563,0.023832258,0.017238945,-0.035529617
115,-0.06250282,0.03508474,-0.08978859,0.015921356,0.003999901,0.021711636,0.030829068,0.04107778,0.019596502,0.016682241,-0.0059340005,0.0037859974,0.0008658596,-0.0034875735,-0.00010361103,-0.0015033347,-0.001498308,-0.047168642,-0.011682387,0.0645857,-0.00514439,0.0,0.029982531,0.012968574,-0.016858364,-0.018596757,0.029693803,-0.022265904,-0.0031805057,-0.06021284,-0.025573762,0.020121483,-0.0004399637,0.060059372,0.0033213822,-0.009396539,0.0011291052,-0.031943396,0.029827708,0.0016835486,0.03517885,0.002216327,0.007804674,0.006945635,0.0046701697,0.025444832,0.012663527,0.023546968,0.0152889,-0.03540641
116,-0.062517986,0.035241112,-0.089919314,0.016408779,0.0043410966,0.022505382,0.03162018,0.04059489,0.019317385,0.015412002,-0.005549617,0.004461595,9.9101264e-05,-0.0022817769,0.0012154123,-0.0034603705,-0.0014811099,-0.047563672,-0.012652552,0.060988735,-0.0053826454,0.0,0.030701544,0.013427335,-0.018944709,-0.019002544,0.027535737,-0.022603229,-0.003361118,-0.060442626,-0.02529781,0.018753197,-0.00022327498,0.05853495,0.004447912,-0.01150169,0.0012850307,-0.03172317,0.029562602,0.0010601062,0.03514514,0.0026065938,0.008910412,0.0058158124,0.004042547,0.02656985,0.013065845,0.023190757,0.015263157,-0.03522177
117,-0.06273903,0.034464672,-0.09014833,0.01590992,0.0053833406,0.021831103,0.031504232,0.04058545,0.020466134,0.015024717,-0.006577581,0.0044574062,3.251992e-05,-0.0034277542,0.0021541263,-0.0026372771,-0.0016628925,-0.0481497,-0.013341133,0.06353784,-0.0057161096,0.0,0.030503843,0.012807586,-0.019898133,-0.019500641,0.029372573,-0.02262516,-0.0037470956,-0.059539203,-0.025547799,0.018102314,-0.00022346807,0.058957987,0.0054543824,-0.011054335,0.0010972305,-0.030467883,0.03276249,0.0015627105,0.03382227,0.002807668,0.008303347,0.0077406624,0.0040278803,0.027411982,0.014527541,0.022653477,0.014933229,-0.035375983
118,-0.06361003,0.03348541,-0.09004974,0.015857795,0.005220162,0.02327857,0.03170666,0.040952355,0.020500312,0.015486356,-0.0075957105,0.004064245,0.0022161347,-0.004018386,0.002291865,-0.0010067937,-0.0019541788,-0.04858316,-0.013616303,0.061319,-0.005888059,0.0,0.030306801,0.014091542,-0.02007578,-0.01959756,0.030573148,-0.022595694,-0.0033408455,-0.058195964,-0.025518015,0.018558243,-0.00039711472,0.060678657,0.005358277,-0.011983305,0.0011553012,-0.031087805,0.0294182,0.001967988,0.035064932,0.0030276424,0.008382201,0.0069401013,0.004223512,0.026891196,0.015264268,0.022916555,0.015037848,-0.035367787
119,-0.062574536,0.03356868,-0.09137977,0.01527385,0.004916916,0.020859478,0.031159759,0.04099372,0.020953642,0.017065901,-0.009439389,0.0037367395,0.0037234002,-0.004216352,-0.00019374286,-0.0019323614,-0.0018144725,-0.048887413,-0.014663716,0.06304197,-0.0025435844,0.0,0.031049814,0.01368315,-0.019794798,-0.019786404,0.031494092,-0.022380687,-0.0044510253,-0.05860372,-0.025195701,0.018821305,-8.1956205e-05,0.06251171,0.005374169,-0.012621023,0.0008050724,-0.032530423,0.027849676,0.00165105,0.035837404,0.0027295302,0.0076123453,0.006690165,0.0039044698,0.026953693,0.014035883,0.023342377,0.015325599,-0.03585279
120,-0.061196417,0.034903064,-0.0917519,0.015999224,0.0044674654,0.018978458,0.03193572,0.041051183,0.02151774,0.016496463,0.0,0.0050002877,0.0041918308,-0.005526319,0.0,-0.0029865764,-0.001922217,-0.04868199,-0.014956814,0.06569728,0.0,-0.000103823375,0.030915052,0.01293752,-0.019344306,-0.01999088,0.03370463,-0.022325275,-0.004550445,-0.05955408,-0.025936274,0.019142294,-2.7802394e-05,0.063442536,0.0056650536,-0.008919843,0.0,-0.032157317,0.02953386,0.00091063324,0.03650037,0.002719309,0.0072885924,0.006641063,0.0037758264,0.028024955,0.015139143,0.022500671,0.013911245,-0.035746213
121,-0.06057259,0.035614904,-0.092246145,0.017155565,0.0047070975,0.020088632,0.031312138,0.04077478,0.022391554,0.015446709,0.0,0.005028653,0.0006499611,-0.007947574,0.0,-0.002991744,-0.0015342516,-0.049691636,-0.013668618,0.06510614,0.0,-0.0005609388,0.031244468,0.013627421,-0.018911105,-0.020249825,0.030697476,-0.022323607,-0.0050242497,-0.061912436,-0.025953982,0.019420272,-8.412146e-05,0.06087626,0.0068226773,-0.011432288,0.0,-0.032685697,0.028265934,0.0008499442,0.03628953,0.0029278314,0.007866164,0.00554567,0.004175264,0.02742273,0.013625395,0.022584578,0.014716694,-0.035877045
122,-0.060228452,0.03647312,-0.092149526,0.016538454,0.00438992,0.020766785,0.03125918,0.040177267,0.02379103,0.016047232,0.0,0.004580142,-0.00069395977,-0.0075349403,0.0,-0.002597268,-0.0015468162,-0.049731456,-0.013658755,0.06742423,0.0,-0.00068545225,0.030437177,0.014250526,-0.018300878,-0.019868566,0.0315956,-0.022252042,-0.0052649304,-0.062293887,-0.02571515,0.019311525,2.0414082e-06,0.06346065,0.0056993198,-0.011492511,0.0,-0.03290491,0.03157271,0.00052544964,0.03587556,0.0035644257,0.008630158,0.004072422,0.0033055535,0.026760198,0.015072672,0.022621969,0.0161375,-0.035908967
123,-0.062262036,0.035504382,-0.091588505,0.017719692,0.0042384444,0.020714285,0.031521633,0.040634487,0.022784228,0.01744592,0.0,0.004981215,-0.0015937557,-0.009525376,0.0,-0.0044512334,-0.0014061588,-0.049564883,-0.012695158,0.063874625,0.0,-0.00074576633,0.030101748,0.014318884,-0.0193908,-0.01984699,0.028983613,-0.022276614,-0.004768053,-0.06347119,-0.026006758,0.019587327,0.00019878914,0.06284125,0.006615884,-0.012984248,0.0,-0.032938812,0.027872713,-9.883764e-05,0.038018048,0.003560069,0.009062363,0.0064275363,0.00381479,0.026407754,0.014075676,0.022345576,0.015845215,-0.03515937
124,-0.06270887,0.037363064,-0.093673006,0.017104844,0.0050670193,0.021498,0.031220026,0.041021395,0.02215864,0.017485445,0.0,0.0048114993,-0.0017241156,-0.008610474,0.0,-0.00379091,-0.0013157905,-0.04956577,-0.011164687,0.063618846,0.0,-0.00046898716,0.030804437,0.0151634775,-0.01979199,-0.019859651,0.029152568,-0.022333127,-0.0048856526,-0.064409256,-0.025871316,0.019982666,6.506851e-05,0.06516058,0.00586944,-0.012065487,0.0,-0.033089783,0.028414076,-2.731874e-05,0.03692528,0.0036085425,0.0095000025,0.0075646983,0.003292277,0.028332679,0.013887363,0.022261573,0.016164757,-0.035862368
125,-0.063173026,0.036986697,-0.095905945,0.017136093,0.0058057024,0.02250436,0.031260237,0.040852904,0.021823233,0.014148546,-0.0003810577,0.0060157296,-0.0021080321,-0.009545735,-0.0024507362,-0.0041235844,-0.0015252623,-0.049460087,-0.013841946,0.06562984,0.0003911858,-0.00023186413,0.030759115,0.015324462,-0.020748943,-0.02040194,0.029370924,-0.022448272,-0.0057375375,-0.06517932,-0.025636703,0.018819567,0.0,0.06437384,0.0061417515,-0.014097525,0.00067122956,-0.034155823,0.03053142,-0.00025028363,0.036979705,0.0036483582,0.0087756915,0.0050010467,0.0031570457,0.026943583,0.015778255,0.022503935,0.016739847,-0.03604035
126,-0.06388728,0.036491178,-0.096849024,0.017164296,0.0063177003,0.02243131,0.030884212,0.041477185,0.022010487,0.015388686,-0.0009022989,0.007850071,-0.0005854238,-0.010732396,-0.0011739504,-0.0050436407,-0.0012561397,-0.049782332,-0.014531275,0.06532009,-0.001099813,-0.00021443915,0.030163236,0.015167685,-0.020430012,-0.019842925,0.028123753,-0.02261237,-0.0045583434,-0.06602384,-0.025095213,0.01769805,0.0,0.06285559,0.0067355833,-0.015186164,0.000618906,-0.03449724,0.03221241,0.00028353144,0.038369093,0.0034364,0.010150573,0.0032640283,0.0042590746,0.028279316,0.015352728,0.02212683,0.016961828,-0.036122344
127,-0.06391455,0.035853274,-0.09734456,0.01846784,0.0064852666,0.023006478,0.030836966,0.04227029,0.021395158,0.014803578,-0.0020777036,0.008043842,0.00079819316,-0.01258312,-0.0012829781,-0.0046730107,-0.0015108199,-0.04975819,-0.016091922,0.064434074,-0.0013542408,-0.0008150998,0.030260574,0.015621952,-0.019433,-0.02008095,0.028749852,-0.022558363,-0.0050347056,-0.06701849,-0.025231373,0.018035835,0.0,0.061045755,0.0059513273,-0.013855402,0.00072949345,-0.034503147,0.034641474,0.00039021226,0.03932458,0.0034596226,0.00829931,0.0040160194,0.0024771749,0.026851166,0.015824104,0.021686243,0.016443118,-0.03696763
128,-0.061273664,0.036453493,-0.09828422,0.018956171,0.005902489,0.022722302,0.031473048,0.041382764,0.02057774,0.016355814,-0.0012691901,0.0077141314,-0.0010143988,-0.0105534345,-0.0018028023,-0.00428685,-0.0014792769,-0.049668077,-0.016523227,0.0656694,-0.0033718417,-0.0006295442,0.030513022,0.014943844,-0.019523501,-0.02023677,0.030316837,-0.022834454,-0.0047563543,-0.06966943,-0.025171654,0.018778479,0.0,0.06152249,0.0057155234,-0.01300367,0.0011259159,-0.034712013,0.031184277,0.0003530684,0.03917748,0.0037841715,0.0077019753,0.004285655,0.0030511732,0.027214283,0.016970608,0.021727925,0.016574405,-0.036818877
129,-0.062843785,0.03784851,-0.09894697,0.019346721,0.006299279,0.02347242,0.03180807,0.041940667,0.021451447,0.016493216,-0.0023226205,0.0075092516,-0.00035769917,-0.012460221,-0.0012307288,-0.0051699765,-0.0015071019,-0.049325246,-0.015372692,0.06891072,-0.00360051,-0.00086522964,0.03072775,0.015267608,-0.019461025,-0.020272154,0.031519424,-0.02286337,-0.0042915223,-0.068505615,-0.0257641,0.019332163,0.0,0.061938353,0.0062913094,-0.014658723,0.0014000376,-0.03449353,0.03243202,0.0001707055,0.03879946,0.0035543812,0.008329272,0.0045011695,0.00306882,0.028445143,0.016554523,0.021055123,0.015596493,-0.037610598
130,-0.06373934,0.038070757,-0.09937149,0.018995611,0.0065909605,0.02346705,0.03208642,0.040749475,0.020281889,0.015905075,-0.0016424388,0.0071509765,0.0,-0.011436515,-0.0029475426,-0.0062005646,-0.0022416655,-0.04976526,-0.014779411,0.066734254,-0.0031879712,-0.00084023306,0.030202817,0.013082834,-0.019494472,-0.019608766,0.030575344,-0.02279219,-0.0034646303,-0.06894441,-0.02563027,0.01751206,-0.0003276504,0.062449478,0.0068890564,-0.0137075195,0.0020443469,-0.033696543,0.031149345,0.00031501416,0.038548235,0.0037666643,0.0073539373,0.0046650963,0.001763568,0.03190412,0.016753465,0.021464849,0.0150261205,-0.036965728
131,-0.06279677,0.04041715,-0.100432746,0.018397518,0.006325473,0.02406506,0.032245524,0.04038486,0.019580882,0.016814187,-0.0013352113,0.0069611277,0.0,-0.010840213,-0.004067646,-0.0050249468,-0.002007107,-0.04963172,-0.01364682,0.0651868,-0.002122629,-0.00059330044,0.029815186,0.013908608,-0.017158817,-0.019905956,0.028362792,-0.022822801,-0.0028360172,-0.06797721,-0.025755694,0.016794452,-0.00033167255,0.06398806,0.0075581176,-0.014136326,0.0016473879,-0.033404615,0.034313895,0.0009746004,0.03885608,0.003677335,0.0063387933,0.0056035505,0.0018137478,0.03205195,0.016330376,0.020992618,0.015843773,-0.03712147
132,-0.062254112,0.040042896,-0.099646315,0.01864245,0.00653087,0.023220306,0.032753896,0.0414131,0.020469453,0.017492985,-0.0032628763,0.006614806,0.0,-0.010812813,-0.0021908814,-0.0035458542,-0.0022677532,-0.050836,-0.013580624,0.06504741,-0.0033292861,-0.00018476263,0.029600706,0.014206797,-0.015491941,-0.0201228,0.0291831,-0.022730857,-0.0047202436,-0.06582423,-0.025745656,0.01755403,-0.0007723255,0.06250187,0.00711551,-0.0124393925,0.0017118637,-0.033351153,0.032301623,0.0007562345,0.040252883,0.0038878634,0.0059740255,0.0050246846,0.0011151778,0.032754544,0.01538204,0.020218832,0.014781931,-0.037081648
133,-0.06453201,0.039473422,-0.0990327,0.019326348,0.006517719,0.023508217,0.03200814,0.04236573,0.019791752,0.014414705,-0.003004972,0.0061740307,0.0,-0.01259211,-0.0023853567,-0.0029581543,-0.0024284525,-0.0509867,-0.014321474,0.06638111,-0.0026605185,9.4598625e-05,0.029949583,0.013782748,-0.017676396,-0.01857432,0.027895944,-0.022903059,-0.005247155,-0.06377843,-0.026128406,0.016533837,-0.00017717382,0.062298708,0.007813441,-0.012242611,0.0017188145,-0.033952422,0.031510733,0.0014217086,0.038893107,0.0035493923,0.0074533145,0.004784444,-0.00075066555,0.0318209,0.016978156,0.020365305,0.015511336,-0.036263976
134,-0.066007026,0.040620413,-0.09904706,0.019610811,0.0058343452,0.024735373,0.031898186,0.04248538,0.02021717,0.0152712,-0.0028236262,0.0067475233,0.0,-0.013373257,-0.0027756416,-0.0024203495,-0.0028070055,-0.051836237,-0.01634551,0.06862704,-0.0025276549,-0.0002500224,0.029236479,0.01370665,-0.016137216,-0.018977737,0.028429307,-0.022796495,-0.004279314,-0.06639318,-0.025720447,0.017026922,-0.00030689104,0.061273187,0.0075319116,-0.014142024,0.0016565154,-0.033469744,0.03208897,0.0013914239,0.03972755,0.0039867666,0.008820787,0.0055310214,-0.000633035,0.029452477,0.016203513,0.020326417,0.014516675,-0.036385834
135,-0.067655176,0.039173942,-0.09784915,0.019633807,0.0047241095,0.024241854,0.03273371,0.043382764,0.02133951,0.016949186,-0.0016890287,0.0074991025,0.0046482664,-0.018288512,-0.0018863169,-0.0022532316,-0.0027364194,-0.051661454,-0.015821092,0.06817794,-0.00015861758,0.0,0.0,0.0142631475,-0.017657656,-0.019577755,0.02596021,-0.022880064,-0.004879556,-0.06651486,-0.025699161,0.017198954,-0.00025608967,0.06273228,0.006969146,-0.014211735,0.0013876249,-0.03354988,0.031647336,0.0013830903,0.040325057,0.003958313,0.009930257,0.0062697893,-0.00057351775,0.027428959,0.015692016,0.02012386,0.014785632,-0.03604179
136,-0.06672015,0.040124256,-0.0979282,0.018673722,0.004866689,0.02397364,0.032607354,0.043112196,0.021357756,0.015803764,-0.0021940726,0.007466396,0.005690031,-0.015516723,-0.0014086489,-0.002201179,-0.0025909753,-0.05205687,-0.0153349945,0.071856976,-0.004686795,0.0,0.0,0.013698557,-0.018412031,-0.018775957,0.025489535,-0.022736758,-0.005468951,-0.06445909,-0.025499009,0.018598896,0.00010134749,0.06329978,0.007151746,-0.01578764,0.001719495,-0.033653185,0.031265166,0.0020563202,0.040149797,0.0040964414,0.007370608,0.009061463,-0.0010525002,0.028603053,0.015592479,0.019940393,0.016243659,-0.035980977
137,-0.067544915,0.03902072,-0.098684534,0.018141404,0.005431954,0.024688987,0.032968517,0.04479247,0.02199052,0.014941516,0.00058163196,0.0076543204,0.008966255,-0.016699249,-0.0014107716,-0.0023988993,-0.0025827754,-0.052379813,-0.014774103,0.07223672,-0.0066103023,0.0,0.0,0.014950887,-0.018819664,-0.018131712,0.026093056,-0.022530185,-0.007227732,-0.06508819,-0.025694989,0.017485784,0.0003268612,0.062128387,0.007484348,-0.018552829,0.0021498888,-0.03403343,0.033157423,0.0027916806,0.04043201,0.0038610646,0.009312495,0.009723994,-0.0011750425,0.029532213,0.01525257,0.019242438,0.015835118,-0.035535183
138,-0.06758726,0.040146288,-0.09896267,0.018871356,0.0059957663,0.024118306,0.032854825,0.04430862,0.020871073,0.0137144085,0.00058735884,0.0071933703,0.009532154,-0.015309025,-0.0009057803,-0.0025218148,-0.0028501,-0.052409187,-0.013458494,0.07102021,-0.008029083,0.0,0.0,0.015847784,-0.019823104,-0.017699908,0.02630885,-0.022299577,-0.0058083134,-0.06575847,-0.025214545,0.019349245,0.00019996386,0.061018433,0.007970043,-0.0165555,0.0013654974,-0.03337859,0.032024503,0.0017627685,0.04012932,0.0036507817,0.0074805925,0.010304106,-0.0008571614,0.031376243,0.015299428,0.019382562,0.014299454,-0.03579469
139,-0.068346776,0.040639088,-0.09926762,0.019648243,0.0054328428,0.02591007,0.032911733,0.04664631,0.022151817,0.013135156,-0.0016284039,0.0075435187,0.011084367,-0.017756768,-0.000120279496,-0.0009777246,-0.0030126695,-0.052337915,-0.012083159,0.068801515,-0.0065802587,0.0,0.0,0.01489028,-0.020567477,-0.017714404,0.026099214,-0.022776876,-0.0077897036,-0.06604235,-0.025043515,0.017707469,0.0002630774,0.06148942,0.0076128473,-0.017180275,0.0005287348,-0.03284938,0.035202894,0.0017149424,0.038588583,0.0036657304,0.007629687,0.009485335,-0.00122651,0.033498917,0.01420036,0.018687349,0.015567938,-0.0359679
140,-0.06891455,0.038879767,-0.100203246,0.01988655,0.0068348595,0.0263464,0.031732403,0.046635658,0.02303826,0.01545741,-0.00044414803,0.008188709,0.007796212,-0.019370299,0.0,0.0,-0.0028353601,-0.052081432,-0.012838309,0.070114955,-0.005471106,0.00023114076,-0.0003850895,0.014745372,-0.022198968,0.0,0.027077712,-0.022677457,-0.0058265706,-0.06659565,-0.024888087,0.01719255,0.0003966536,0.061052106,0.0074919625,-0.018408773,0.00049502443,-0.033831343,0.03591711,0.002366302,0.03860728,0.0035729052,0.0072761592,0.009500243,-0.00030739763,0.032777213,0.014626062,0.018336756,0.014572638,-0.034871835
141,-0.06788038,0.038813993,-0.09958077,0.020390315,0.006077893,0.027443517,0.03120811,0.045689967,0.023135567,0.015329535,-0.0013197246,0.006732977,0.00908974,-0.017587127,0.0,0.0,-0.0026479405,-0.05238078,-0.011978824,0.07042669,-0.007967843,0.00036109728,-0.00035727792,0.015658604,-0.020792322,0.0,0.029269354,-0.022847004,-0.0056736413,-0.06707659,-0.024272006,0.015472278,0.00017487296,0.05944752,0.008292599,-0.020190965,0.0006394119,-0.033766035,0.03678663,0.001508059,0.03808456,0.0034692967,0.008302454,0.011430674,-0.0014602151,0.033822954,0.014459724,0.018444348,0.013659399,-0.035941187
142,-0.067541406,0.038192213,-0.099445626,0.019472534,0.006108833,0.028436221,0.032919902,0.044463173,0.023663448,0.015451303,-0.00043469568,0.0067065647,0.008907132,-0.017138451,0.0,0.0,-0.0028746012,-0.05229258,-0.012009267,0.06999389,-0.0081007285,0.00034971273,-0.0005432461,0.014270015,-0.020730063,0.0,0.029326588,-0.022608183,-0.005946827,-0.06876381,-0.023674108,0.016345892,0.00071141694,0.05911137,0.007475529,-0.019252697,0.00097314455,-0.033713754,0.03997834,0.0011003856,0.04061729,0.0036644062,0.010019293,0.009236305,-0.00081063574,0.033780124,0.0152373165,0.018271947,0.012758405,-0.035928145
143,-0.066796616,0.038385164,-0.10103071,0.019651778,0.006276546,0.029014954,0.03303191,0.045123905,0.024670051,0.01593594,-0.0007544301,0.0065538646,0.008323809,-0.017668413,0.0,0.0,-0.002871484,-0.052668177,-0.013516333,0.070207134,-0.0077112066,0.00027757115,-0.0006962856,0.013875575,-0.020976998,0.0,0.029934509,-0.02261458,-0.00488771,-0.06652245,-0.023357516,0.015872207,0.0012686353,0.058837667,0.0078077847,-0.021287706,0.00095903815,-0.03411332,0.037442252,0.0012780601,0.039971724,0.0040328694,0.01066275,0.009281433,-0.0007455457,0.03394969,0.016229788,0.018382814,0.013043153,-0.03557229
144,-0.06570939,0.040447406,-0.102126375,0.020037284,0.0060568247,0.027150571,0.03190462,0.043887742,0.022875393,0.018612552,0.0013518352,0.007334651,0.0060001854,-0.019183151,0.0,0.0,-0.0030556158,-0.05322475,-0.013525358,0.07181104,-0.0050388905,-0.00010828579,-0.00084448775,0.013937559,-0.022044303,0.0,0.030159622,-0.022757705,-0.003718947,-0.066518754,-0.023023387,0.01631656,0.0009520155,0.056795392,0.008444887,-0.02319332,0.00080806355,-0.03285454,0.039391894,0.0017986012,0.040822055,0.0039370093,0.011097923,0.010005808,0.00045536246,0.031570368,0.018124985,0.018112607,0.013385056,-0.036275476
145,-0.06747588,0.039822064,-0.102316424,0.019755054,0.0068469816,0.028258923,0.032617465,0.04360129,0.02431072,0.017835703,0.0025723712,0.007937769,0.0065014623,-0.020835161,-0.001090736,0.001324746,-0.0030388024,-0.052913524,-0.01574344,0.07105406,-0.007218034,-0.000404212,-0.00024434106,0.013042754,-0.020819748,-0.0003528014,0.03149375,-0.022524625,-0.0032248355,-0.06881384,-0.02344534,0.015627448,0.00036845898,0.055449154,0.009333249,-0.02405325,0.0012253822,-0.032573387,0.03741718,0.0014443144,0.043209504,0.004005665,0.009187897,0.011161714,0.0014020847,0.034222145,0.017385386,0.01812748,0.0,-0.03590212
146,-0.06853264,0.04019597,-0.102218814,0.019775767,0.005939652,0.028215067,0.03254317,0.04440433,0.023659762,0.014646967,0.003081458,0.008227853,0.006400211,-0.022112872,-0.0012009656,0.00013950246,-0.0032965196,-0.053307984,-0.015432976,0.071561635,-0.0071935253,-0.0002098435,6.6803565e-05,0.0137960445,-0.020109653,-0.00094684353,0.030582651,-0.022714369,-0.0036066228,-0.07138095,-0.024018735,0.017035354,0.00042515105,0.055823572,0.008348828,-0.021907665,0.0012955139,-0.032928072,0.03623671,0.0009794905,0.04467483,0.0037390664,0.009488777,0.009082258,0.0034138279,0.03419309,0.01892912,0.018008467,0.0,-0.035484873
147,-0.06854073,0.038168315,-0.10301924,0.019693397,0.0061085448,0.027801389,0.031767648,0.043532062,0.023390453,0.013537027,0.0036526383,0.008315965,0.0053328485,-0.022497615,-0.0017808797,0.001172264,-0.0032236385,-0.052839827,-0.016473064,0.074591845,-0.0045472803,-4.8657996e-05,0.0009619275,0.014267614,-0.019142311,-0.0014554345,0.029240968,-0.022864288,-0.0056846524,-0.071151234,-0.023905965,0.0152200125,0.0005941663,0.056726895,0.008493807,-0.021052118,0.0009663191,-0.034412593,0.03289607,0.0010932897,0.0449976,0.0038399473,0.010380393,0.011005315,0.0029087986,0.034318887,0.020488322,0.017863322,0.0,-0.035878964
148,-0.06770307,0.04045721,-0.10242007,0.01855544,0.0057624583,0.028912142,0.0320386,0.0443661,0.02287829,0.011206295,0.0025841547,0.008721093,0.005007633,-0.02227051,-0.001193636,0.002121509,-0.0034136523,-0.053066622,-0.01550402,0.07348545,-0.008150741,-3.8971244e-05,0.00061353,0.01363597,-0.019373935,-0.0010630942,0.02806622,-0.02291225,-0.007292,-0.07169055,-0.023988048,0.014522981,0.0007387538,0.05754871,0.0074056853,-0.02093162,0.001109633,-0.034405977,0.03733054,0.0016398818,0.042494006,0.0037162143,0.010196952,0.011820386,0.003171489,0.033729162,0.02142661,0.017123044,0.0,-0.036635663
149,-0.06769925,0.040971875,-0.10199769,0.01867259,0.006442482,0.02839204,0.03215487,0.04354312,0.02057128,0.010184388,0.0011926278,0.009306923,0.0047056205,-0.02304253,-0.0023106537,0.0017889941,-0.0030004364,-0.054029763,-0.01816178,0.07475521,-0.008063918,-6.295042e-06,0.0010804803,0.01411183,-0.020405348,-0.00015469748,0.029527914,-0.022936627,-0.005614665,-0.070305064,-0.023945864,0.014711657,0.0007125882,0.059459165,0.0075344397,-0.02160876,0.0005087846,-0.034591634,0.03658651,0.0012594888,0.04073286,0.003861656,0.010888512,0.01126189,0.0031044437,0.035251625,0.021824813,0.01670641,0.0,-0.03712441
150,-0.068054914,0.04268325,-0.1031443,0.019559715,0.006598072,0.02898665,0.033561923,0.043457586,0.021001209,0.008389728,0.0015759649,0.009777544,0.004621992,-0.024403013,-0.0044801678,0.002335776,-0.0030274924,-0.054834656,-0.017800499,0.07671361,-0.007029061,0.0,0.0015007452,0.012875558,-0.021178205,-0.00075578736,0.025997836,-0.022952395,-0.0048714327,-0.070462294,-0.024371034,0.015292335,0.0005806236,0.0,0.0066936035,-0.022735104,0.0,-0.034837957,0.036682177,0.0015319613,0.041082334,0.003987452,0.01119051,0.011938252,0.0031373608,0.033337884,0.020786617,0.016420515,-0.00025660612,-0.03750234
151,-0.06758409,0.042397782,-0.10435836,0.020286066,0.005432081,0.030709866,0.03215335,0.043183595,0.02097819,0.008428491,-0.00025140864,0.008977552,0.0048105475,-0.023462547,-0.0034503937,0.0013273624,-0.0029911937,-0.05508674,-0.019494314,0.07547633,-0.0072797793,0.0,0.0014540787,0.012738052,-0.021556452,-0.0007418719,0.02635651,-0.02321841,-0.0038544764,-0.07314042,-0.02416662,0.015380766,0.00084357976,0.0,0.006747164,-0.02162409,0.0,-0.03473466,0.03546164,0.0013675601,0.040115956,0.003932141,0.01132799,0.014779112,0.0022444339,0.03298207,0.022532709,0.016393136,-7.262191e-05,-0.036683906
152,-0.064948,0.041991424,-0.10483741,0.019468833,0.0051083295,0.02972985,0.031658858,0.042935137,0.021189746,0.0073413565,0.0007924541,0.010148149,0.0025235321,-0.02452508,-0.0010233166,0.0016762001,-0.003331008,-0.054248746,-0.019731632,0.07565601,-0.005334543,0.0,0.0025021867,0.013017242,-0.022933606,-0.0017040363,0.029374136,-0.02319322,-0.0051460033,-0.07110891,-0.024337575,0.016432118,0.001241135,0.0,0.006197921,-0.02095461,0.0,-0.03454895,0.039213277,0.0020480696,0.04072797,0.00394405,0.0127778845,0.014098366,0.0018375458,0.027276741,0.02275078,0.016188858,-0.0009581099,-0.03686604
153,-0.06522584,0.042589877,-0.10481901,0.019204732,0.0050896,0.032313116,0.03226516,0.04290122,0.021347573,0.008589424,0.0013537344,0.01025869,0.0035421033,-0.025606174,0.0037396704,-0.00090927654,-0.0032947229,-0.05432376,-0.02015288,0.07547621,-0.008349866,0.0,0.0022310696,0.012624574,-0.02263108,-0.0017581843,0.03103358,-0.022954307,-0.0075720362,-0.07123394,-0.02396264,0.016943533,0.0012952811,0.0,0.007254108,-0.020542245,0.0,-0.03471106,0.03939472,0.00061500067,0.041822962,0.004340617,0.013169498,0.01404897,0.0021903028,0.03012386,0.022157254,0.015912317,2.2333086e-05,-0.037435398
154,-0.06455576,0.04135531,-0.10500404,0.019441165,0.0042086896,0.032784246,0.032089688,0.04317295,0.02217784,0.006706516,-0.0015942919,0.010330257,0.0048297695,-0.02546577,0.0027204957,-0.00070516963,-0.0032522571,-0.05444906,-0.021635348,0.07534048,-0.009161593,0.0,0.0023152274,0.012731763,-0.02154262,-0.001684904,0.02865031,-0.0228104,-0.0087417895,-0.06924733,-0.024194477,0.014374891,0.0013592625,0.0,0.008002679,-0.02019555,0.0,-0.03344392,0.037508853,0.0003800484,0.039321277,0.0046268655,0.013521261,0.012539888,0.003647535,0.03079764,0.021685429,0.01601972,0.0007153444,-0.038055662
155,-0.06593283,0.03987539,-0.10533711,0.01936509,0.004007305,0.033082057,0.03198944,0.043413393,0.022792675,0.004451013,-0.0015608442,0.009761345,0.0057722135,-0.024848279,0.0013436342,0.0,-0.003417164,-0.054381162,-0.021928005,0.07477745,-0.011118265,0.0001157324,0.0024740142,0.0,-0.020423915,-0.0011503304,0.030147748,-0.022999004,-0.0070855785,-0.06911625,-0.02456583,0.0114752725,0.0018562935,-7.053709e-05,0.00794721,-0.019879125,6.682621e-05,-0.03375375,0.03721975,0.00110506,0.039813507,0.0046044025,0.012539074,0.01256867,0.0046969894,0.02922463,0.02019924,0.016018065,0.0,-0.038238842
156,-0.06784125,0.038971696,-0.105154574,0.019146424,0.004689111,0.03158103,0.03230294,0.043206025,0.022989552,0.0058281366,-0.0009865302,0.009438144,0.0058537163,-0.02376683,-0.0011055182,0.0,-0.0034300163,-0.05483673,-0.022039179,0.07331367,-0.013222072,0.00012194706,0.0025598248,0.0,-0.021437624,-0.00071082887,0.03022528,-0.022952966,-0.006251174,-0.07003941,-0.024257166,0.012288345,0.0017452537,-3.4402212e-05,0.008068734,-0.019472217,0.0004897088,-0.033701144,0.037184287,0.0012679853,0.040455014,0.004704931,0.013529508,0.014325496,0.005343337,0.029138628,0.021678228,0.015684605,0.0,-0.037756592
157,-0.06917779,0.03899217,-0.107001156,0.02004679,0.004771375,0.032840632,0.031914696,0.04304912,0.02174271,0.0067937453,-0.0013276216,0.00951678,0.005490016,-0.025345262,0.00043995967,0.0,-0.0033344114,-0.054414306,-0.021106865,0.07666584,-0.011949574,-0.0003291962,0.002540157,0.0,-0.021350347,-0.0014559947,0.031910237,-0.023216205,-0.0081033325,-0.072256796,-0.024136415,0.011705325,0.0016872801,-0.0005208514,0.008881824,-0.01992448,0.0005529245,-0.03225441,0.03695844,0.0013614526,0.039075032,0.004636946,0.013251578,0.011183236,0.0039690966,0.029176991,0.021455906,0.014592957,0.0,-0.037175424
158,-0.07004735,0.03942905,-0.10642797,0.017729193,0.004516828,0.03149577,0.031826854,0.044065494,0.021408148,0.0073979017,-0.0017800567,0.010122137,0.005080235,-0.025240166,-0.0011197402,0.0,-0.003236115,-0.054426383,-0.020290736,0.07409488,-0.008788243,-5.427724e-05,0.0020871076,0.0,-0.021859456,-0.0025319941,0.029498257,-0.02345365,-0.0077022407,-0.072344705,-0.023720762,0.013528856,0.0024719734,0.00021249472,0.007459825,-0.01870504,3.5782898e-05,-0.03270309,0.04102224,0.0008539908,0.03478794,0.004722725,0.012232141,0.012522056,0.0025317748,0.030640384,0.02103254,0.014140664,0.0,-0.038049836
159,-0.07122778,0.041636474,-0.10579372,0.018725142,0.0031439574,0.033423748,0.031862363,0.045172576,0.0207514,0.0075520854,0.0007360724,0.010133665,0.00561129,-0.024367156,-0.0026434874,0.0,-0.0032099315,-0.053776234,-0.020539554,0.07621394,-0.012727909,-0.00015415781,0.0022752383,0.0,-0.021309923,-0.0033916747,0.029595945,-0.023552496,-0.009097008,-0.07398691,-0.023783717,0.011859945,0.00266749,0.0008201378,0.0074893124,-0.017449128,0.00056822103,-0.031750064,0.039269812,6.724998e-05,0.036724977,0.004567669,0.012581584,0.0125082685,0.00212599,0.031365484,0.020451406,0.014267961,0.0,-0.03903613
160,-0.07036799,0.04017738,-0.107107215,0.01959336,0.0034571614,0.033700608,0.032311406,0.045559518,0.019110031,0.008377486,-0.0014346067,0.010560533,0.0061758966,-0.02700365,-0.00056946743,0.00012899171,-0.0031590778,-0.05451189,-0.022435775,0.07759296,-0.015290262,-0.00016653704,0.002252003,0.0004995171,-0.021780308,-0.002644389,0.030172624,-0.023648221,-0.008933005,-0.07178265,-0.024628753,0.0114470795,0.0024575288,-0.00038586612,0.008228907,-0.019047812,-0.00013723542,0.0,0.041724674,-8.6298154e-05,0.037249718,0.0046460098,0.012252938,0.014952715,0.0,0.033607513,0.021842424,0.014050796,-6.268185e-05,-0.038734607
